{"learner":{"attributes":{"scikit_learn":"{\"_estimator_type\": \"regressor\"}"},"feature_names":[],"feature_types":[],"gradient_booster":{"model":{"cats":{"enc":[],"feature_segments":[],"sorted_idx":[]},"gbtree_model_param":{"num_parallel_tree":"1","num_trees":"100"},"iteration_indptr":[0,1,2,3,4,5,6,7,8,9,10,11,12,13,14,15,16,17,18,19,20,21,22,23,24,25,26,27,28,29,30,31,32,33,34,35,36,37,38,39,40,41,42,43,44,45,46,47,48,49,50,51,52,53,54,55,56,57,58,59,60,61,62,63,64,65,66,67,68,69,70,71,72,73,74,75,76,77,78,79,80,81,82,83,84,85,86,87,88,89,90,91,92,93,94,95,96,97,98,99,100],"tree_info":[0,0,0,0,0,0,0,0,0,0,0,0,0,0,0,0,0,0,0,0,0,0,0,0,0,0,0,0,0,0,0,0,0,0,0,0,0,0,0,0,0,0,0,0,0,0,0,0,0,0,0,0,0,0,0,0,0,0,0,0,0,0,0,0,0,0,0,0,0,0,0,0,0,0,0,0,0,0,0,0,0,0,0,0,0,0,0,0,0,0,0,0,0,0,0,0,0,0,0,0],"trees":[{"base_weights":[-6.191947E-8,-1.1827873E0,6.7427545E0,-2.3109124E0,5.1494485E-1,6.2820435E0,7.41412E1,-2.1428526E1,-2.2841942E0,-1.5093707E-1,1.7135125E0,4.741508E0,1.2068995E1,5.9252186E1,1.10399315E2,-3.5318658E0,-1.5577273E1,-3.6450565E0,-2.00089E0,-5.608094E-1,3.9104614E-1,1.3263676E0,2.262627E0,3.9242482E0,6.8051496E0,1.0213531E1,1.7658558E1,4.3267292E1,7.053543E0,1.1257591E1,6.2263185E-1,-2.043661E1,-1.3454907E1,-4.427272E0,-3.3040912E0,-2.2810388E0,-1.505875E0,-5.4888946E-1,-9.437779E-1,4.1243857E-1,-2.6020756E-1,1.3416046E0,2.4224325E-1,2.2890527E0,1.5125914E0,3.575066E0,5.0699897E0,6.072469E0,7.327208E0,9.38367E0,1.2025141E1,1.5498038E1,2.1921425E1,4.6047378E0,-9.105221E-1,-2.138612E0,2.263186E-2,-1.4378904E-1,-1.428759E0,-8.301554E-1,-4.3256497E-1,-3.2937393E-1,-3.4536374E-1,-2.2372368E-1,-2.4284334E-1,-1.4773642E-1,-1.5976141E-1,-5.2561413E-2,-6.77907E-2,-1.5351991E-1,-8.9412436E-2,-2.293955E-2,4.2148188E-2,-1.1564156E-1,-1.55392205E-2,1.4477244E-1,1.2197526E-1,-7.3538475E-2,4.5681555E-2,9.453366E-2,2.2995928E-1,4.981258E-2,1.7628063E-1,3.2250607E-1,4.059584E-1,4.7268707E-1,5.1827383E-1,3.5670683E-1,6.105221E-1,1.7301993E-1,7.394319E-1,9.886491E-1,8.595753E-1,6.5789527E-1,1.2186861E0,1.6101087E0,1.3256767E0,1.9975895E0,2.6944206E0,7.263186E-2,-1.6982418E-1],"categories":[],"categories_nodes":[],"categories_segments":[],"categories_sizes":[],"default_left":[0,0,0,0,0,0,0,0,0,0,0,0,0,0,0,0,0,0,0,0,0,0,0,0,0,0,0,0,0,0,0,0,0,0,0,0,0,0,0,0,0,0,0,0,0,0,0,0,0,0,0,0,0,0,0,0,0,0,0,0,0,0,0,0,0,0,0,0,0,0,0,0,0,0,0,0,0,0,0,0,0,0,0,0,0,0,0,0,0,0,0,0,0,0,0,0,0,0,0,0,0],"id":0,"left_children":[1,3,5,7,9,11,13,15,17,19,21,23,25,27,29,-1,31,33,35,37,39,41,43,45,47,49,51,53,-1,-1,-1,55,57,59,61,63,65,67,69,71,73,75,77,79,81,83,85,87,89,91,93,95,97,-1,99,-1,-1,-1,-1,-1,-1,-1,-1,-1,-1,-1,-1,-1,-1,-1,-1,-1,-1,-1,-1,-1,-1,-1,-1,-1,-1,-1,-1,-1,-1,-1,-1,-1,-1,-1,-1,-1,-1,-1,-1,-1,-1,-1,-1,-1,-1],"loss_changes":[1.2758795E6,2.606769E5,7.408811E5,4.1718E4,4.336607E4,2.1135325E5,8.091394E4,8.715141E3,3.1474594E4,7.7599287E3,4.122457E3,3.1562031E4,5.1520188E4,1.8050438E4,9.72925E3,0E0,5.707168E2,3.7376875E3,9.369656E3,9.0279785E1,2.0967114E2,1.8772461E2,1.5555469E2,5.350453E3,1.9873594E3,5.5173438E3,1.1089906E4,6.3056484E3,0E0,0E0,0E0,4.5609375E2,5.798369E2,1.6444609E3,3.8046875E0,2.7321875E2,6.1539062E1,5.7575684E1,1.6217651E1,8.463037E1,4.481582E1,1.4339648E2,3.3689663E1,1.0755859E2,6.918024E1,1.7315781E3,9.666406E1,1.600625E2,1.1504844E3,9.343906E2,9.529375E2,9.043281E2,3.5171406E3,0E0,6.390951E0,0E0,0E0,0E0,0E0,0E0,0E0,0E0,0E0,0E0,0E0,0E0,0E0,0E0,0E0,0E0,0E0,0E0,0E0,0E0,0E0,0E0,0E0,0E0,0E0,0E0,0E0,0E0,0E0,0E0,0E0,0E0,0E0,0E0,0E0,0E0,0E0,0E0,0E0,0E0,0E0,0E0,0E0,0E0,0E0,0E0,0E0],"parents":[2147483647,0,0,1,1,2,2,3,3,4,4,5,5,6,6,7,7,8,8,9,9,10,10,11,11,12,12,13,13,14,14,16,16,17,17,18,18,19,19,20,20,21,21,22,22,23,23,24,24,25,25,26,26,27,27,31,31,32,32,33,33,34,34,35,35,36,36,37,37,38,38,39,39,40,40,41,41,42,42,43,43,44,44,45,45,46,46,47,47,48,48,49,49,50,50,51,51,52,52,54,54],"right_children":[2,4,6,8,10,12,14,16,18,20,22,24,26,28,30,-1,32,34,36,38,40,42,44,46,48,50,52,54,-1,-1,-1,56,58,60,62,64,66,68,70,72,74,76,78,80,82,84,86,88,90,92,94,96,98,-1,100,-1,-1,-1,-1,-1,-1,-1,-1,-1,-1,-1,-1,-1,-1,-1,-1,-1,-1,-1,-1,-1,-1,-1,-1,-1,-1,-1,-1,-1,-1,-1,-1,-1,-1,-1,-1,-1,-1,-1,-1,-1,-1,-1,-1,-1,-1],"split_conditions":[6E0,2E0,4.2E1,-1E1,4E0,1.2E1,8.7E1,-2.7E1,0E0,3E0,5E0,9E0,1.8E1,6.1E1,4.09E2,-3.5318658E0,-1.7E1,-1E0,1E0,3.003E3,3.003E3,3.118E3,3.003E3,8E0,1E1,1.5E1,2.3E1,2E0,7.053543E0,1.1257591E1,6.2263185E-1,6.15E2,4.04E2,-5E0,2.946E3,5E0,5E0,1.9E1,4.84E2,2.3E1,2E0,4.71E2,3.128E3,1.3E1,5.66E2,7E0,2.5E2,1.3E1,1.3E1,4.71E2,4.8E1,1.443E3,2.9E1,4.6047378E0,1.4E1,-2.138612E0,2.263186E-2,-1.4378904E-1,-1.428759E0,-8.301554E-1,-4.3256497E-1,-3.2937393E-1,-3.4536374E-1,-2.2372368E-1,-2.4284334E-1,-1.4773642E-1,-1.5976141E-1,-5.2561413E-2,-6.77907E-2,-1.5351991E-1,-8.9412436E-2,-2.293955E-2,4.2148188E-2,-1.1564156E-1,-1.55392205E-2,1.4477244E-1,1.2197526E-1,-7.3538475E-2,4.5681555E-2,9.453366E-2,2.2995928E-1,4.981258E-2,1.7628063E-1,3.2250607E-1,4.059584E-1,4.7268707E-1,5.1827383E-1,3.5670683E-1,6.105221E-1,1.7301993E-1,7.394319E-1,9.886491E-1,8.595753E-1,6.5789527E-1,1.2186861E0,1.6101087E0,1.3256767E0,1.9975895E0,2.6944206E0,7.263186E-2,-1.6982418E-1],"split_indices":[5,5,5,5,5,5,5,5,5,5,5,5,5,5,1,0,5,5,5,1,1,1,1,5,5,5,5,4,0,0,0,0,0,5,1,4,4,3,0,1,4,1,1,1,0,5,1,1,1,1,1,1,5,0,3,0,0,0,0,0,0,0,0,0,0,0,0,0,0,0,0,0,0,0,0,0,0,0,0,0,0,0,0,0,0,0,0,0,0,0,0,0,0,0,0,0,0,0,0,0,0],"split_type":[0,0,0,0,0,0,0,0,0,0,0,0,0,0,0,0,0,0,0,0,0,0,0,0,0,0,0,0,0,0,0,0,0,0,0,0,0,0,0,0,0,0,0,0,0,0,0,0,0,0,0,0,0,0,0,0,0,0,0,0,0,0,0,0,0,0,0,0,0,0,0,0,0,0,0,0,0,0,0,0,0,0,0,0,0,0,0,0,0,0,0,0,0,0,0,0,0,0,0,0,0],"sum_hessian":[1.59978E5,1.36104E5,2.3874E4,8.1769E4,5.4335E4,2.3713E4,1.61E2,1.13E2,8.1656E4,3.493E4,1.9405E4,1.8729E4,4.984E3,1.16E2,4.5E1,3.2E1,8.1E1,1.4068E4,6.7588E4,1.9889E4,1.5041E4,1.1383E4,8.022E3,1.3418E4,5.311E3,3.744E3,1.24E3,5E1,6.6E1,4.4E1,1E0,2.2E1,5.9E1,4.267E3,9.801E3,4.3159E4,2.4429E4,1.9291E4,5.98E2,1.4563E4,4.78E2,1.1225E4,1.58E2,7.747E3,2.75E2,1.0287E4,3.131E3,2.215E3,3.096E3,2.572E3,1.172E3,8.26E2,4.14E2,4.7E1,3E0,2.1E1,1E0,4E0,5.5E1,1.07E2,4.16E3,9.188E3,6.13E2,3.3284E4,9.875E3,1.865E4,5.779E3,1.6347E4,2.944E3,4.4E1,5.54E2,2.02E2,1.4361E4,4.9E1,4.29E2,5.994E3,5.231E3,2.8E1,1.3E2,6.1E1,7.686E3,5.5E1,2.2E2,5.977E3,4.31E3,7.85E2,2.346E3,3E1,2.185E3,3.7E1,3.059E3,1.563E3,1.009E3,3.5E1,1.137E3,6.46E2,1.8E2,3.02E2,1.12E2,1E0,2E0],"tree_param":{"num_deleted":"0","num_feature":"6","num_nodes":"101","size_leaf_vector":"1"}},{"base_weights":[1.7984548E-4,-1.0645792E0,6.070087E0,-2.0799427E0,4.6345618E-1,5.6505346E0,6.6324265E1,-2.1660921E1,-2.0585818E0,-1.3585688E-1,1.542202E0,4.455239E0,1.1687808E1,5.2604176E1,9.867104E1,-3.2714982E0,-1.5772878E1,-3.2945914E0,-1.8008125E0,-5.047466E-1,3.5193416E-1,1.1937518E0,2.0364327E0,3.5319514E0,6.3977003E0,1.0226502E1,1.7470064E1,3.8902794E1,6.317757E0,1.0051873E2,5.915003E-1,-4.003841E0,-1.6769993E1,-4.937367E0,-3.141739E0,-2.0529456E0,-1.3553002E0,-4.9400666E-1,-8.4980565E-1,3.650336E-1,-5.749986E-1,1.2074678E0,2.178438E-1,2.1567059E0,1.8845115E0,3.2176301E0,4.563307E0,5.8075194E0,7.3988733E0,9.242619E0,1.1919438E1,1.6398874E1,2.3933142E1,4.125737E0,-8.43768E-1,8.025889E0,1.1032625E1,-8.7043756E-1,-1.3228591E-1,-1.8812817E0,-1.3767889E0,-9.396178E-1,-4.6141836E-1,-3.672577E-1,-2.973751E-1,-2.0135199E-1,-2.1856146E-1,-1.3296357E-1,-1.4378804E-1,-4.2621512E-2,-5.3677823E-2,-1.1660322E-1,-7.738805E-2,4.3458268E-2,2.8627742E-2,-3.8696066E-1,-3.199266E-2,1.3029759E-1,1.09780066E-1,-6.6438206E-2,4.114828E-2,1.9364393E-1,2.3090227E-1,5.7165433E-2,1.9107328E-1,2.9026088E-1,3.6537194E-1,3.377643E-1,4.5920855E-1,2.3033383E-1,5.851116E-1,3.1842837E-1,7.462762E-1,9.912078E-1,8.1467485E-1,-7.337109E-2,1.1986619E0,1.7611332E0,1.3934116E0,-3.9313373E-1,2.4751132E0,6.900027E-2,-1.5850258E-1],"categories":[],"categories_nodes":[],"categories_segments":[],"categories_sizes":[],"default_left":[0,0,0,0,0,0,0,0,0,0,0,0,0,0,0,0,0,0,0,0,0,0,0,0,0,0,0,0,0,0,0,0,0,0,0,0,0,0,0,0,0,0,0,0,0,0,0,0,0,0,0,0,0,0,0,0,0,0,0,0,0,0,0,0,0,0,0,0,0,0,0,0,0,0,0,0,0,0,0,0,0,0,0,0,0,0,0,0,0,0,0,0,0,0,0,0,0,0,0,0,0,0,0],"id":1,"left_children":[1,3,5,7,9,11,13,15,17,19,21,23,25,27,29,-1,31,33,35,37,39,41,43,45,47,49,51,53,-1,55,-1,57,59,61,63,65,67,69,71,73,75,77,79,81,83,85,87,89,91,93,95,97,99,-1,101,-1,-1,-1,-1,-1,-1,-1,-1,-1,-1,-1,-1,-1,-1,-1,-1,-1,-1,-1,-1,-1,-1,-1,-1,-1,-1,-1,-1,-1,-1,-1,-1,-1,-1,-1,-1,-1,-1,-1,-1,-1,-1,-1,-1,-1,-1,-1,-1],"loss_changes":[1.03394894E6,2.1116942E5,6.031802E5,3.4156844E4,3.512879E4,1.7105425E5,6.803656E4,5.276715E3,2.6018406E4,6.2857007E3,3.3395664E3,3.547697E4,3.2927062E4,1.4636906E4,7.631875E3,0E0,6.369619E2,3.5235156E3,7.5893906E3,7.3291016E1,1.8285425E2,1.5211914E2,1.4253516E2,4.3354375E3,3.7244375E3,5.1033125E3,5.069922E3,5.0884688E3,0E0,4.841875E2,0E0,6.409764E1,7.828906E1,1.6829785E3,1.1391562E3,2.2134375E2,4.986328E1,5.5708984E1,1.347937E1,8.112219E1,1.752381E2,1.1615234E2,2.7435877E1,1.4553125E2,1.2121973E2,1.4027266E3,9.1359375E1,6.000625E2,6.1196094E2,1.3747969E3,9.837969E2,1.7867344E3,2.6045195E3,0E0,5.6413503E0,0E0,0E0,0E0,0E0,0E0,0E0,0E0,0E0,0E0,0E0,0E0,0E0,0E0,0E0,0E0,0E0,0E0,0E0,0E0,0E0,0E0,0E0,0E0,0E0,0E0,0E0,0E0,0E0,0E0,0E0,0E0,0E0,0E0,0E0,0E0,0E0,0E0,0E0,0E0,0E0,0E0,0E0,0E0,0E0,0E0,0E0,0E0,0E0],"parents":[2147483647,0,0,1,1,2,2,3,3,4,4,5,5,6,6,7,7,8,8,9,9,10,10,11,11,12,12,13,13,14,14,16,16,17,17,18,18,19,19,20,20,21,21,22,22,23,23,24,24,25,25,26,26,27,27,29,29,31,31,32,32,33,33,34,34,35,35,36,36,37,37,38,38,39,39,40,40,41,41,42,42,43,43,44,44,45,45,46,46,47,47,48,48,49,49,50,50,51,51,52,52,54,54],"right_children":[2,4,6,8,10,12,14,16,18,20,22,24,26,28,30,-1,32,34,36,38,40,42,44,46,48,50,52,54,-1,56,-1,58,60,62,64,66,68,70,72,74,76,78,80,82,84,86,88,90,92,94,96,98,100,-1,102,-1,-1,-1,-1,-1,-1,-1,-1,-1,-1,-1,-1,-1,-1,-1,-1,-1,-1,-1,-1,-1,-1,-1,-1,-1,-1,-1,-1,-1,-1,-1,-1,-1,-1,-1,-1,-1,-1,-1,-1,-1,-1,-1,-1,-1,-1,-1,-1],"split_conditions":[6E0,2E0,4.1E1,-1.2E1,4E0,1.3E1,8.5E1,-2.8E1,0E0,3E0,5E0,9E0,2E1,6.1E1,4.09E2,-3.2714982E0,4.04E2,-2E0,1E0,3.003E3,3.118E3,3.118E3,4.77E2,8E0,1.1E1,1.6E1,2.9E1,2E0,6.317757E0,1.08E2,5.915003E-1,-1.7E1,-1.6E1,-7E0,-1E0,5E0,5E0,4.78E2,5.62E2,4.71E2,2E0,4.71E2,3.128E3,2.5E2,4.93E2,7E0,4.8E1,1.3E1,2.3E1,4.71E2,1.3E1,4.66E2,9E0,4.125737E0,1.4E1,8.025889E0,1.1032625E1,-8.7043756E-1,-1.3228591E-1,-1.8812817E0,-1.3767889E0,-9.396178E-1,-4.6141836E-1,-3.672577E-1,-2.973751E-1,-2.0135199E-1,-2.1856146E-1,-1.3296357E-1,-1.4378804E-1,-4.2621512E-2,-5.3677823E-2,-1.1660322E-1,-7.738805E-2,4.3458268E-2,2.8627742E-2,-3.8696066E-1,-3.199266E-2,1.3029759E-1,1.09780066E-1,-6.6438206E-2,4.114828E-2,1.9364393E-1,2.3090227E-1,5.7165433E-2,1.9107328E-1,2.9026088E-1,3.6537194E-1,3.377643E-1,4.5920855E-1,2.3033383E-1,5.851116E-1,3.1842837E-1,7.462762E-1,9.912078E-1,8.1467485E-1,-7.337109E-2,1.1986619E0,1.7611332E0,1.3934116E0,-3.9313373E-1,2.4751132E0,6.900027E-2,-1.5850258E-1],"split_indices":[5,5,5,5,5,5,5,5,5,5,5,5,5,5,1,0,0,5,5,1,1,1,1,5,5,5,5,4,0,5,0,5,5,5,5,4,4,0,0,1,4,1,1,1,1,5,1,1,1,1,1,1,3,0,3,0,0,0,0,0,0,0,0,0,0,0,0,0,0,0,0,0,0,0,0,0,0,0,0,0,0,0,0,0,0,0,0,0,0,0,0,0,0,0,0,0,0,0,0,0,0,0,0],"split_type":[0,0,0,0,0,0,0,0,0,0,0,0,0,0,0,0,0,0,0,0,0,0,0,0,0,0,0,0,0,0,0,0,0,0,0,0,0,0,0,0,0,0,0,0,0,0,0,0,0,0,0,0,0,0,0,0,0,0,0,0,0,0,0,0,0,0,0,0,0,0,0,0,0,0,0,0,0,0,0,0,0,0,0,0,0,0,0,0,0,0,0,0,0,0,0,0,0,0,0,0,0,0,0],"sum_hessian":[1.59978E5,1.36104E5,2.3874E4,8.1769E4,5.4335E4,2.371E4,1.64E2,8.8E1,8.1681E4,3.493E4,1.9405E4,1.9793E4,3.917E3,1.17E2,4.7E1,2.9E1,5.9E1,1.4093E4,6.7588E4,1.9889E4,1.5041E4,1.1383E4,8.022E3,1.3418E4,6.375E3,3.129E3,7.88E2,5.3E1,6.4E1,4.6E1,1E0,5E0,5.4E1,1.197E3,1.2896E4,4.3159E4,2.4429E4,1.9291E4,5.98E2,1.4832E4,2.09E2,1.1225E4,1.58E2,4.47E3,3.552E3,1.0287E4,3.131E3,4.015E3,2.36E3,1.983E3,1.146E3,6.79E2,1.09E2,5E1,3E0,1.8E1,2.8E1,1E0,4E0,2.9E1,2.5E1,7.9E1,1.118E3,3.095E3,9.801E3,3.3284E4,9.875E3,1.865E4,5.779E3,7.467E3,1.1824E4,1.13E2,4.85E2,7.874E3,6.958E3,1.4E1,1.95E2,5.994E3,5.231E3,2.8E1,1.3E2,1.833E3,2.637E3,7E1,3.482E3,5.977E3,4.31E3,7.7E1,3.054E3,5E1,3.965E3,3.6E1,2.324E3,1.226E3,7.57E2,6E0,1.14E3,4.51E2,2.28E2,3E0,1.06E2,1E0,2E0],"tree_param":{"num_deleted":"0","num_feature":"6","num_nodes":"103","size_leaf_vector":"1"}},{"base_weights":[3.585222E-4,-9.581951E-1,5.4648166E0,-1.8720744E0,4.171152E-1,5.0963564E0,6.1454655E1,-1.7517954E1,-1.8502084E0,-1.2228939E-1,1.3880275E0,4.0098834E0,1.0571415E1,4.9378513E1,9.107169E1,-2.8847837E1,-1.2744734E1,-2.9524605E0,-1.6207416E0,-4.5428652E-1,3.1671774E-1,1.0743955E0,1.8328735E0,3.1788647E0,5.758225E0,9.204788E0,1.5918495E1,3.583832E1,5.78119E0,9.292829E0,5.619253E-1,-3.265221E0,-2.2105777E0,-1.672941E1,-1.1004863E1,-3.585762E0,-2.6764064E0,-1.8476609E0,-1.2197814E0,-4.0079817E-1,-5.144303E-1,3.2853517E-1,-5.1949376E-1,1.0867424E0,1.9590044E-1,1.8561869E0,1.1717705E0,2.895931E0,4.1072307E0,5.2269707E0,6.6594367E0,8.319266E0,1.0728477E1,1.4763625E1,2.2383978E1,3.8411393E0,-7.817668E-1,-1.7594897E0,1.1556435E-1,-1.2170303E-1,-1.1682261E0,-6.7828393E-1,-3.5019192E-1,-2.6670584E-1,-2.8119454E-1,-1.66665E-1,-1.8714581E-1,-1.199183E-1,-1.3224687E-1,-4.357678E-2,-9.747785E-3,-1.1567768E-1,-5.043378E-2,4.3208636E-2,2.814287E-2,-2.6332167E-1,-1.525776E-2,1.1727001E-1,9.880416E-2,6.299858E-2,-1.9917559E-2,6.618071E-2,1.8655787E-1,2.615416E-2,1.3971147E-1,2.6123965E-1,3.2884327E-1,3.8080576E-1,4.2056724E-1,4.8856145E-1,5.6440824E-1,2.874461E-1,6.716806E-1,8.9216775E-1,7.3331493E-1,-6.708214E-2,1.0789008E0,1.2742866E0,1.6104282E0,-3.636487E-1,2.3088272E0,6.555026E-2,-1.4793573E-1],"categories":[],"categories_nodes":[],"categories_segments":[],"categories_sizes":[],"default_left":[0,0,0,0,0,0,0,0,0,0,0,0,0,0,0,0,0,0,0,0,0,0,0,0,0,0,0,0,0,0,0,0,0,0,0,0,0,0,0,0,0,0,0,0,0,0,0,0,0,0,0,0,0,0,0,0,0,0,0,0,0,0,0,0,0,0,0,0,0,0,0,0,0,0,0,0,0,0,0,0,0,0,0,0,0,0,0,0,0,0,0,0,0,0,0,0,0,0,0,0,0,0,0],"id":2,"left_children":[1,3,5,7,9,11,13,15,17,19,21,23,25,27,29,31,33,35,37,39,41,43,45,47,49,51,53,55,-1,-1,-1,-1,-1,57,59,61,63,65,67,69,71,73,75,77,79,81,83,85,87,89,91,93,95,97,99,-1,101,-1,-1,-1,-1,-1,-1,-1,-1,-1,-1,-1,-1,-1,-1,-1,-1,-1,-1,-1,-1,-1,-1,-1,-1,-1,-1,-1,-1,-1,-1,-1,-1,-1,-1,-1,-1,-1,-1,-1,-1,-1,-1,-1,-1,-1,-1],"loss_changes":[8.379715E5,1.7106675E5,4.9222894E5,2.7942E4,2.8456725E4,1.4105619E5,5.1297938E4,5.797465E3,2.064875E4,5.091306E3,2.7055195E3,2.8740469E4,2.8549906E4,1.0831531E4,6.458375E3,1.24625E2,3.8438574E2,2.4500156E3,6.147375E3,6.3779785E1,1.4881348E2,1.2326465E2,1.21478516E2,3.5128125E3,3.0178438E3,4.1339062E3,5.6280312E3,4.3644297E3,0E0,0E0,0E0,0E0,0E0,3.7635645E2,3.8359766E2,1.1202969E3,4.921875E0,1.8278125E2,5.0085938E1,1.1167041E2,6.0089844E1,7.223279E1,1.6246564E2,9.4083984E1,2.7393456E1,8.567969E1,5.6246246E1,1.1363281E3,7.622656E1,5.442422E2,4.933672E2,1.1131719E3,7.986875E2,1.637E3,2.264754E3,0E0,4.9802256E0,0E0,0E0,0E0,0E0,0E0,0E0,0E0,0E0,0E0,0E0,0E0,0E0,0E0,0E0,0E0,0E0,0E0,0E0,0E0,0E0,0E0,0E0,0E0,0E0,0E0,0E0,0E0,0E0,0E0,0E0,0E0,0E0,0E0,0E0,0E0,0E0,0E0,0E0,0E0,0E0,0E0,0E0,0E0,0E0,0E0,0E0],"parents":[2147483647,0,0,1,1,2,2,3,3,4,4,5,5,6,6,7,7,8,8,9,9,10,10,11,11,12,12,13,13,14,14,15,15,16,16,17,17,18,18,19,19,20,20,21,21,22,22,23,23,24,24,25,25,26,26,27,27,33,33,34,34,35,35,36,36,37,37,38,38,39,39,40,40,41,41,42,42,43,43,44,44,45,45,46,46,47,47,48,48,49,49,50,50,51,51,52,52,53,53,54,54,56,56],"right_children":[2,4,6,8,10,12,14,16,18,20,22,24,26,28,30,32,34,36,38,40,42,44,46,48,50,52,54,56,-1,-1,-1,-1,-1,58,60,62,64,66,68,70,72,74,76,78,80,82,84,86,88,90,92,94,96,98,100,-1,102,-1,-1,-1,-1,-1,-1,-1,-1,-1,-1,-1,-1,-1,-1,-1,-1,-1,-1,-1,-1,-1,-1,-1,-1,-1,-1,-1,-1,-1,-1,-1,-1,-1,-1,-1,-1,-1,-1,-1,-1,-1,-1,-1,-1,-1,-1],"split_conditions":[6E0,2E0,4.4E1,-1E1,4E0,1.3E1,9.1E1,-2.7E1,0E0,3E0,5E0,9E0,2E1,6.2E1,4.09E2,-3.2E1,-1.7E1,-1E0,1E0,4.71E2,3.118E3,3.118E3,3.003E3,8E0,1.1E1,1.6E1,2.9E1,2E0,5.78119E0,9.292829E0,5.619253E-1,-3.265221E0,-2.2105777E0,6.15E2,4.04E2,-5E0,2.946E3,2E0,1.9E1,4.38E2,4.79E2,4.06E2,3.128E3,4.71E2,1E0,1.3E1,5.66E2,7E0,2.5E2,1E1,2.3E1,4.71E2,1.3E1,1.2E1,9E0,3.8411393E0,1.4E1,-1.7594897E0,1.1556435E-1,-1.2170303E-1,-1.1682261E0,-6.7828393E-1,-3.5019192E-1,-2.6670584E-1,-2.8119454E-1,-1.66665E-1,-1.8714581E-1,-1.199183E-1,-1.3224687E-1,-4.357678E-2,-9.747785E-3,-1.1567768E-1,-5.043378E-2,4.3208636E-2,2.814287E-2,-2.6332167E-1,-1.525776E-2,1.1727001E-1,9.880416E-2,6.299858E-2,-1.9917559E-2,6.618071E-2,1.8655787E-1,2.615416E-2,1.3971147E-1,2.6123965E-1,3.2884327E-1,3.8080576E-1,4.2056724E-1,4.8856145E-1,5.6440824E-1,2.874461E-1,6.716806E-1,8.9216775E-1,7.3331493E-1,-6.708214E-2,1.0789008E0,1.2742866E0,1.6104282E0,-3.636487E-1,2.3088272E0,6.555026E-2,-1.4793573E-1],"split_indices":[5,5,5,5,5,5,5,5,5,5,5,5,5,5,1,5,5,5,5,1,1,1,1,5,5,5,5,4,0,0,0,0,0,0,0,5,1,4,3,1,1,0,1,1,2,1,0,5,1,5,1,1,1,3,3,0,3,0,0,0,0,0,0,0,0,0,0,0,0,0,0,0,0,0,0,0,0,0,0,0,0,0,0,0,0,0,0,0,0,0,0,0,0,0,0,0,0,0,0,0,0,0,0],"split_type":[0,0,0,0,0,0,0,0,0,0,0,0,0,0,0,0,0,0,0,0,0,0,0,0,0,0,0,0,0,0,0,0,0,0,0,0,0,0,0,0,0,0,0,0,0,0,0,0,0,0,0,0,0,0,0,0,0,0,0,0,0,0,0,0,0,0,0,0,0,0,0,0,0,0,0,0,0,0,0,0,0,0,0,0,0,0,0,0,0,0,0,0,0,0,0,0,0,0,0,0,0,0,0],"sum_hessian":[1.59978E5,1.36104E5,2.3874E4,8.1769E4,5.4335E4,2.3719E4,1.55E2,1.13E2,8.1656E4,3.493E4,1.9405E4,1.9793E4,3.926E3,1.12E2,4.3E1,3.2E1,8.1E1,1.4068E4,6.7588E4,1.9889E4,1.5041E4,1.1383E4,8.022E3,1.3418E4,6.375E3,3.129E3,7.97E2,4.5E1,6.7E1,4.2E1,1E0,1.8E1,1.4E1,2.2E1,5.9E1,4.267E3,9.801E3,4.3159E4,2.4429E4,1.0531E4,9.358E3,1.4832E4,2.09E2,1.1225E4,1.58E2,7.747E3,2.75E2,1.0287E4,3.131E3,4.015E3,2.36E3,1.983E3,1.146E3,6.79E2,1.18E2,4.2E1,3E0,2.1E1,1E0,4E0,5.5E1,1.07E2,4.16E3,9.188E3,6.13E2,5.023E3,3.8136E4,2.0358E4,4.071E3,9.442E3,1.089E3,1.43E2,9.215E3,4.635E3,1.0197E4,3E1,1.79E2,5.994E3,5.231E3,7.5E1,8.3E1,6.1E1,7.686E3,5.5E1,2.2E2,5.977E3,4.31E3,7.85E2,2.346E3,2.215E3,1.8E3,3.6E1,2.324E3,1.226E3,7.57E2,6E0,1.14E3,2.75E2,4.04E2,3E0,1.15E2,1E0,2E0],"tree_param":{"num_deleted":"0","num_feature":"6","num_nodes":"103","size_leaf_vector":"1"}},{"base_weights":[4.4722517E-4,-8.6245155E-1,4.919603E0,-1.6849964E0,3.7540832E-1,4.5774717E0,5.4055027E1,-1.7758234E1,-1.6674625E0,-1.1007267E-1,1.2492597E0,3.4530785E0,8.803749E0,4.1592113E1,7.822463E1,-2.6782854E0,-1.2949952E1,-2.6685963E0,-1.4586763E0,-4.088689E-1,2.8503218E-1,9.6697867E-1,1.6496384E0,2.8610818E0,4.947911E0,7.4434466E0,1.2911607E1,3.17903E1,5.0000835E1,7.947552E1,5.3382903E-1,-3.3961937E0,-1.3756727E1,-4.048526E0,-2.5402079E0,-1.662903E0,-1.0978135E0,-3.9934883E-1,-7.147993E-1,3.0161667E-1,-2.1981448E-1,9.7808737E-1,1.7658132E-1,1.7562566E0,1.5150088E0,2.6063952E0,3.6967635E0,4.397273E0,5.340312E0,6.8414245E0,8.757648E0,1.1321541E1,1.6071978E1,3.3717117E0,-7.2418654E-1,5.1258745E0,-1.0849926E0,6.478817E0,9.1763315E0,-7.389412E-1,-1.1196678E-1,-1.5075606E0,-1.069491E0,-7.645394E-1,-3.7877592E-1,-2.9553595E-1,-2.4088216E-1,-1.6281246E-1,-1.7799483E-1,-1.07452445E-1,-1.1727734E-1,-3.780277E-2,-5.1756907E-2,-1.2217658E-1,-6.7240596E-2,-2.807119E-2,3.0982658E-2,-9.553212E-2,-1.3377926E-2,2.7944153E-2,9.883558E-2,-6.496243E-2,3.5813387E-2,1.5604489E-1,1.8917209E-1,3.313639E-2,1.5387021E-1,2.3512006E-1,2.9596657E-1,3.7903234E-1,3.3864862E-1,4.6303064E-1,4.0533057E-1,8.723983E-2,5.3940505E-1,7.224434E-1,6.241556E-1,9.3399316E-1,7.395107E-1,1.1835063E0,9.423365E-1,9.496245E-1,1.669546E0,6.227274E-2,-1.3807337E-1],"categories":[],"categories_nodes":[],"categories_segments":[],"categories_sizes":[],"default_left":[0,0,0,0,0,0,0,0,0,0,0,0,0,0,0,0,0,0,0,0,0,0,0,0,0,0,0,0,0,0,0,0,0,0,0,0,0,0,0,0,0,0,0,0,0,0,0,0,0,0,0,0,0,0,0,0,0,0,0,0,0,0,0,0,0,0,0,0,0,0,0,0,0,0,0,0,0,0,0,0,0,0,0,0,0,0,0,0,0,0,0,0,0,0,0,0,0,0,0,0,0,0,0,0,0],"id":3,"left_children":[1,3,5,7,9,11,13,15,17,19,21,23,25,27,29,-1,31,33,35,37,39,41,43,45,47,49,51,53,55,57,-1,59,61,63,65,67,69,71,73,75,77,79,81,83,85,87,89,91,93,95,97,99,101,-1,103,-1,-1,-1,-1,-1,-1,-1,-1,-1,-1,-1,-1,-1,-1,-1,-1,-1,-1,-1,-1,-1,-1,-1,-1,-1,-1,-1,-1,-1,-1,-1,-1,-1,-1,-1,-1,-1,-1,-1,-1,-1,-1,-1,-1,-1,-1,-1,-1,-1,-1],"loss_changes":[6.7907244E5,1.3858208E5,4.0110906E5,2.3015344E4,2.3051547E4,1.1264425E5,4.6448375E4,3.5151309E3,1.7069516E4,4.123925E3,2.1916582E3,1.6560688E4,2.7742938E4,7.559172E3,4.5902812E3,0E0,4.1574414E2,2.4867031E3,4.979328E3,5.7643555E1,1.26007324E2,9.97832E1,1.125E2,2.8464297E3,1.1242891E3,2.9030625E3,6.0392344E3,3.4074883E3,4.9957344E3,3.8004375E3,0E0,4.62703E1,6.086621E1,1.0946992E3,6.963594E2,1.7279688E2,4.1390625E1,4.843164E1,1.2052185E1,6.971582E1,3.0183073E1,8.025879E1,2.408261E1,1.156416E2,9.9132324E1,9.2053125E2,7.808203E1,1.5885547E2,7.388906E2,5.460625E2,8.615703E2,6.9459375E2,1.5305938E3,0E0,4.397071E0,0E0,0E0,0E0,0E0,0E0,0E0,0E0,0E0,0E0,0E0,0E0,0E0,0E0,0E0,0E0,0E0,0E0,0E0,0E0,0E0,0E0,0E0,0E0,0E0,0E0,0E0,0E0,0E0,0E0,0E0,0E0,0E0,0E0,0E0,0E0,0E0,0E0,0E0,0E0,0E0,0E0,0E0,0E0,0E0,0E0,0E0,0E0,0E0,0E0,0E0],"parents":[2147483647,0,0,1,1,2,2,3,3,4,4,5,5,6,6,7,7,8,8,9,9,10,10,11,11,12,12,13,13,14,14,16,16,17,17,18,18,19,19,20,20,21,21,22,22,23,23,24,24,25,25,26,26,27,27,28,28,29,29,31,31,32,32,33,33,34,34,35,35,36,36,37,37,38,38,39,39,40,40,41,41,42,42,43,43,44,44,45,45,46,46,47,47,48,48,49,49,50,50,51,51,52,52,54,54],"right_children":[2,4,6,8,10,12,14,16,18,20,22,24,26,28,30,-1,32,34,36,38,40,42,44,46,48,50,52,54,56,58,-1,60,62,64,66,68,70,72,74,76,78,80,82,84,86,88,90,92,94,96,98,100,102,-1,104,-1,-1,-1,-1,-1,-1,-1,-1,-1,-1,-1,-1,-1,-1,-1,-1,-1,-1,-1,-1,-1,-1,-1,-1,-1,-1,-1,-1,-1,-1,-1,-1,-1,-1,-1,-1,-1,-1,-1,-1,-1,-1,-1,-1,-1,-1,-1,-1,-1,-1],"split_conditions":[6E0,2E0,4.1E1,-1.2E1,4E0,1.2E1,8.4E1,-2.8E1,0E0,3E0,5E0,9E0,1.8E1,6.1E1,1.45E2,-2.6782854E0,4.04E2,-2E0,1E0,3.003E3,3.003E3,3.118E3,4.77E2,8E0,1E1,1.5E1,2.3E1,2E0,3.128E3,1.11E2,5.3382903E-1,-1.7E1,-1.5E1,-7E0,-1E0,5E0,5E0,1.9E1,4.84E2,2.3E1,2E0,2.3E1,3.128E3,2.5E2,4.93E2,7E0,2.189E3,4.77E2,1.3E1,4.71E2,4.88E2,1.443E3,9E0,3.3717117E0,1.4E1,5.1258745E0,-1.0849926E0,6.478817E0,9.1763315E0,-7.389412E-1,-1.1196678E-1,-1.5075606E0,-1.069491E0,-7.645394E-1,-3.7877592E-1,-2.9553595E-1,-2.4088216E-1,-1.6281246E-1,-1.7799483E-1,-1.07452445E-1,-1.1727734E-1,-3.780277E-2,-5.1756907E-2,-1.2217658E-1,-6.7240596E-2,-2.807119E-2,3.0982658E-2,-9.553212E-2,-1.3377926E-2,2.7944153E-2,9.883558E-2,-6.496243E-2,3.5813387E-2,1.5604489E-1,1.8917209E-1,3.313639E-2,1.5387021E-1,2.3512006E-1,2.9596657E-1,3.7903234E-1,3.3864862E-1,4.6303064E-1,4.0533057E-1,8.723983E-2,5.3940505E-1,7.224434E-1,6.241556E-1,9.3399316E-1,7.395107E-1,1.1835063E0,9.423365E-1,9.496245E-1,1.669546E0,6.227274E-2,-1.3807337E-1],"split_indices":[5,5,5,5,5,5,5,5,5,5,5,5,5,5,5,0,0,5,5,1,1,1,1,5,5,5,5,4,1,5,0,5,5,5,5,4,4,3,0,1,4,1,1,1,1,5,1,1,1,1,1,1,3,0,3,0,0,0,0,0,0,0,0,0,0,0,0,0,0,0,0,0,0,0,0,0,0,0,0,0,0,0,0,0,0,0,0,0,0,0,0,0,0,0,0,0,0,0,0,0,0,0,0,0,0],"split_type":[0,0,0,0,0,0,0,0,0,0,0,0,0,0,0,0,0,0,0,0,0,0,0,0,0,0,0,0,0,0,0,0,0,0,0,0,0,0,0,0,0,0,0,0,0,0,0,0,0,0,0,0,0,0,0,0,0,0,0,0,0,0,0,0,0,0,0,0,0,0,0,0,0,0,0,0,0,0,0,0,0,0,0,0,0,0,0,0,0,0,0,0,0,0,0,0,0,0,0,0,0,0,0,0,0],"sum_hessian":[1.59978E5,1.36104E5,2.3874E4,8.1769E4,5.4335E4,2.371E4,1.64E2,8.8E1,8.1681E4,3.493E4,1.9405E4,1.8729E4,4.981E3,1.1E2,5.4E1,2.9E1,5.9E1,1.4093E4,6.7588E4,1.9889E4,1.5041E4,1.1383E4,8.022E3,1.3418E4,5.311E3,3.744E3,1.237E3,5.3E1,5.7E1,5.3E1,1E0,5E0,5.4E1,1.197E3,1.2896E4,4.3159E4,2.4429E4,1.9291E4,5.98E2,1.4563E4,4.78E2,1.1225E4,1.58E2,4.47E3,3.552E3,1.0287E4,3.131E3,2.215E3,3.096E3,2.572E3,1.172E3,8.26E2,4.11E2,5E1,3E0,5.6E1,1E0,2.7E1,2.6E1,1E0,4E0,3.5E1,1.9E1,7.9E1,1.118E3,3.095E3,9.801E3,3.3284E4,9.875E3,1.865E4,5.779E3,1.6347E4,2.944E3,4.4E1,5.54E2,2.02E2,1.4361E4,4.9E1,4.29E2,1.63E2,1.1062E4,2.8E1,1.3E2,1.833E3,2.637E3,7E1,3.482E3,5.977E3,4.31E3,2.397E3,7.34E2,1.313E3,9.02E2,3.7E1,3.059E3,1.563E3,1.009E3,8.17E2,3.55E2,6.46E2,1.8E2,3.7E1,3.74E2,1E0,2E0],"tree_param":{"num_deleted":"0","num_feature":"6","num_nodes":"105","size_leaf_vector":"1"}},{"base_weights":[5.645649E-4,-7.76266E-1,4.429068E0,-1.5165989E0,3.3787197E-1,4.1306562E0,5.036736E1,-1.605102E1,-1.5007437E0,-9.9076495E-2,1.1243663E0,3.2455916E0,8.588492E0,4.0662422E1,7.527903E1,-2.363829E1,-1.1376792E1,-2.401856E0,-1.3128171E0,-3.679961E-1,2.5652182E-1,8.702895E-1,1.484741E0,2.5750668E0,4.656276E0,7.4662137E0,1.2968672E1,3.0926617E1,4.874694E1,7.6867714E0,5.0713754E-1,-2.8969686E0,-1.9212269E0,-3.1983924E0,-1.2101669E1,-3.6446276E0,-2.2862287E0,-1.4966205E0,-9.8804134E-1,-3.204348E-1,-4.214791E-1,2.6650834E-1,-4.500797E-1,9.585581E-1,7.7195174E-1,1.505312E0,9.018819E-1,2.3458073E0,3.3273165E0,4.2226E0,5.391977E0,6.939892E0,9.156714E0,1.1960023E1,1.852993E1,3.2798435E1,-6.707181E-1,4.973314E0,2.250695E1,-7.019941E-1,-1.0300944E-1,-1.241157E0,1.8516417E-1,-6.8904114E-1,-3.409322E-1,-2.659919E-1,-2.167964E-1,-1.3372381E-1,-1.5175776E-1,-9.6936174E-2,-1.0811923E-1,-3.519174E-2,-4.7397832E-3,-5.9268117E-2,-3.904004E-2,3.260043E-2,1.9914275E-2,-3.3554265E-1,-2.2543544E-2,7.742914E-2,1.07864894E-1,5.0660428E-2,8.2731225E-2,9.434674E-2,1.5228376E-1,8.473218E-3,1.1048615E-1,2.1161199E-1,2.6637673E-1,2.2941129E-1,3.3526072E-1,1.2622125E-1,4.259604E-1,2.1886633E-1,5.440635E-1,7.466607E-1,6.035146E-1,-3.5999623E-1,9.2135257E-1,1.3018548E0,9.8184794E-1,-4.075969E-1,1.9139198E0,2.3633535E0,3.4727943E0,5.91591E-2,-1.2886848E-1,-1.030743E0,3.6880887E0],"categories":[],"categories_nodes":[],"categories_segments":[],"categories_sizes":[],"default_left":[0,0,0,0,0,0,0,0,0,0,0,0,0,0,0,0,0,0,0,0,0,0,0,0,0,0,0,0,0,0,0,0,0,0,0,0,0,0,0,0,0,0,0,0,0,0,0,0,0,0,0,0,0,0,0,0,0,0,0,0,0,0,0,0,0,0,0,0,0,0,0,0,0,0,0,0,0,0,0,0,0,0,0,0,0,0,0,0,0,0,0,0,0,0,0,0,0,0,0,0,0,0,0,0,0,0,0,0,0],"id":4,"left_children":[1,3,5,7,9,11,13,15,17,19,21,23,25,27,29,31,33,35,37,39,41,43,45,47,49,51,53,55,57,-1,-1,-1,-1,59,61,63,65,67,69,71,73,75,77,79,81,83,85,87,89,91,93,95,97,99,101,103,105,-1,107,-1,-1,-1,-1,-1,-1,-1,-1,-1,-1,-1,-1,-1,-1,-1,-1,-1,-1,-1,-1,-1,-1,-1,-1,-1,-1,-1,-1,-1,-1,-1,-1,-1,-1,-1,-1,-1,-1,-1,-1,-1,-1,-1,-1,-1,-1,-1,-1,-1,-1],"loss_changes":[5.503627E5,1.12264414E5,3.2708306E5,1.8819422E4,1.8673086E4,9.3566625E4,3.417097E4,2.8874238E3,1.3829125E4,3.3404539E3,1.7755762E3,1.871114E4,1.9217281E4,7.386578E3,4.2947812E3,2.22125E2,2.9920947E2,2.0169453E3,4.0332344E3,5.0459473E1,1.0626349E2,9.8075195E1,9.483984E1,2.3064375E3,2.0115312E3,2.7213594E3,4.2658594E3,3.2158047E3,4.3332812E2,0E0,0E0,0E0,0E0,4.248634E1,2.4783691E2,8.914834E2,5.6421094E2,1.4213281E2,4.1460938E1,9.051538E1,4.9565308E1,5.9385498E1,1.3630415E2,1.3182666E2,7.8758545E1,7.4853516E1,4.5685074E1,7.4571484E2,7.414844E1,4.345547E2,3.5609375E2,1.0943594E3,5.6946484E2,1.4136562E3,1.7445508E3,8.1125E1,3.8826342E0,0E0,2.2668345E3,0E0,0E0,0E0,0E0,0E0,0E0,0E0,0E0,0E0,0E0,0E0,0E0,0E0,0E0,0E0,0E0,0E0,0E0,0E0,0E0,0E0,0E0,0E0,0E0,0E0,0E0,0E0,0E0,0E0,0E0,0E0,0E0,0E0,0E0,0E0,0E0,0E0,0E0,0E0,0E0,0E0,0E0,0E0,0E0,0E0,0E0,0E0,0E0,0E0,0E0],"parents":[2147483647,0,0,1,1,2,2,3,3,4,4,5,5,6,6,7,7,8,8,9,9,10,10,11,11,12,12,13,13,14,14,15,15,16,16,17,17,18,18,19,19,20,20,21,21,22,22,23,23,24,24,25,25,26,26,27,27,28,28,33,33,34,34,35,35,36,36,37,37,38,38,39,39,40,40,41,41,42,42,43,43,44,44,45,45,46,46,47,47,48,48,49,49,50,50,51,51,52,52,53,53,54,54,55,55,56,56,58,58],"right_children":[2,4,6,8,10,12,14,16,18,20,22,24,26,28,30,32,34,36,38,40,42,44,46,48,50,52,54,56,58,-1,-1,-1,-1,60,62,64,66,68,70,72,74,76,78,80,82,84,86,88,90,92,94,96,98,100,102,104,106,-1,108,-1,-1,-1,-1,-1,-1,-1,-1,-1,-1,-1,-1,-1,-1,-1,-1,-1,-1,-1,-1,-1,-1,-1,-1,-1,-1,-1,-1,-1,-1,-1,-1,-1,-1,-1,-1,-1,-1,-1,-1,-1,-1,-1,-1,-1,-1,-1,-1,-1,-1],"split_conditions":[6E0,2E0,4.5E1,-1.2E1,4E0,1.3E1,9.4E1,-2.7E1,0E0,3E0,5E0,9E0,2E1,6.6E1,4.09E2,-3.5E1,4.04E2,-2E0,1E0,4.71E2,3.118E3,4.71E2,3.003E3,8E0,1.1E1,1.7E1,2.9E1,2E0,3.128E3,7.6867714E0,5.0713754E-1,-2.8969686E0,-1.9212269E0,-1.7E1,6.15E2,-7E0,-1E0,2E0,1.9E1,4.38E2,1.303E3,4.71E2,2E0,2.5E2,1.311E3,4.8E1,5.66E2,7E0,4.8E1,1.3E1,2.3E1,4.71E2,1.3E1,4.66E2,9E0,1.2E1,1.4E1,4.973314E0,8.4E1,-7.019941E-1,-1.0300944E-1,-1.241157E0,1.8516417E-1,-6.8904114E-1,-3.409322E-1,-2.659919E-1,-2.167964E-1,-1.3372381E-1,-1.5175776E-1,-9.6936174E-2,-1.0811923E-1,-3.519174E-2,-4.7397832E-3,-5.9268117E-2,-3.904004E-2,3.260043E-2,1.9914275E-2,-3.3554265E-1,-2.2543544E-2,7.742914E-2,1.07864894E-1,5.0660428E-2,8.2731225E-2,9.434674E-2,1.5228376E-1,8.473218E-3,1.1048615E-1,2.1161199E-1,2.6637673E-1,2.2941129E-1,3.3526072E-1,1.2622125E-1,4.259604E-1,2.1886633E-1,5.440635E-1,7.466607E-1,6.035146E-1,-3.5999623E-1,9.2135257E-1,1.3018548E0,9.8184794E-1,-4.075969E-1,1.9139198E0,2.3633535E0,3.4727943E0,5.91591E-2,-1.2886848E-1,-1.030743E0,3.6880887E0],"split_indices":[5,5,5,5,5,5,5,5,5,5,5,5,5,5,1,5,0,5,5,1,1,1,1,5,5,5,5,4,1,0,0,0,0,5,0,5,5,4,3,1,1,1,4,1,1,1,0,5,1,1,1,1,1,1,3,3,3,0,5,0,0,0,0,0,0,0,0,0,0,0,0,0,0,0,0,0,0,0,0,0,0,0,0,0,0,0,0,0,0,0,0,0,0,0,0,0,0,0,0,0,0,0,0,0,0,0,0,0,0],"split_type":[0,0,0,0,0,0,0,0,0,0,0,0,0,0,0,0,0,0,0,0,0,0,0,0,0,0,0,0,0,0,0,0,0,0,0,0,0,0,0,0,0,0,0,0,0,0,0,0,0,0,0,0,0,0,0,0,0,0,0,0,0,0,0,0,0,0,0,0,0,0,0,0,0,0,0,0,0,0,0,0,0,0,0,0,0,0,0,0,0,0,0,0,0,0,0,0,0,0,0,0,0,0,0,0,0,0,0,0,0],"sum_hessian":[1.59978E5,1.36104E5,2.3874E4,8.1769E4,5.4335E4,2.3721E4,1.53E2,8.8E1,8.1681E4,3.493E4,1.9405E4,1.9793E4,3.928E3,1.12E2,4.1E1,3.2E1,5.6E1,1.4093E4,6.7588E4,1.9889E4,1.5041E4,1.1383E4,8.022E3,1.3418E4,6.375E3,3.129E3,7.99E2,5.3E1,5.9E1,4E1,1E0,1.2E1,2E1,5E0,5.1E1,1.197E3,1.2896E4,4.3159E4,2.4429E4,1.0531E4,9.358E3,1.4832E4,2.09E2,5.994E3,5.389E3,7.747E3,2.75E2,1.0287E4,3.131E3,4.015E3,2.36E3,2.39E3,7.39E2,6.79E2,1.2E2,5E1,3E0,5.6E1,3E0,1E0,4E0,5E1,1E0,7.9E1,1.118E3,3.095E3,9.801E3,5.023E3,3.8136E4,2.0358E4,4.071E3,9.442E3,1.089E3,1.435E3,7.923E3,7.874E3,6.958E3,1.4E1,1.95E2,2.368E3,3.626E3,9.32E2,4.457E3,2.36E2,7.511E3,5.5E1,2.2E2,5.977E3,4.31E3,7.7E1,3.054E3,5E1,3.965E3,3.6E1,2.324E3,1.506E3,8.84E2,3E0,7.36E2,4.51E2,2.28E2,3E0,1.17E2,1.1E1,3.9E1,1E0,2E0,1E0,2E0],"tree_param":{"num_deleted":"0","num_feature":"6","num_nodes":"109","size_leaf_vector":"1"}},{"base_weights":[6.4067903E-4,-6.987014E-1,3.9874032E0,-1.3650452E0,3.0408922E-1,3.7081385E0,4.409441E1,-1.8128735E1,-1.3537455E0,-8.918154E-2,1.011965E0,2.7956407E0,7.1379604E0,3.3849823E1,6.3968136E1,-2.4142177E0,-1.4002707E0,-2.1774757E0,-1.1815426E0,-3.312034E-1,2.308493E-1,7.8328854E-1,1.3363125E0,2.3176377E0,4.00263E0,6.033174E0,1.0474217E1,2.6621395E1,4.1257885E1,6.49743E1,4.8178068E-1,-6.152978E0,-2.1297686E0,-1.3469652E0,-8.8924557E-1,-3.226956E-1,-6.0466075E-1,2.4468343E-1,-1.9025959E-1,7.93229E-1,7.652898E-2,1.4315166E0,1.2161341E0,2.111273E0,2.9947648E0,3.536227E0,4.3350635E0,5.5315924E0,7.1282606E0,9.328137E0,1.3560928E1,2.8091905E0,-6.210736E-1,4.2427926E0,-9.792058E-1,5.314854E0,7.6566224E0,-7.7308756E-1,-4.7826177E-1,-2.5499326E-1,-1.9511898E-1,-1.3162853E-1,-1.4502291E-1,-8.8475995E-2,-1.2223388E-1,-3.0333867E-2,-4.300385E-2,-1.0641316E-1,-5.663169E-2,-2.852188E-2,2.5215631E-2,-7.816877E-2,-1.2104641E-2,1.7471092E-2,8.0232635E-2,4.8265528E-2,-2.918297E-2,1.2597437E-1,1.5503947E-1,1.485554E-2,1.2375473E-1,1.9045433E-1,2.3974526E-1,3.1196126E-1,2.798126E-1,3.748835E-1,3.222935E-1,6.2310822E-2,4.379743E-1,5.84392E-1,5.0336474E-1,2.5256047E-1,7.267599E-1,7.808232E-1,9.974729E-1,1.236359E0,1.5875863E0,5.620115E-2,-1.2027725E-1],"categories":[],"categories_nodes":[],"categories_segments":[],"categories_sizes":[],"default_left":[0,0,0,0,0,0,0,0,0,0,0,0,0,0,0,0,0,0,0,0,0,0,0,0,0,0,0,0,0,0,0,0,0,0,0,0,0,0,0,0,0,0,0,0,0,0,0,0,0,0,0,0,0,0,0,0,0,0,0,0,0,0,0,0,0,0,0,0,0,0,0,0,0,0,0,0,0,0,0,0,0,0,0,0,0,0,0,0,0,0,0,0,0,0,0,0,0,0,0],"id":5,"left_children":[1,3,5,7,9,11,13,15,17,19,21,23,25,27,29,-1,-1,31,33,35,37,39,41,43,45,47,49,51,53,55,-1,57,59,61,63,65,67,69,71,73,75,77,79,81,83,85,87,89,91,93,95,-1,97,-1,-1,-1,-1,-1,-1,-1,-1,-1,-1,-1,-1,-1,-1,-1,-1,-1,-1,-1,-1,-1,-1,-1,-1,-1,-1,-1,-1,-1,-1,-1,-1,-1,-1,-1,-1,-1,-1,-1,-1,-1,-1,-1,-1,-1,-1],"loss_changes":[4.4604194E5,9.094622E4,2.672477E5,1.546475E4,1.5126518E4,7.41885E4,3.1428375E4,1.026584E3,1.1588734E4,2.7056382E3,1.4383086E3,1.0796891E4,1.8299719E4,4.845547E3,2.96025E3,0E0,0E0,2.6664062E3,3.2668984E3,4.6079346E1,8.767627E1,7.991748E1,9.005371E1,1.8687812E3,8.0828125E2,2.0176094E3,4.253078E3,2.381004E3,3.5811719E3,3.3331094E3,0E0,3.2412793E2,1.0426289E3,1.3482812E2,3.541992E1,3.99552E1,9.95047E0,5.7743835E1,1.9513062E1,6.3026855E1,2.3927277E1,8.93457E1,8.1038086E1,6.0408984E2,6.816211E1,1.3552344E2,5.1090234E2,3.707422E2,7.339258E2,8.124844E2,7.2671484E2,0E0,3.428769E0,0E0,0E0,0E0,0E0,0E0,0E0,0E0,0E0,0E0,0E0,0E0,0E0,0E0,0E0,0E0,0E0,0E0,0E0,0E0,0E0,0E0,0E0,0E0,0E0,0E0,0E0,0E0,0E0,0E0,0E0,0E0,0E0,0E0,0E0,0E0,0E0,0E0,0E0,0E0,0E0,0E0,0E0,0E0,0E0,0E0,0E0],"parents":[2147483647,0,0,1,1,2,2,3,3,4,4,5,5,6,6,7,7,8,8,9,9,10,10,11,11,12,12,13,13,14,14,17,17,18,18,19,19,20,20,21,21,22,22,23,23,24,24,25,25,26,26,27,27,28,28,29,29,31,31,32,32,33,33,34,34,35,35,36,36,37,37,38,38,39,39,40,40,41,41,42,42,43,43,44,44,45,45,46,46,47,47,48,48,49,49,50,50,52,52],"right_children":[2,4,6,8,10,12,14,16,18,20,22,24,26,28,30,-1,-1,32,34,36,38,40,42,44,46,48,50,52,54,56,-1,58,60,62,64,66,68,70,72,74,76,78,80,82,84,86,88,90,92,94,96,-1,98,-1,-1,-1,-1,-1,-1,-1,-1,-1,-1,-1,-1,-1,-1,-1,-1,-1,-1,-1,-1,-1,-1,-1,-1,-1,-1,-1,-1,-1,-1,-1,-1,-1,-1,-1,-1,-1,-1,-1,-1,-1,-1,-1,-1,-1,-1],"split_conditions":[6E0,2E0,4.1E1,-1.7E1,4E0,1.2E1,8.4E1,-3.1E1,0E0,3E0,5E0,9E0,1.8E1,6.4E1,1.45E2,-2.4142177E0,-1.4002707E0,-5E0,1E0,3.003E3,3.003E3,3.118E3,4.77E2,8E0,1E1,1.5E1,2.4E1,2E0,3.128E3,1.14E2,4.8178068E-1,-9E0,-1E0,5E0,3.118E3,1.9E1,4.84E2,2.3E1,2E0,2.3E1,1E0,2.5E2,4.93E2,7E0,4.77E2,4.77E2,1.3E1,4.77E2,4.8E1,1E1,2.9E1,2.8091905E0,1.4E1,4.2427926E0,-9.792058E-1,5.314854E0,7.6566224E0,-7.7308756E-1,-4.7826177E-1,-2.5499326E-1,-1.9511898E-1,-1.3162853E-1,-1.4502291E-1,-8.8475995E-2,-1.2223388E-1,-3.0333867E-2,-4.300385E-2,-1.0641316E-1,-5.663169E-2,-2.852188E-2,2.5215631E-2,-7.816877E-2,-1.2104641E-2,1.7471092E-2,8.0232635E-2,4.8265528E-2,-2.918297E-2,1.2597437E-1,1.5503947E-1,1.485554E-2,1.2375473E-1,1.9045433E-1,2.3974526E-1,3.1196126E-1,2.798126E-1,3.748835E-1,3.222935E-1,6.2310822E-2,4.379743E-1,5.84392E-1,5.0336474E-1,2.5256047E-1,7.267599E-1,7.808232E-1,9.974729E-1,1.236359E0,1.5875863E0,5.620115E-2,-1.2027725E-1],"split_indices":[5,5,5,5,5,5,5,5,5,5,5,5,5,5,5,0,0,5,5,1,1,1,1,5,5,5,5,4,1,5,0,5,5,4,1,3,0,1,4,1,2,1,1,5,1,1,1,1,1,3,5,0,3,0,0,0,0,0,0,0,0,0,0,0,0,0,0,0,0,0,0,0,0,0,0,0,0,0,0,0,0,0,0,0,0,0,0,0,0,0,0,0,0,0,0,0,0,0,0],"split_type":[0,0,0,0,0,0,0,0,0,0,0,0,0,0,0,0,0,0,0,0,0,0,0,0,0,0,0,0,0,0,0,0,0,0,0,0,0,0,0,0,0,0,0,0,0,0,0,0,0,0,0,0,0,0,0,0,0,0,0,0,0,0,0,0,0,0,0,0,0,0,0,0,0,0,0,0,0,0,0,0,0,0,0,0,0,0,0,0,0,0,0,0,0,0,0,0,0,0,0],"sum_hessian":[1.59978E5,1.36104E5,2.3874E4,8.1769E4,5.4335E4,2.371E4,1.64E2,5.4E1,8.1715E4,3.493E4,1.9405E4,1.8729E4,4.981E3,1.1E2,5.4E1,2E1,3.4E1,1.4127E4,6.7588E4,1.9889E4,1.5041E4,1.1383E4,8.022E3,1.3418E4,5.311E3,3.744E3,1.237E3,5.8E1,5.2E1,5.3E1,1E0,1.66E2,1.3961E4,4.3159E4,2.4429E4,1.9291E4,5.98E2,1.4563E4,4.78E2,1.1225E4,1.58E2,4.47E3,3.552E3,1.0287E4,3.131E3,2.215E3,3.096E3,2.572E3,1.172E3,9.05E2,3.32E2,5.5E1,3E0,5.1E1,1E0,2.9E1,2.4E1,7.5E1,9.1E1,4.16E3,9.801E3,3.3284E4,9.875E3,2.4108E4,3.21E2,1.6347E4,2.944E3,4.4E1,5.54E2,2.02E2,1.4361E4,4.9E1,4.29E2,1.63E2,1.1062E4,7.5E1,8.3E1,1.833E3,2.637E3,7E1,3.482E3,5.977E3,4.31E3,1.906E3,1.225E3,1.313E3,9.02E2,3.7E1,3.059E3,1.574E3,9.98E2,3.5E1,1.137E3,2.74E2,6.31E2,2.23E2,1.09E2,1E0,2E0],"tree_param":{"num_deleted":"0","num_feature":"6","num_nodes":"99","size_leaf_vector":"1"}},{"base_weights":[7.1756396E-4,-6.288739E-1,3.5898502E0,-1.2286141E0,2.7368405E-1,3.3376994E0,3.980292E1,-1.3148172E1,-1.2156116E0,-8.027289E-2,9.107961E-1,2.6269307E0,6.9276986E0,2.8200851E1,5.439725E1,-1.9448116E1,-9.270166E0,-1.9454904E0,-1.0633956E0,-2.9809505E-1,2.0775816E-1,7.0497E-1,1.2027335E0,2.0859501E0,3.7650726E0,6.0552125E0,1.0380112E1,2.8891634E1,-1.8020916E0,4.449255E1,6.475454E1,-2.444853E0,-1.5836612E0,-2.26395E0,-9.900304E0,-2.9915535E0,-1.8481709E0,-1.212275E0,-8.003297E-1,-2.382554E-1,-3.3423638E-1,2.1621159E-1,-3.9032564E-1,7.838132E-1,6.158373E-1,1.2582536E0,1.0290613E0,1.9001875E0,2.6954772E0,3.411092E0,4.36559E0,5.2627325E0,6.7887497E0,9.527446E0,1.3361123E1,2.9880243E1,-5.7498527E-1,4.6099195E0,1.8507965E1,6.6492066E0,4.5769167E-1,-5.9688085E-1,-3.292168E-2,-1.0190867E0,2.459195E-1,-5.2772343E-1,-2.7763018E-1,-2.139102E-1,-1.7560907E-1,-1.1948943E-1,-1.3942981E-1,-7.7919945E-2,-8.683746E-2,-7.595887E-2,-2.2684941E-2,-3.1059293E-2,-4.298198E-2,3.0298E-2,1.7674556E-2,-2.2872785E-1,-6.1459737E-3,6.210146E-2,8.887154E-2,-9.625967E-2,6.303142E-2,7.240759E-2,1.2797199E-1,2.0383677E-2,1.1206891E-1,4.9232673E-2,1.9375053E-1,2.4131575E-1,2.7888766E-1,8.935109E-2,3.4426063E-1,4.6423298E-1,3.9184305E-1,5.5990726E-1,4.7633463E-1,7.256469E-1,5.721604E-1,1.0204085E0,7.1271735E-1,-1.2645857E-1,1.3985488E0,2.3102815E0,3.5329187E0,5.3391088E-2,-1.12258755E-1,-9.302455E-1,3.0878923E0],"categories":[],"categories_nodes":[],"categories_segments":[],"categories_sizes":[],"default_left":[0,0,0,0,0,0,0,0,0,0,0,0,0,0,0,0,0,0,0,0,0,0,0,0,0,0,0,0,0,0,0,0,0,0,0,0,0,0,0,0,0,0,0,0,0,0,0,0,0,0,0,0,0,0,0,0,0,0,0,0,0,0,0,0,0,0,0,0,0,0,0,0,0,0,0,0,0,0,0,0,0,0,0,0,0,0,0,0,0,0,0,0,0,0,0,0,0,0,0,0,0,0,0,0,0,0,0,0,0,0,0],"id":6,"left_children":[1,3,5,7,9,11,13,15,17,19,21,23,25,27,29,31,33,35,37,39,41,43,45,47,49,51,53,55,-1,57,59,-1,-1,61,63,65,67,69,71,73,75,77,79,81,83,85,87,89,91,93,95,97,99,101,103,105,107,-1,109,-1,-1,-1,-1,-1,-1,-1,-1,-1,-1,-1,-1,-1,-1,-1,-1,-1,-1,-1,-1,-1,-1,-1,-1,-1,-1,-1,-1,-1,-1,-1,-1,-1,-1,-1,-1,-1,-1,-1,-1,-1,-1,-1,-1,-1,-1,-1,-1,-1,-1,-1,-1],"loss_changes":[3.6150475E5,7.3674016E4,2.178734E5,1.2657055E4,1.2253397E4,6.0484188E4,2.6404469E4,1.9940898E3,9.072734E3,2.1916167E3,1.1652256E3,1.21795625E4,1.1738875E4,3.5219922E3,4.505078E3,2.087666E2,2.2923438E2,1.4292695E3,2.646164E3,4.2936157E1,7.6134766E1,7.951807E1,7.606641E1,1.5142734E3,1.3404609E3,1.7837812E3,1.8781875E3,2.7263672E3,0E0,8.1671875E2,3.1461562E3,0E0,0E0,4.104245E1,2.1180371E2,5.747617E2,3.417422E2,1.34875E2,3.4450195E1,4.4383514E1,2.788501E1,5.074066E1,1.3086649E2,1.0254736E2,1.2281299E2,6.8734375E1,1.4714209E2,5.395586E2,7.585742E1,3.1555078E2,2.7398047E2,2.2678516E2,7.680625E2,9.2935547E2,1.5974844E3,2.5074766E3,3.0282981E0,0E0,1.6634158E3,0E0,0E0,0E0,0E0,0E0,0E0,0E0,0E0,0E0,0E0,0E0,0E0,0E0,0E0,0E0,0E0,0E0,0E0,0E0,0E0,0E0,0E0,0E0,0E0,0E0,0E0,0E0,0E0,0E0,0E0,0E0,0E0,0E0,0E0,0E0,0E0,0E0,0E0,0E0,0E0,0E0,0E0,0E0,0E0,0E0,0E0,0E0,0E0,0E0,0E0,0E0,0E0],"parents":[2147483647,0,0,1,1,2,2,3,3,4,4,5,5,6,6,7,7,8,8,9,9,10,10,11,11,12,12,13,13,14,14,15,15,16,16,17,17,18,18,19,19,20,20,21,21,22,22,23,23,24,24,25,25,26,26,27,27,29,29,30,30,33,33,34,34,35,35,36,36,37,37,38,38,39,39,40,40,41,41,42,42,43,43,44,44,45,45,46,46,47,47,48,48,49,49,50,50,51,51,52,52,53,53,54,54,55,55,56,56,58,58],"right_children":[2,4,6,8,10,12,14,16,18,20,22,24,26,28,30,32,34,36,38,40,42,44,46,48,50,52,54,56,-1,58,60,-1,-1,62,64,66,68,70,72,74,76,78,80,82,84,86,88,90,92,94,96,98,100,102,104,106,108,-1,110,-1,-1,-1,-1,-1,-1,-1,-1,-1,-1,-1,-1,-1,-1,-1,-1,-1,-1,-1,-1,-1,-1,-1,-1,-1,-1,-1,-1,-1,-1,-1,-1,-1,-1,-1,-1,-1,-1,-1,-1,-1,-1,-1,-1,-1,-1,-1,-1,-1,-1,-1,-1],"split_conditions":[6E0,2E0,4.1E1,-1.2E1,4E0,1.3E1,8.2E1,-2.7E1,0E0,3E0,5E0,9E0,2E1,8.1E1,1.05E2,-3.6E1,4.04E2,-2E0,1E0,4.78E2,3.118E3,4.77E2,2.189E3,8E0,1.1E1,1.5E1,2.7E1,2E0,-1.8020916E0,3.118E3,4.09E2,-2.444853E0,-1.5836612E0,-1.7E1,6.15E2,-6E0,-1E0,2E1,5E0,2.3E1,5E0,4.06E2,3.128E3,2.5E2,4.79E2,4.8E1,2.257E3,4.8E1,2.5E2,1.3E1,4.77E2,4.71E2,4.88E2,1.431E3,9E0,5.6E1,1.4E1,4.6099195E0,8.4E1,6.6492066E0,4.5769167E-1,-5.9688085E-1,-3.292168E-2,-1.0190867E0,2.459195E-1,-5.2772343E-1,-2.7763018E-1,-2.139102E-1,-1.7560907E-1,-1.1948943E-1,-1.3942981E-1,-7.7919945E-2,-8.683746E-2,-7.595887E-2,-2.2684941E-2,-3.1059293E-2,-4.298198E-2,3.0298E-2,1.7674556E-2,-2.2872785E-1,-6.1459737E-3,6.210146E-2,8.887154E-2,-9.625967E-2,6.303142E-2,7.240759E-2,1.2797199E-1,2.0383677E-2,1.1206891E-1,4.9232673E-2,1.9375053E-1,2.4131575E-1,2.7888766E-1,8.935109E-2,3.4426063E-1,4.6423298E-1,3.9184305E-1,5.5990726E-1,4.7633463E-1,7.256469E-1,5.721604E-1,1.0204085E0,7.1271735E-1,-1.2645857E-1,1.3985488E0,2.3102815E0,3.5329187E0,5.3391088E-2,-1.12258755E-1,-9.302455E-1,3.0878923E0],"split_indices":[5,5,5,5,5,5,5,5,5,5,5,5,5,5,5,5,0,5,5,0,1,1,1,5,5,5,5,4,0,1,1,0,0,5,0,5,5,3,4,1,4,0,1,1,1,1,1,1,1,1,1,1,1,1,3,5,3,0,5,0,0,0,0,0,0,0,0,0,0,0,0,0,0,0,0,0,0,0,0,0,0,0,0,0,0,0,0,0,0,0,0,0,0,0,0,0,0,0,0,0,0,0,0,0,0,0,0,0,0,0,0],"split_type":[0,0,0,0,0,0,0,0,0,0,0,0,0,0,0,0,0,0,0,0,0,0,0,0,0,0,0,0,0,0,0,0,0,0,0,0,0,0,0,0,0,0,0,0,0,0,0,0,0,0,0,0,0,0,0,0,0,0,0,0,0,0,0,0,0,0,0,0,0,0,0,0,0,0,0,0,0,0,0,0,0,0,0,0,0,0,0,0,0,0,0,0,0,0,0,0,0,0,0,0,0,0,0,0,0,0,0,0,0,0,0],"sum_hessian":[1.59978E5,1.36104E5,2.3874E4,8.1769E4,5.4335E4,2.371E4,1.64E2,8.8E1,8.1681E4,3.493E4,1.9405E4,1.9793E4,3.917E3,9.3E1,7.1E1,3.2E1,5.6E1,1.4093E4,6.7588E4,1.9889E4,1.5041E4,1.1383E4,8.022E3,1.3418E4,6.375E3,3.129E3,7.88E2,9.2E1,1E0,3.9E1,3.2E1,1.1E1,2.1E1,5E0,5.1E1,1.197E3,1.2896E4,4.3159E4,2.4429E4,7.492E3,1.2397E4,1.4832E4,2.09E2,6.036E3,5.347E3,6.074E3,1.948E3,1.0287E4,3.131E3,4.015E3,2.36E3,1.508E3,1.621E3,6.16E2,1.72E2,8.9E1,3E0,3.6E1,3E0,3.1E1,1E0,1E0,4E0,5E1,1E0,1.01E2,1.096E3,3.095E3,9.801E3,3.9404E4,3.755E3,1.865E4,5.779E3,1.59E2,7.333E3,9.942E3,2.455E3,4.635E3,1.0197E4,3E1,1.79E2,2.368E3,3.668E3,4.8E1,5.299E3,2.36E2,5.838E3,1.95E2,1.753E3,2.66E2,1.0021E4,7.85E2,2.346E3,5E1,3.965E3,1.452E3,9.08E2,8.95E2,6.13E2,1.123E3,4.98E2,4.78E2,1.38E2,7E0,1.65E2,4.2E1,4.7E1,1E0,2E0,1E0,2E0],"tree_param":{"num_deleted":"0","num_feature":"6","num_nodes":"111","size_leaf_vector":"1"}},{"base_weights":[7.601512E-4,-5.660376E-1,3.2319229E0,-1.1058389E0,2.4631737E-1,3.0140858E0,3.743691E1,-1.4914617E1,-1.0965313E0,-7.225585E-2,8.1973976E-1,2.3643415E0,6.284183E0,3.045965E1,5.6693142E1,-1.9883572E0,-1.1507112E1,-1.7636791E0,-9.5706236E-1,-2.6829422E-1,1.8697E-1,6.3448334E-1,1.0825018E0,1.8774121E0,3.3887677E0,5.63766E0,1.0601439E1,2.306973E1,3.660292E1,5.7956223E0,4.3480706E-1,-7.609788E0,-1.238003E0,-4.990617E0,-1.7249553E0,-1.0910536E0,-7.203035E-1,-2.6073948E-1,-5.111616E-1,1.9459374E-1,-3.5241154E-1,7.39562E-1,5.78681E-1,1.09397E0,2.9135492E-1,1.5240531E0,2.1610055E0,3.0700908E0,3.9293938E0,5.0532236E0,6.9862547E0,1.0050787E1,1.8272993E1,2.4468513E1,-5.322036E-1,3.9330125E0,2.7391153E1,-1.007217E0,-3.6254486E-1,-6.5784234E-1,-4.0622932E-1,-2.0648329E-1,-1.5804996E-1,-1.0691159E-1,-1.2129798E-1,-7.0337385E-2,-8.047707E-2,-2.3918662E-2,-3.4574013E-2,-7.6824985E-2,-4.4980522E-2,-2.7685015E-2,2.0112157E-2,-2.065929E-1,-5.5347923E-3,-5.3717E-2,7.5908445E-2,5.9116412E-2,-3.895835E-5,1.5515852E-2,1.1012482E-1,-2.9629534E-2,7.9043046E-2,1.681069E-1,1.3177298E-1,7.166073E-2,2.1991585E-1,8.0591165E-2,3.0984324E-1,2.019459E-1,3.9937633E-1,5.4607934E-1,4.3534943E-1,-4.381914E-1,7.0236564E-1,9.065491E-2,1.0303938E0,2.0285618E0,2.945175E-1,1.6478623E0,2.601535E0,5.0721537E-2,-1.0477485E-1,3.3161771E0,6.909318E-1],"categories":[],"categories_nodes":[],"categories_segments":[],"categories_sizes":[],"default_left":[0,0,0,0,0,0,0,0,0,0,0,0,0,0,0,0,0,0,0,0,0,0,0,0,0,0,0,0,0,0,0,0,0,0,0,0,0,0,0,0,0,0,0,0,0,0,0,0,0,0,0,0,0,0,0,0,0,0,0,0,0,0,0,0,0,0,0,0,0,0,0,0,0,0,0,0,0,0,0,0,0,0,0,0,0,0,0,0,0,0,0,0,0,0,0,0,0,0,0,0,0,0,0,0,0],"id":7,"left_children":[1,3,5,7,9,11,13,15,17,19,21,23,25,27,29,-1,31,33,35,37,39,41,43,45,47,49,51,53,55,-1,-1,57,-1,59,61,63,65,67,69,71,73,75,77,79,81,83,85,87,89,91,93,95,97,99,101,-1,103,-1,-1,-1,-1,-1,-1,-1,-1,-1,-1,-1,-1,-1,-1,-1,-1,-1,-1,-1,-1,-1,-1,-1,-1,-1,-1,-1,-1,-1,-1,-1,-1,-1,-1,-1,-1,-1,-1,-1,-1,-1,-1,-1,-1,-1,-1,-1,-1],"loss_changes":[2.9298988E5,5.968372E4,1.777825E5,1.0493383E4,9.925998E3,5.0394297E4,1.856086E4,7.024424E2,7.6016875E3,1.7751809E3,9.4396387E2,9.867344E3,1.0915266E4,4.285578E3,2.3265234E3,0E0,2.4861816E1,1.7568203E3,2.1433828E3,3.636084E1,6.1922974E1,6.632422E1,7.247461E1,1.3414297E3,1.0864297E3,2.6618125E3,1.9749883E3,1.7957773E3,4.300547E2,0E0,0E0,5.178253E1,0E0,2.1943408E2,6.822344E2,1.1414453E2,3.436914E1,3.5260376E1,9.103058E0,4.5704224E1,1.0678064E2,9.873657E1,5.3781006E1,5.386328E1,3.4254898E1,1.9144922E2,4.0853516E2,2.5521484E2,2.8219922E2,6.581133E2,4.695703E2,1.0994805E3,9.5827637E2,2.0161719E2,2.6749024E0,0E0,1.7801533E3,0E0,0E0,0E0,0E0,0E0,0E0,0E0,0E0,0E0,0E0,0E0,0E0,0E0,0E0,0E0,0E0,0E0,0E0,0E0,0E0,0E0,0E0,0E0,0E0,0E0,0E0,0E0,0E0,0E0,0E0,0E0,0E0,0E0,0E0,0E0,0E0,0E0,0E0,0E0,0E0,0E0,0E0,0E0,0E0,0E0,0E0,0E0,0E0],"parents":[2147483647,0,0,1,1,2,2,3,3,4,4,5,5,6,6,7,7,8,8,9,9,10,10,11,11,12,12,13,13,14,14,16,16,17,17,18,18,19,19,20,20,21,21,22,22,23,23,24,24,25,25,26,26,27,27,28,28,31,31,33,33,34,34,35,35,36,36,37,37,38,38,39,39,40,40,41,41,42,42,43,43,44,44,45,45,46,46,47,47,48,48,49,49,50,50,51,51,52,52,53,53,54,54,56,56],"right_children":[2,4,6,8,10,12,14,16,18,20,22,24,26,28,30,-1,32,34,36,38,40,42,44,46,48,50,52,54,56,-1,-1,58,-1,60,62,64,66,68,70,72,74,76,78,80,82,84,86,88,90,92,94,96,98,100,102,-1,104,-1,-1,-1,-1,-1,-1,-1,-1,-1,-1,-1,-1,-1,-1,-1,-1,-1,-1,-1,-1,-1,-1,-1,-1,-1,-1,-1,-1,-1,-1,-1,-1,-1,-1,-1,-1,-1,-1,-1,-1,-1,-1,-1,-1,-1,-1,-1,-1],"split_conditions":[6E0,2E0,4.6E1,-1.7E1,4E0,1.3E1,9.8E1,-3.1E1,0E0,3E0,5E0,9E0,2.2E1,6.7E1,4.09E2,-1.9883572E0,3E0,-5E0,1E0,3.003E3,3.118E3,4.06E2,3.118E3,7E0,1.1E1,1.7E1,3.6E1,2E0,3.118E3,5.7956223E0,4.3480706E-1,-2.7E1,-1.238003E0,-1E1,-1E0,1.9E1,1.9E1,5E0,5.62E2,2.3E1,3.128E3,4.8E1,3.118E3,1.3E1,1.3E1,4.71E2,4.8E1,1.3E1,5.3E1,4.71E2,1.3E1,7.4E1,2E0,1.2E1,1.4E1,3.9330125E0,8.1E1,-1.007217E0,-3.6254486E-1,-6.5784234E-1,-4.0622932E-1,-2.0648329E-1,-1.5804996E-1,-1.0691159E-1,-1.2129798E-1,-7.0337385E-2,-8.047707E-2,-2.3918662E-2,-3.4574013E-2,-7.6824985E-2,-4.4980522E-2,-2.7685015E-2,2.0112157E-2,-2.065929E-1,-5.5347923E-3,-5.3717E-2,7.5908445E-2,5.9116412E-2,-3.895835E-5,1.5515852E-2,1.1012482E-1,-2.9629534E-2,7.9043046E-2,1.681069E-1,1.3177298E-1,7.166073E-2,2.1991585E-1,8.0591165E-2,3.0984324E-1,2.019459E-1,3.9937633E-1,5.4607934E-1,4.3534943E-1,-4.381914E-1,7.0236564E-1,9.065491E-2,1.0303938E0,2.0285618E0,2.945175E-1,1.6478623E0,2.601535E0,5.0721537E-2,-1.0477485E-1,3.3161771E0,6.909318E-1],"split_indices":[5,5,5,5,5,5,5,5,5,5,5,5,5,5,1,0,4,5,5,1,1,0,1,5,5,5,5,4,1,0,0,5,0,5,5,3,3,4,0,1,1,1,1,1,3,1,1,1,1,1,1,1,4,3,3,0,5,0,0,0,0,0,0,0,0,0,0,0,0,0,0,0,0,0,0,0,0,0,0,0,0,0,0,0,0,0,0,0,0,0,0,0,0,0,0,0,0,0,0,0,0,0,0,0,0],"split_type":[0,0,0,0,0,0,0,0,0,0,0,0,0,0,0,0,0,0,0,0,0,0,0,0,0,0,0,0,0,0,0,0,0,0,0,0,0,0,0,0,0,0,0,0,0,0,0,0,0,0,0,0,0,0,0,0,0,0,0,0,0,0,0,0,0,0,0,0,0,0,0,0,0,0,0,0,0,0,0,0,0,0,0,0,0,0,0,0,0,0,0,0,0,0,0,0,0,0,0,0,0,0,0,0,0],"sum_hessian":[1.59978E5,1.36104E5,2.3874E4,8.1769E4,5.4335E4,2.3724E4,1.5E2,5.4E1,8.1715E4,3.493E4,1.9405E4,1.9793E4,3.931E3,1.12E2,3.8E1,2E1,3.4E1,1.4127E4,6.7588E4,1.9889E4,1.5041E4,1.1383E4,8.022E3,1.3418E4,6.375E3,3.421E3,5.1E2,5.3E1,5.9E1,3.7E1,1E0,8E0,2.6E1,1.66E2,1.3961E4,4.3159E4,2.4429E4,1.9291E4,5.98E2,1.4832E4,2.09E2,3.944E3,7.439E3,7.907E3,1.15E2,5.977E3,7.441E3,4.015E3,2.36E3,2.39E3,1.031E3,4.78E2,3.2E1,5E1,3E0,4.3E1,1.6E1,4E0,4E0,5.9E1,1.07E2,4.16E3,9.801E3,3.6586E4,6.573E3,2.0358E4,4.071E3,1.5392E4,3.899E3,1.13E2,4.85E2,2.02E2,1.463E4,3E1,1.79E2,5.9E1,3.885E3,7.282E3,1.57E2,6.1E1,7.846E3,5.3E1,6.2E1,3.39E3,2.587E3,1.92E2,7.249E3,5E1,3.965E3,7.8E1,2.282E3,1.506E3,8.84E2,3E0,1.028E3,1.3E1,4.65E2,2.8E1,4E0,1E1,4E1,1E0,2E0,1.2E1,4E0],"tree_param":{"num_deleted":"0","num_feature":"6","num_nodes":"105","size_leaf_vector":"1"}},{"base_weights":[7.972123E-4,-5.0948197E-1,2.9097624E0,-9.953333E-1,2.2168298E-1,2.7129414E0,3.3814846E1,-1.3506721E1,-9.869002E-1,-6.504175E-2,7.37779E-1,2.2025669E0,6.115442E0,2.771185E1,5.18697E1,-1.9744812E0,-1.1105768E1,-1.5874122E0,-8.6136174E-1,-2.4147387E-1,1.6825834E-1,5.710422E-1,9.742734E-1,1.6897149E0,3.1562345E0,5.5005317E0,9.953656E0,2.1275345E1,3.3670563E1,5.3081047E1,4.1306672E-1,-1.1839194E0,-7.574886E-1,-3.3913584E0,-1.5279515E0,-9.8195356E-1,-6.4827925E-1,-2.017499E-1,-2.861508E-1,2.267153E-1,1.0401215E-1,6.3849664E-1,4.947906E-1,1.0546081E0,8.729082E-1,1.531191E0,2.209895E0,2.763179E0,3.6486866E0,4.963048E0,6.691683E0,9.378747E0,1.651609E1,2.2471636E1,-4.924966E-1,3.6207206E0,2.4748917E1,4.275706E0,6.006793E0,-5.412311E-1,-2.835294E-1,-1.794183E-1,-1.4224656E-1,-8.4011056E-2,-1.0006136E-1,-5.8714278E-2,-6.705633E-2,-2.4706675E-2,-4.642637E-3,-8.572204E-2,-2.771968E-2,1.8125808E-2,5.8876872E-2,-5.3351223E-2,1.1790001E-2,4.9437907E-2,7.313764E-2,-9.262115E-2,5.0783485E-2,9.0616785E-2,1.1574074E-1,5.5910446E-2,9.346978E-2,3.173418E-2,1.563377E-1,2.3307255E-1,2.0201445E-1,2.5356647E-1,3.0415845E-1,2.0895056E-1,3.7014458E-1,1.305663E-1,5.058032E-1,7.218314E-1,5.590586E-1,6.728139E-1,1.0175354E0,1.8327006E0,2.7095607E-1,1.4980568E0,2.3803418E0,4.8185457E-2,-9.7789854E-2,3.0349984E0,6.356572E-1],"categories":[],"categories_nodes":[],"categories_segments":[],"categories_sizes":[],"default_left":[0,0,0,0,0,0,0,0,0,0,0,0,0,0,0,0,0,0,0,0,0,0,0,0,0,0,0,0,0,0,0,0,0,0,0,0,0,0,0,0,0,0,0,0,0,0,0,0,0,0,0,0,0,0,0,0,0,0,0,0,0,0,0,0,0,0,0,0,0,0,0,0,0,0,0,0,0,0,0,0,0,0,0,0,0,0,0,0,0,0,0,0,0,0,0,0,0,0,0,0,0,0,0,0,0],"id":8,"left_children":[1,3,5,7,9,11,13,15,17,19,21,23,25,27,29,-1,31,33,35,37,39,41,43,45,47,49,51,53,55,57,-1,-1,-1,59,61,63,65,67,69,71,73,75,77,79,81,83,85,87,89,91,93,95,97,99,101,-1,103,-1,-1,-1,-1,-1,-1,-1,-1,-1,-1,-1,-1,-1,-1,-1,-1,-1,-1,-1,-1,-1,-1,-1,-1,-1,-1,-1,-1,-1,-1,-1,-1,-1,-1,-1,-1,-1,-1,-1,-1,-1,-1,-1,-1,-1,-1,-1,-1],"loss_changes":[2.374718E5,4.8349816E4,1.4513434E5,8.614234E3,8.0405527E3,4.1186188E4,1.5201094E4,6.0447363E2,6.158992E3,1.4378575E3,7.6466797E2,1.0085586E4,7.2475625E3,3.6942734E3,1.9203906E3,0E0,1.9084473E1,1.5102422E3,1.7361289E3,3.5241943E1,5.646869E1,5.8237793E1,6.441113E1,1.1031602E3,1.3862656E3,1.6755469E3,1.4523125E3,1.5214277E3,4.165078E2,2.8445312E1,0E0,0E0,0E0,4.9035547E2,3.8160352E2,1.1339453E2,3.288867E1,7.412088E1,4.7618347E1,1.2949957E2,6.3527298E1,8.0447266E1,9.9599976E1,6.717676E1,6.8369385E1,4.0144336E2,6.710156E1,2.4666602E2,2.5541406E2,6.3364453E2,4.3919922E2,7.6346484E2,7.7542285E2,1.9211719E2,2.3630123E0,0E0,1.4553467E3,0E0,0E0,0E0,0E0,0E0,0E0,0E0,0E0,0E0,0E0,0E0,0E0,0E0,0E0,0E0,0E0,0E0,0E0,0E0,0E0,0E0,0E0,0E0,0E0,0E0,0E0,0E0,0E0,0E0,0E0,0E0,0E0,0E0,0E0,0E0,0E0,0E0,0E0,0E0,0E0,0E0,0E0,0E0,0E0,0E0,0E0,0E0,0E0],"parents":[2147483647,0,0,1,1,2,2,3,3,4,4,5,5,6,6,7,7,8,8,9,9,10,10,11,11,12,12,13,13,14,14,16,16,17,17,18,18,19,19,20,20,21,21,22,22,23,23,24,24,25,25,26,26,27,27,28,28,29,29,33,33,34,34,35,35,36,36,37,37,38,38,39,39,40,40,41,41,42,42,43,43,44,44,45,45,46,46,47,47,48,48,49,49,50,50,51,51,52,52,53,53,54,54,56,56],"right_children":[2,4,6,8,10,12,14,16,18,20,22,24,26,28,30,-1,32,34,36,38,40,42,44,46,48,50,52,54,56,58,-1,-1,-1,60,62,64,66,68,70,72,74,76,78,80,82,84,86,88,90,92,94,96,98,100,102,-1,104,-1,-1,-1,-1,-1,-1,-1,-1,-1,-1,-1,-1,-1,-1,-1,-1,-1,-1,-1,-1,-1,-1,-1,-1,-1,-1,-1,-1,-1,-1,-1,-1,-1,-1,-1,-1,-1,-1,-1,-1,-1,-1,-1,-1,-1,-1,-1,-1],"split_conditions":[6E0,2E0,4.6E1,-1.7E1,4E0,1.4E1,1E2,-3.4E1,0E0,3E0,5E0,9E0,2.3E1,7E1,4.09E2,-1.9744812E0,-2E1,-3E0,1E0,4.71E2,4.71E2,4.77E2,4.77E2,8E0,1.1E1,1.8E1,3.6E1,2E0,3.118E3,1.22E2,4.1306672E-1,-1.1839194E0,-7.574886E-1,-8E0,-1E0,2E0,4.06E2,4.04E2,4.79E2,4.44E2,4.93E2,2.5E2,4.79E2,2.5E2,1.311E3,4.8E1,4.77E2,1E1,5.3E1,4.8E1,4.77E2,1.2E1,2E0,1.2E1,1.4E1,3.6207206E0,8.1E1,4.275706E0,6.006793E0,-5.412311E-1,-2.835294E-1,-1.794183E-1,-1.4224656E-1,-8.4011056E-2,-1.0006136E-1,-5.8714278E-2,-6.705633E-2,-2.4706675E-2,-4.642637E-3,-8.572204E-2,-2.771968E-2,1.8125808E-2,5.8876872E-2,-5.3351223E-2,1.1790001E-2,4.9437907E-2,7.313764E-2,-9.262115E-2,5.0783485E-2,9.0616785E-2,1.1574074E-1,5.5910446E-2,9.346978E-2,3.173418E-2,1.563377E-1,2.3307255E-1,2.0201445E-1,2.5356647E-1,3.0415845E-1,2.0895056E-1,3.7014458E-1,1.305663E-1,5.058032E-1,7.218314E-1,5.590586E-1,6.728139E-1,1.0175354E0,1.8327006E0,2.7095607E-1,1.4980568E0,2.3803418E0,4.8185457E-2,-9.7789854E-2,3.0349984E0,6.356572E-1],"split_indices":[5,5,5,5,5,5,5,5,5,5,5,5,5,5,1,0,5,5,5,1,1,1,1,5,5,5,5,4,1,5,0,0,0,5,5,4,0,1,1,1,1,1,1,1,1,1,1,5,1,1,1,3,4,3,3,0,5,0,0,0,0,0,0,0,0,0,0,0,0,0,0,0,0,0,0,0,0,0,0,0,0,0,0,0,0,0,0,0,0,0,0,0,0,0,0,0,0,0,0,0,0,0,0,0,0],"split_type":[0,0,0,0,0,0,0,0,0,0,0,0,0,0,0,0,0,0,0,0,0,0,0,0,0,0,0,0,0,0,0,0,0,0,0,0,0,0,0,0,0,0,0,0,0,0,0,0,0,0,0,0,0,0,0,0,0,0,0,0,0,0,0,0,0,0,0,0,0,0,0,0,0,0,0,0,0,0,0,0,0,0,0,0,0,0,0,0,0,0,0,0,0,0,0,0,0,0,0,0,0,0,0,0,0],"sum_hessian":[1.59978E5,1.36104E5,2.3874E4,8.1769E4,5.4335E4,2.3724E4,1.5E2,5.4E1,8.1715E4,3.493E4,1.9405E4,2.0631E4,3.093E3,1.14E2,3.6E1,1.3E1,4.1E1,1.4127E4,6.7588E4,1.9889E4,1.5041E4,1.1383E4,8.022E3,1.3418E4,7.213E3,2.668E3,4.25E2,5.7E1,5.7E1,3.5E1,1E0,3.2E1,9E0,4.49E2,1.3678E4,4.3159E4,2.4429E4,1.0531E4,9.358E3,7.874E3,7.167E3,6.036E3,5.347E3,4.47E3,3.552E3,1.0287E4,3.131E3,4.015E3,3.198E3,1.842E3,8.26E2,3.93E2,3.2E1,5.4E1,3E0,4.2E1,1.5E1,1.7E1,1.8E1,9.5E1,3.54E2,3.877E3,9.801E3,5.023E3,3.8136E4,6.533E3,1.7896E4,8.152E3,2.379E3,1.43E2,9.215E3,6.997E3,8.77E2,1.52E2,7.015E3,2.368E3,3.668E3,4.8E1,5.299E3,1.833E3,2.637E3,5.86E2,2.966E3,2.66E2,1.0021E4,1.906E3,1.225E3,2.215E3,1.8E3,1.06E2,3.092E3,4.7E1,1.795E3,5.55E2,2.71E2,9.3E1,3E2,2.8E1,4E0,1E1,4.4E1,1E0,2E0,1.1E1,4E0],"tree_param":{"num_deleted":"0","num_feature":"6","num_nodes":"105","size_leaf_vector":"1"}},{"base_weights":[8.6904573E-4,-4.585708E-1,2.620013E0,-8.958657E-1,1.9952075E-1,2.4599571E0,3.376216E1,-1.0232749E1,-8.8659674E-1,-5.8540646E-2,6.6402364E-1,1.9823955E0,5.6141663E0,2.7778639E1,4.7284504E1,-1.637296E1,-7.951156E0,-1.420299E0,-7.752301E-1,-2.1733366E-1,1.5143485E-1,5.139451E-1,8.768905E-1,1.5207897E0,2.8407688E0,5.0195956E0,9.944659E0,2.843759E1,-1.5117805E-1,4.841125E0,3.9241338E-1,-1.9739212E0,-1.2783018E0,-1.0105581E0,-8.552807E0,-2.8725727E0,-1.3751799E0,-8.837624E-1,-5.834565E-1,-1.9995672E-1,-3.1392154E-1,1.620876E-1,-1.727784E-1,5.365539E-1,3.174245E-1,8.9347595E-1,4.0811756E-1,1.2185336E0,1.7633812E0,2.4870002E0,3.2839992E0,4.4670887E0,6.1379733E0,8.724732E0,1.5982277E1,2.4786722E1,3.2503937E1,-6.8452895E-2,4.577619E-2,-4.6726227E-1,6.563794E-2,-9.989805E-1,-7.071685E-1,-4.4544396E-1,-2.5525635E-1,-1.6148108E-1,-1.2802337E-1,-8.565163E-2,-9.7550035E-2,-5.7207245E-2,-6.93375E-2,-1.1734737E-2,-2.2898475E-2,-4.309544E-2,-2.9090805E-2,-1.4798014E-2,1.7094463E-2,-4.4852854E-3,-4.7304504E-2,6.3293025E-2,4.867404E-2,3.375351E-2,-6.627852E-2,5.073783E-3,9.001569E-2,-3.2603633E-2,5.9230085E-2,1.3145022E-1,9.272873E-2,5.3342164E-2,1.7958805E-1,4.5846622E-2,2.5124586E-1,3.518993E-1,2.920527E-1,4.930512E-1,3.7068376E-1,4.822951E-1,6.7004627E-1,9.7520304E-1,6.8783164E-1,1.7189583E0,1.8491535E-1,2.6044078E0,-1.7783165E0,3.346586E0,1.6201639E0],"categories":[],"categories_nodes":[],"categories_segments":[],"categories_sizes":[],"default_left":[0,0,0,0,0,0,0,0,0,0,0,0,0,0,0,0,0,0,0,0,0,0,0,0,0,0,0,0,0,0,0,0,0,0,0,0,0,0,0,0,0,0,0,0,0,0,0,0,0,0,0,0,0,0,0,0,0,0,0,0,0,0,0,0,0,0,0,0,0,0,0,0,0,0,0,0,0,0,0,0,0,0,0,0,0,0,0,0,0,0,0,0,0,0,0,0,0,0,0,0,0,0,0,0,0,0,0],"id":9,"left_children":[1,3,5,7,9,11,13,15,17,19,21,23,25,27,29,31,33,35,37,39,41,43,45,47,49,51,53,55,57,-1,-1,-1,-1,59,61,63,65,67,69,71,73,75,77,79,81,83,85,87,89,91,93,95,97,99,101,103,105,-1,-1,-1,-1,-1,-1,-1,-1,-1,-1,-1,-1,-1,-1,-1,-1,-1,-1,-1,-1,-1,-1,-1,-1,-1,-1,-1,-1,-1,-1,-1,-1,-1,-1,-1,-1,-1,-1,-1,-1,-1,-1,-1,-1,-1,-1,-1,-1,-1,-1],"loss_changes":[1.9251017E5,3.916849E4,1.1892134E5,7.067586E3,6.5133105E3,3.577022E4,8.5576875E3,1.00458203E3,4.8542812E3,1.1647249E3,6.195078E2,8.1706953E3,7.991125E3,1.6054844E3,1.5688516E3,1.4511719E0,2.4608179E2,9.20084E2,1.4062539E3,3.3320618E1,5.1979523E1,5.0410156E1,6.2013184E1,9.8179297E2,1.123E3,1.6706016E3,2.6299688E3,4.5621094E2,1.2876873E0,0E0,0E0,0E0,0E0,3.969361E1,4.8543945E1,2.0326343E2,3.091582E2,1.0704297E2,3.0173828E1,4.0403137E1,8.038147E0,4.0022034E1,1.8378021E1,4.869873E1,2.342543E1,4.3577637E1,3.7513523E1,1.6586914E2,2.9652148E2,2.0625E2,2.6295703E2,6.3104297E2,6.3783594E2,5.304219E2,1.0261191E3,3.0858926E3,3.8015625E1,0E0,0E0,0E0,0E0,0E0,0E0,0E0,0E0,0E0,0E0,0E0,0E0,0E0,0E0,0E0,0E0,0E0,0E0,0E0,0E0,0E0,0E0,0E0,0E0,0E0,0E0,0E0,0E0,0E0,0E0,0E0,0E0,0E0,0E0,0E0,0E0,0E0,0E0,0E0,0E0,0E0,0E0,0E0,0E0,0E0,0E0,0E0,0E0,0E0,0E0],"parents":[2147483647,0,0,1,1,2,2,3,3,4,4,5,5,6,6,7,7,8,8,9,9,10,10,11,11,12,12,13,13,14,14,15,15,16,16,17,17,18,18,19,19,20,20,21,21,22,22,23,23,24,24,25,25,26,26,27,27,28,28,33,33,34,34,35,35,36,36,37,37,38,38,39,39,40,40,41,41,42,42,43,43,44,44,45,45,46,46,47,47,48,48,49,49,50,50,51,51,52,52,53,53,54,54,55,55,56,56],"right_children":[2,4,6,8,10,12,14,16,18,20,22,24,26,28,30,32,34,36,38,40,42,44,46,48,50,52,54,56,58,-1,-1,-1,-1,60,62,64,66,68,70,72,74,76,78,80,82,84,86,88,90,92,94,96,98,100,102,104,106,-1,-1,-1,-1,-1,-1,-1,-1,-1,-1,-1,-1,-1,-1,-1,-1,-1,-1,-1,-1,-1,-1,-1,-1,-1,-1,-1,-1,-1,-1,-1,-1,-1,-1,-1,-1,-1,-1,-1,-1,-1,-1,-1,-1,-1,-1,-1,-1,-1,-1],"split_conditions":[6E0,2E0,5.6E1,-1.3E1,4E0,1.4E1,1.01E2,-3.1E1,0E0,3E0,5E0,9E0,2.4E1,2E0,4.09E2,-4E1,4.04E2,-3E0,1E0,1.9E1,3.003E3,1.9E1,3.003E3,7E0,1.1E1,1.8E1,3.6E1,8.2E1,3.58E2,4.841125E0,3.9241338E-1,-1.9739212E0,-1.2783018E0,-1.7E1,-2E1,-8E0,-1E0,5E0,2E1,4.06E2,2E0,4.8E1,1.6E1,4.06E2,3.088E3,1.3E1,5.66E2,2.189E3,4.8E1,1.3E1,4.77E2,4.59E2,1E1,4.66E2,2E0,8.1E1,3.118E3,-6.8452895E-2,4.577619E-2,-4.6726227E-1,6.563794E-2,-9.989805E-1,-7.071685E-1,-4.4544396E-1,-2.5525635E-1,-1.6148108E-1,-1.2802337E-1,-8.565163E-2,-9.7550035E-2,-5.7207245E-2,-6.93375E-2,-1.1734737E-2,-2.2898475E-2,-4.309544E-2,-2.9090805E-2,-1.4798014E-2,1.7094463E-2,-4.4852854E-3,-4.7304504E-2,6.3293025E-2,4.867404E-2,3.375351E-2,-6.627852E-2,5.073783E-3,9.001569E-2,-3.2603633E-2,5.9230085E-2,1.3145022E-1,9.272873E-2,5.3342164E-2,1.7958805E-1,4.5846622E-2,2.5124586E-1,3.518993E-1,2.920527E-1,4.930512E-1,3.7068376E-1,4.822951E-1,6.7004627E-1,9.7520304E-1,6.8783164E-1,1.7189583E0,1.8491535E-1,2.6044078E0,-1.7783165E0,3.346586E0,1.6201639E0],"split_indices":[5,5,5,5,5,5,5,5,5,5,5,5,5,4,1,5,0,5,5,3,1,3,1,5,5,5,5,5,1,0,0,0,0,5,5,5,5,4,3,0,4,1,3,0,1,1,0,1,1,1,1,1,3,1,4,5,1,0,0,0,0,0,0,0,0,0,0,0,0,0,0,0,0,0,0,0,0,0,0,0,0,0,0,0,0,0,0,0,0,0,0,0,0,0,0,0,0,0,0,0,0,0,0,0,0,0,0],"split_type":[0,0,0,0,0,0,0,0,0,0,0,0,0,0,0,0,0,0,0,0,0,0,0,0,0,0,0,0,0,0,0,0,0,0,0,0,0,0,0,0,0,0,0,0,0,0,0,0,0,0,0,0,0,0,0,0,0,0,0,0,0,0,0,0,0,0,0,0,0,0,0,0,0,0,0,0,0,0,0,0,0,0,0,0,0,0,0,0,0,0,0,0,0,0,0,0,0,0,0,0,0,0,0,0,0,0,0],"sum_hessian":[1.59978E5,1.36104E5,2.3874E4,8.1769E4,5.4335E4,2.3753E4,1.21E2,8E1,8.1689E4,3.493E4,1.9405E4,2.0631E4,3.122E3,8.6E1,3.5E1,2E1,6E1,1.4101E4,6.7588E4,1.9889E4,1.5041E4,1.1383E4,8.022E3,1.3418E4,7.213E3,2.747E3,3.75E2,8.4E1,2E0,3.4E1,1E0,8E0,1.2E1,5E0,5.5E1,4.23E2,1.3678E4,4.3159E4,2.4429E4,1.6859E4,3.03E3,1.4563E4,4.78E2,1.0207E4,1.176E3,7.747E3,2.75E2,5.977E3,7.441E3,4.015E3,3.198E3,1.842E3,9.05E2,3.14E2,6.1E1,4.8E1,3.6E1,1E0,1E0,1E0,4E0,2.5E1,3E1,6.9E1,3.54E2,3.877E3,9.801E3,3.3284E4,9.875E3,2.2142E4,2.287E3,4.385E3,1.2474E4,4.95E2,2.535E3,4.04E2,1.4159E4,3.36E2,1.42E2,3.474E3,6.733E3,1.153E3,2.3E1,6.1E1,7.686E3,5.5E1,2.2E2,4.493E3,1.484E3,1.92E2,7.249E3,5E1,3.965E3,1.937E3,1.261E3,1.141E3,7.01E2,2.74E2,6.31E2,1.99E2,1.15E2,5.6E1,5E0,4.7E1,1E0,3.3E1,3E0],"tree_param":{"num_deleted":"0","num_feature":"6","num_nodes":"107","size_leaf_vector":"1"}},{"base_weights":[8.532202E-4,-4.127623E-1,2.358765E0,-8.063606E-1,1.7956951E-1,2.2142556E0,3.047614E1,-1.109579E1,-7.994253E-1,-5.269103E-2,5.9763163E-1,1.7842238E0,5.0545373E0,2.5453762E1,4.3806145E1,-1.7315289E0,-9.328896E0,-1.2859712E0,-6.977117E-1,-1.9560568E-1,1.3628817E-1,4.6255755E-1,7.892165E-1,1.4631077E0,2.7881336E0,4.4539127E0,8.566649E0,2.6030598E1,-1.4361914E-1,4.497874E0,3.7279272E-1,-1.070382E0,-7.548366E0,-2.750963E0,-1.237683E0,-7.953904E-1,-5.25116E-1,-5.3833675E-1,-1.9148052E-1,1.8859749E-1,7.880041E-2,4.7026214E-1,-8.432621E-2,8.3551884E-1,6.444879E-1,1.2334828E0,1.9046482E0,6.759929E-2,2.818385E0,4.0208483E0,5.4136276E0,7.6246467E0,1.4414757E1,2.2324907E1,2.9824455E1,-6.5030254E-2,4.348738E-2,-8.219561E-1,3.6089575E-1,-4.660492E-1,-2.3566292E-1,-1.4533715E-1,-1.15222335E-1,-7.808071E-2,-9.481755E-2,-5.2110493E-2,-8.2380734E-2,-4.774847E-2,-1.5454537E-1,-1.5246744E-2,-2.343832E-2,1.4788413E-2,5.1288385E-2,-4.9749244E-2,9.135657E-3,-3.932666E-3,4.777739E-2,-8.4765576E-2,8.529886E-3,8.193136E-2,1.393594E-1,-1.0855517E-2,7.28269E-2,-2.0564498E-2,1.2546521E-1,2.0498943E-1,1.6839726E-1,4.542914E-1,-1.6805138E-1,2.6007965E-1,3.17011E-1,6.9503695E-2,4.1074952E-1,5.7820934E-1,4.0666056E-1,-5.5140454E-2,7.860908E-1,1.5500783E0,1.6950573E-1,2.3493927E0,-1.6894007E0,3.060149E0,1.4986517E0],"categories":[],"categories_nodes":[],"categories_segments":[],"categories_sizes":[],"default_left":[0,0,0,0,0,0,0,0,0,0,0,0,0,0,0,0,0,0,0,0,0,0,0,0,0,0,0,0,0,0,0,0,0,0,0,0,0,0,0,0,0,0,0,0,0,0,0,0,0,0,0,0,0,0,0,0,0,0,0,0,0,0,0,0,0,0,0,0,0,0,0,0,0,0,0,0,0,0,0,0,0,0,0,0,0,0,0,0,0,0,0,0,0,0,0,0,0,0,0,0,0,0,0],"id":10,"left_children":[1,3,5,7,9,11,13,15,17,19,21,23,25,27,29,-1,31,33,35,37,39,41,43,45,47,49,51,53,55,-1,-1,-1,57,59,61,63,65,67,69,71,73,75,77,79,81,83,85,87,89,91,93,95,97,99,101,-1,-1,-1,-1,-1,-1,-1,-1,-1,-1,-1,-1,-1,-1,-1,-1,-1,-1,-1,-1,-1,-1,-1,-1,-1,-1,-1,-1,-1,-1,-1,-1,-1,-1,-1,-1,-1,-1,-1,-1,-1,-1,-1,-1,-1,-1,-1,-1],"loss_changes":[1.5602353E5,3.1731766E4,9.694206E4,5.8262617E3,5.2760205E3,2.9004398E4,7.052664E3,4.4287354E2,4.0430938E3,9.434394E2,5.0182666E2,6.647086E3,6.5496875E3,1.3473945E3,1.336168E3,0E0,2.9368164E1,9.960332E2,1.1390586E3,2.8017883E1,4.5218597E1,4.800659E1,5.3225586E1,1.5827578E3,4.1122656E2,1.0875195E3,2.3966562E3,5.8541016E2,1.1621379E0,0E0,0E0,0E0,2.019049E2,3.2786328E2,2.5046484E2,9.542383E1,2.8840332E1,1.3725357E1,3.286212E1,1.0389615E2,5.1913273E1,4.2990723E1,2.0659594E1,5.379883E1,1.2304285E2,3.1368652E2,1.679336E2,4.4574234E2,3.70125E2,5.282461E2,3.8695312E2,7.654199E2,8.301875E2,2.6434434E3,1.4105469E1,0E0,0E0,0E0,0E0,0E0,0E0,0E0,0E0,0E0,0E0,0E0,0E0,0E0,0E0,0E0,0E0,0E0,0E0,0E0,0E0,0E0,0E0,0E0,0E0,0E0,0E0,0E0,0E0,0E0,0E0,0E0,0E0,0E0,0E0,0E0,0E0,0E0,0E0,0E0,0E0,0E0,0E0,0E0,0E0,0E0,0E0,0E0,0E0],"parents":[2147483647,0,0,1,1,2,2,3,3,4,4,5,5,6,6,7,7,8,8,9,9,10,10,11,11,12,12,13,13,14,14,16,16,17,17,18,18,19,19,20,20,21,21,22,22,23,23,24,24,25,25,26,26,27,27,28,28,32,32,33,33,34,34,35,35,36,36,37,37,38,38,39,39,40,40,41,41,42,42,43,43,44,44,45,45,46,46,47,47,48,48,49,49,50,50,51,51,52,52,53,53,54,54],"right_children":[2,4,6,8,10,12,14,16,18,20,22,24,26,28,30,-1,32,34,36,38,40,42,44,46,48,50,52,54,56,-1,-1,-1,58,60,62,64,66,68,70,72,74,76,78,80,82,84,86,88,90,92,94,96,98,100,102,-1,-1,-1,-1,-1,-1,-1,-1,-1,-1,-1,-1,-1,-1,-1,-1,-1,-1,-1,-1,-1,-1,-1,-1,-1,-1,-1,-1,-1,-1,-1,-1,-1,-1,-1,-1,-1,-1,-1,-1,-1,-1,-1,-1,-1,-1,-1,-1],"split_conditions":[6E0,2E0,5.6E1,-1.7E1,4E0,1.4E1,1.06E2,-3.7E1,0E0,3E0,5E0,1E1,2.3E1,2E0,4.09E2,-1.7315289E0,-2.7E1,-3E0,1E0,2.3E1,4.71E2,3.118E3,2.189E3,8E0,1.3E1,1.8E1,3.6E1,8.2E1,3.58E2,4.497874E0,3.7279272E-1,-1.070382E0,6.15E2,-9E0,-1E0,2E1,3.118E3,6.26E2,4.71E2,4.44E2,4.93E2,2.3E1,3.128E3,1.417E3,2.257E3,2.3E1,4.77E2,1.2E1,1.2E1,4.8E1,1.443E3,7.4E1,2E0,8.1E1,3.118E3,-6.5030254E-2,4.348738E-2,-8.219561E-1,3.6089575E-1,-4.660492E-1,-2.3566292E-1,-1.4533715E-1,-1.15222335E-1,-7.808071E-2,-9.481755E-2,-5.2110493E-2,-8.2380734E-2,-4.774847E-2,-1.5454537E-1,-1.5246744E-2,-2.343832E-2,1.4788413E-2,5.1288385E-2,-4.9749244E-2,9.135657E-3,-3.932666E-3,4.777739E-2,-8.4765576E-2,8.529886E-3,8.193136E-2,1.393594E-1,-1.0855517E-2,7.28269E-2,-2.0564498E-2,1.2546521E-1,2.0498943E-1,1.6839726E-1,4.542914E-1,-1.6805138E-1,2.6007965E-1,3.17011E-1,6.9503695E-2,4.1074952E-1,5.7820934E-1,4.0666056E-1,-5.5140454E-2,7.860908E-1,1.5500783E0,1.6950573E-1,2.3493927E0,-1.6894007E0,3.060149E0,1.4986517E0],"split_indices":[5,5,5,5,5,5,5,5,5,5,5,5,5,4,1,0,5,5,5,1,1,1,1,5,1,5,5,5,1,0,0,0,0,5,5,3,1,0,1,1,1,1,1,1,1,1,1,1,5,1,1,1,4,5,1,0,0,0,0,0,0,0,0,0,0,0,0,0,0,0,0,0,0,0,0,0,0,0,0,0,0,0,0,0,0,0,0,0,0,0,0,0,0,0,0,0,0,0,0,0,0,0,0],"split_type":[0,0,0,0,0,0,0,0,0,0,0,0,0,0,0,0,0,0,0,0,0,0,0,0,0,0,0,0,0,0,0,0,0,0,0,0,0,0,0,0,0,0,0,0,0,0,0,0,0,0,0,0,0,0,0,0,0,0,0,0,0,0,0,0,0,0,0,0,0,0,0,0,0,0,0,0,0,0,0,0,0,0,0,0,0,0,0,0,0,0,0,0,0,0,0,0,0,0,0,0,0,0,0],"sum_hessian":[1.59978E5,1.36104E5,2.3874E4,8.1769E4,5.4335E4,2.3753E4,1.21E2,5.4E1,8.1715E4,3.493E4,1.9405E4,2.0631E4,3.122E3,9E1,3.1E1,1E1,4.4E1,1.4127E4,6.7588E4,1.9889E4,1.5041E4,1.1383E4,8.022E3,1.5633E4,4.998E3,2.668E3,4.54E2,8.8E1,2E0,3E1,1E0,2.2E1,2.2E1,4.49E2,1.3678E4,4.3159E4,2.4429E4,2.35E2,1.9654E4,7.874E3,7.167E3,1.1225E4,1.58E2,6.074E3,1.948E3,1.0287E4,5.346E3,5.5E1,4.943E3,1.842E3,8.26E2,3.93E2,6.1E1,4.8E1,4E1,1E0,1E0,2.1E1,1E0,7.5E1,3.74E2,3.877E3,9.801E3,3.9404E4,3.755E3,2.4108E4,3.21E2,2.23E2,1.2E1,1.0296E4,9.358E3,6.997E3,8.77E2,1.52E2,7.015E3,1.63E2,1.1062E4,2.8E1,1.3E2,5.905E3,1.69E2,1.95E2,1.753E3,1.49E2,1.0138E4,3.219E3,2.127E3,1.5E1,4E1,3.059E3,1.884E3,4.7E1,1.795E3,6.46E2,1.8E2,1.1E1,3.82E2,5.6E1,5E0,4.7E1,1E0,3.7E1,3E0],"tree_param":{"num_deleted":"0","num_feature":"6","num_nodes":"103","size_leaf_vector":"1"}},{"base_weights":[8.3554623E-4,-3.149353E-1,2.50756E0,-6.182316E-1,4.4780746E-1,2.335825E0,2.751105E1,-8.336298E-1,-3.3953023E-1,2.4916609E-1,8.2271105E-1,1.9237899E0,4.9090424E0,2.3548437E1,4.194405E1,-1.0045538E1,-8.247711E-1,-4.726099E-1,-1.7605734E-1,1.2266102E-1,4.1629893E-1,7.1032995E-1,9.733987E-1,1.5292846E0,2.5954802E0,4.546372E0,1.0331231E1,1.7399231E1,2.640266E1,4.339659E0,3.541531E-1,-1.6108109E0,-8.509207E0,-1.1574421E0,-7.158554E-1,-4.5339018E-1,-5.3454673E-1,-1.6030668E-1,-2.636126E-1,1.3890061E-1,-5.3249326E-2,4.7486228E-1,3.510849E-1,7.197616E-1,6.122949E-2,1.1080753E0,7.936428E-1,1.2995106E0,1.7142531E0,2.3106468E0,2.9373124E0,4.0409703E0,5.7452183E0,-6.8283415E-1,1.0719945E1,1.8499473E0,-1.3643818E-1,2.7921875E0,1.8177977E1,-9.779636E-1,-6.8135756E-1,-3.3476242E-1,-1.1311624E-1,-5.90441E-2,-7.323582E-2,-4.3315385E-2,-5.4423075E-2,-6.7231566E-2,-4.914312E-2,-1.361419E-2,-2.5220975E-2,-3.6898244E-2,-2.4290005E-2,1.895802E-2,8.693378E-3,1.8970497E-3,-8.7309346E-2,4.3356065E-2,7.3609404E-2,1.18232155E-2,3.997391E-2,3.270714E-2,7.317986E-2,5.121414E-2,-5.235042E-2,-1.4103161E-2,1.14077166E-1,-7.549485E-2,8.3422445E-2,-3.2482874E-3,1.3360243E-1,1.8449686E-1,1.5156543E-1,4.2291414E-2,2.3573565E-1,2.9881394E-1,1.02099136E-1,4.103799E-1,-1.47576E-1,6.5681314E-1,4.0958643E-1,1.1012381E0,-7.280218E-1,-6.1778743E-2,4.131302E-2,2.3662467E0,4.670299E-1],"categories":[],"categories_nodes":[],"categories_segments":[],"categories_sizes":[],"default_left":[0,0,0,0,0,0,0,0,0,0,0,0,0,0,0,0,0,0,0,0,0,0,0,0,0,0,0,0,0,0,0,0,0,0,0,0,0,0,0,0,0,0,0,0,0,0,0,0,0,0,0,0,0,0,0,0,0,0,0,0,0,0,0,0,0,0,0,0,0,0,0,0,0,0,0,0,0,0,0,0,0,0,0,0,0,0,0,0,0,0,0,0,0,0,0,0,0,0,0,0,0,0,0,0,0,0,0],"id":11,"left_children":[1,3,5,7,9,11,13,15,17,19,21,23,25,27,29,31,33,35,37,39,41,43,45,47,49,51,53,55,57,-1,-1,-1,59,61,63,65,67,69,71,73,75,77,79,81,83,85,87,89,91,93,95,97,99,-1,101,-1,103,-1,105,-1,-1,-1,-1,-1,-1,-1,-1,-1,-1,-1,-1,-1,-1,-1,-1,-1,-1,-1,-1,-1,-1,-1,-1,-1,-1,-1,-1,-1,-1,-1,-1,-1,-1,-1,-1,-1,-1,-1,-1,-1,-1,-1,-1,-1,-1,-1,-1],"loss_changes":[1.2663225E5,3.2869105E4,7.67893E4,6.1024883E3,3.0102246E3,1.8838719E4,5.989758E3,4.6710586E3,9.640737E2,5.5865674E2,2.3639062E2,4.0569375E3,4.7767773E3,1.2606328E3,1.2408398E3,3.7520898E2,2.0748594E3,2.8838867E1,2.7387146E1,4.2978027E1,4.3310425E1,4.9073486E1,1.438418E2,4.0820508E2,5.451797E2,1.370957E3,1.0937354E3,6.585029E2,3.046172E2,0E0,0E0,0E0,3.2458252E1,8.0938477E2,8.889453E1,3.4050293E1,3.4002686E1,3.740866E1,6.525467E0,3.6251617E1,7.53304E1,6.436267E1,6.1017456E1,3.7140137E1,3.0853062E1,1.3963379E2,1.6176257E2,2.0971387E2,1.3601172E2,2.7208398E2,2.4756055E2,5.682539E2,8.960449E2,0E0,8.6975586E2,0E0,1.0488296E0,0E0,8.5256494E2,0E0,0E0,0E0,0E0,0E0,0E0,0E0,0E0,0E0,0E0,0E0,0E0,0E0,0E0,0E0,0E0,0E0,0E0,0E0,0E0,0E0,0E0,0E0,0E0,0E0,0E0,0E0,0E0,0E0,0E0,0E0,0E0,0E0,0E0,0E0,0E0,0E0,0E0,0E0,0E0,0E0,0E0,0E0,0E0,0E0,0E0,0E0,0E0],"parents":[2147483647,0,0,1,1,2,2,3,3,4,4,5,5,6,6,7,7,8,8,9,9,10,10,11,11,12,12,13,13,14,14,15,15,16,16,17,17,18,18,19,19,20,20,21,21,22,22,23,23,24,24,25,25,26,26,27,27,28,28,32,32,33,33,34,34,35,35,36,36,37,37,38,38,39,39,40,40,41,41,42,42,43,43,44,44,45,45,46,46,47,47,48,48,49,49,50,50,51,51,52,52,54,54,56,56,58,58],"right_children":[2,4,6,8,10,12,14,16,18,20,22,24,26,28,30,32,34,36,38,40,42,44,46,48,50,52,54,56,58,-1,-1,-1,60,62,64,66,68,70,72,74,76,78,80,82,84,86,88,90,92,94,96,98,100,-1,102,-1,104,-1,106,-1,-1,-1,-1,-1,-1,-1,-1,-1,-1,-1,-1,-1,-1,-1,-1,-1,-1,-1,-1,-1,-1,-1,-1,-1,-1,-1,-1,-1,-1,-1,-1,-1,-1,-1,-1,-1,-1,-1,-1,-1,-1,-1,-1,-1,-1,-1,-1],"split_conditions":[7E0,3E0,5.6E1,1E0,5E0,1.5E1,1.17E2,-1.7E1,2E0,4E0,6E0,1E1,2.9E1,7.3E1,4.09E2,-3.8E1,0E0,5E0,1.9E1,6.15E2,4.71E2,3.118E3,4.77E2,8E0,1.2E1,2E1,9E0,2E0,3.118E3,4.339659E0,3.541531E-1,-1.6108109E0,-2.7E1,-5E0,2E0,1.9E1,9E0,5E0,2E0,4.77E2,3.118E3,4.29E2,1.311E3,4.8E1,5.92E2,2.3E1,4.93E2,4.8E1,4.77E2,4.8E1,5E0,5E0,4.66E2,-6.8283415E-1,4E0,1.8499473E0,3.58E2,2.7921875E0,8.1E1,-9.779636E-1,-6.8135756E-1,-3.3476242E-1,-1.1311624E-1,-5.90441E-2,-7.323582E-2,-4.3315385E-2,-5.4423075E-2,-6.7231566E-2,-4.914312E-2,-1.361419E-2,-2.5220975E-2,-3.6898244E-2,-2.4290005E-2,1.895802E-2,8.693378E-3,1.8970497E-3,-8.7309346E-2,4.3356065E-2,7.3609404E-2,1.18232155E-2,3.997391E-2,3.270714E-2,7.317986E-2,5.121414E-2,-5.235042E-2,-1.4103161E-2,1.14077166E-1,-7.549485E-2,8.3422445E-2,-3.2482874E-3,1.3360243E-1,1.8449686E-1,1.5156543E-1,4.2291414E-2,2.3573565E-1,2.9881394E-1,1.02099136E-1,4.103799E-1,-1.47576E-1,6.5681314E-1,4.0958643E-1,1.1012381E0,-7.280218E-1,-6.1778743E-2,4.131302E-2,2.3662467E0,4.670299E-1],"split_indices":[5,5,5,5,5,5,5,5,5,5,5,5,5,5,1,5,5,4,3,0,1,1,1,5,5,5,3,4,1,0,0,0,5,5,4,3,3,4,4,1,1,1,1,1,0,1,1,1,1,1,4,4,1,0,4,0,1,0,5,0,0,0,0,0,0,0,0,0,0,0,0,0,0,0,0,0,0,0,0,0,0,0,0,0,0,0,0,0,0,0,0,0,0,0,0,0,0,0,0,0,0,0,0,0,0,0,0],"split_type":[0,0,0,0,0,0,0,0,0,0,0,0,0,0,0,0,0,0,0,0,0,0,0,0,0,0,0,0,0,0,0,0,0,0,0,0,0,0,0,0,0,0,0,0,0,0,0,0,0,0,0,0,0,0,0,0,0,0,0,0,0,0,0,0,0,0,0,0,0,0,0,0,0,0,0,0,0,0,0,0,0,0,0,0,0,0,0,0,0,0,0,0,0,0,0,0,0,0,0,0,0,0,0,0,0,0,0],"sum_hessian":[1.59978E5,1.42081E5,1.7897E4,1.01658E5,4.0423E4,1.7776E4,1.21E2,5.734E4,4.4318E4,2.6424E4,1.3999E4,1.5324E4,2.452E3,9.7E1,2.4E1,5.4E1,5.7286E4,2.4429E4,1.9889E4,1.5041E4,1.1383E4,8.022E3,5.977E3,9.656E3,5.668E3,2.3E3,1.52E2,3.3E1,6.4E1,2.3E1,1E0,9E0,4.5E1,1.4127E4,4.3159E4,1.865E4,5.779E3,1.6859E4,3.03E3,1.377E4,1.271E3,5.994E3,5.389E3,7.907E3,1.15E2,3.414E3,2.563E3,4.31E3,5.346E3,3.096E3,2.572E3,1.621E3,6.79E2,3E0,1.49E2,3.1E1,2E0,5.2E1,1.2E1,2.3E1,2.2E1,1.66E2,1.3961E4,5.023E3,3.8136E4,1.5257E4,3.393E3,1.374E3,4.405E3,1.3351E4,3.508E3,4.95E2,2.535E3,6.97E3,6.8E3,1.169E3,1.02E2,5.178E3,8.16E2,9.32E2,4.457E3,2.36E2,7.671E3,6.5E1,5E1,8.7E1,3.327E3,6.5E1,2.498E3,1.15E2,4.195E3,3.219E3,2.127E3,7.5E1,3.021E3,2.505E3,6.7E1,1.603E3,1.8E1,4.51E2,2.28E2,1.47E2,2E0,1E0,1E0,8E0,4E0],"tree_param":{"num_deleted":"0","num_feature":"6","num_nodes":"107","size_leaf_vector":"1"}},{"base_weights":[8.1743475E-4,-2.834688E-1,2.2576036E0,-5.564494E-1,4.030347E-1,2.0857198E0,2.2718538E1,-7.5033396E-1,-3.055843E-1,2.2425361E-1,7.4045515E-1,1.6761137E0,4.0239277E0,1.714589E1,3.193096E1,-7.6637297E0,-7.4054134E-1,-4.2535767E-1,-1.5845665E-1,1.10391006E-1,3.7468377E-1,6.393102E-1,8.760768E-1,1.3764043E0,2.2547529E0,3.5598516E0,6.353652E0,1.756858E1,-1.1293548E0,2.6911914E0,4.002431E1,-1.2353674E1,-5.923524E0,-1.035124E0,-6.442729E-1,-3.6942482E-1,-4.457544E-1,-1.5196332E-1,-3.6732244E-1,1.2501247E-1,-4.799158E-2,3.9508134E-1,1.974594E-1,7.0741653E-1,5.53427E-1,9.2083E-1,3.9341265E-1,1.1695895E0,1.5428905E0,9.096619E-1,2.3013408E0,3.9149575E0,2.8218277E0,-1.5600241E0,6.5625277E0,1.3839429E1,2.166968E0,4.187406E0,3.3644542E-1,-1.5013646E0,-9.561872E-1,-1.920131E-2,-6.4318377E-1,-1.7202546E-1,-9.709771E-2,-6.2017936E-2,-7.2541E-2,-4.4956554E-2,-3.3588033E-2,-4.4117127E-2,-6.993468E-2,-1.3411862E-2,-2.2235608E-2,-7.6734684E-2,-3.3422623E-2,1.3873244E-2,-6.092576E-3,1.7075021E-3,-7.866317E-2,3.278222E-3,4.0462185E-2,2.1495631E-2,-6.520777E-2,6.322964E-2,8.6222075E-2,-3.976316E-2,5.7265516E-2,-1.2708894E-2,9.3779005E-2,-6.8150796E-2,5.92483E-2,-2.9262663E-3,1.2024535E-1,1.5590185E-1,4.5314627E-3,2.6529935E-1,1.3370514E-2,2.5246271E-1,1.983746E-1,1.0322964E-1,4.036823E-1,-2.40821E-1,3.1406328E-1,8.378175E-1,-6.373121E-1,6.144785E-1,1.0551881E0,1.4714992E0,-3.4607645E-2],"categories":[],"categories_nodes":[],"categories_segments":[],"categories_sizes":[],"default_left":[0,0,0,0,0,0,0,0,0,0,0,0,0,0,0,0,0,0,0,0,0,0,0,0,0,0,0,0,0,0,0,0,0,0,0,0,0,0,0,0,0,0,0,0,0,0,0,0,0,0,0,0,0,0,0,0,0,0,0,0,0,0,0,0,0,0,0,0,0,0,0,0,0,0,0,0,0,0,0,0,0,0,0,0,0,0,0,0,0,0,0,0,0,0,0,0,0,0,0,0,0,0,0,0,0,0,0,0,0],"id":12,"left_children":[1,3,5,7,9,11,13,15,17,19,21,23,25,27,29,31,33,35,37,39,41,43,45,47,49,51,53,55,-1,-1,57,59,61,63,65,67,69,71,73,75,77,79,81,83,85,87,89,91,93,95,97,99,101,103,105,107,-1,-1,-1,-1,-1,-1,-1,-1,-1,-1,-1,-1,-1,-1,-1,-1,-1,-1,-1,-1,-1,-1,-1,-1,-1,-1,-1,-1,-1,-1,-1,-1,-1,-1,-1,-1,-1,-1,-1,-1,-1,-1,-1,-1,-1,-1,-1,-1,-1,-1,-1,-1,-1],"loss_changes":[1.0263889E5,2.6626695E4,6.2898125E4,4.9443496E3,2.4383877E3,1.4085016E4,7.1018203E3,3.8763242E3,7.809209E2,4.525758E2,1.9148389E2,2.538418E3,3.3246797E3,1.3404141E3,1.1570156E3,5.8790137E2,1.6231992E3,2.7706543E1,2.6919586E1,3.4840042E1,4.1074585E1,4.653662E1,1.2876709E2,3.3070312E2,3.1116797E2,6.661582E2,8.5821484E2,1.137707E3,0E0,0E0,1.1475332E3,1.2389893E1,1.7648267E2,6.180996E2,8.3921875E1,1.7414185E1,2.0492432E1,2.4203644E1,7.673874E0,3.5139175E1,6.114677E1,3.5270752E1,1.7635414E1,5.1447754E1,6.520178E1,9.7336426E1,1.09322044E2,1.6988428E2,1.2907422E2,2.2826003E2,3.3758008E2,6.07791E2,1.4131499E3,7.230643E2,7.684199E2,6.5094824E2,0E0,0E0,0E0,0E0,0E0,0E0,0E0,0E0,0E0,0E0,0E0,0E0,0E0,0E0,0E0,0E0,0E0,0E0,0E0,0E0,0E0,0E0,0E0,0E0,0E0,0E0,0E0,0E0,0E0,0E0,0E0,0E0,0E0,0E0,0E0,0E0,0E0,0E0,0E0,0E0,0E0,0E0,0E0,0E0,0E0,0E0,0E0,0E0,0E0,0E0,0E0,0E0,0E0],"parents":[2147483647,0,0,1,1,2,2,3,3,4,4,5,5,6,6,7,7,8,8,9,9,10,10,11,11,12,12,13,13,14,14,15,15,16,16,17,17,18,18,19,19,20,20,21,21,22,22,23,23,24,24,25,25,26,26,27,27,30,30,31,31,32,32,33,33,34,34,35,35,36,36,37,37,38,38,39,39,40,40,41,41,42,42,43,43,44,44,45,45,46,46,47,47,48,48,49,49,50,50,51,51,52,52,53,53,54,54,55,55],"right_children":[2,4,6,8,10,12,14,16,18,20,22,24,26,28,30,32,34,36,38,40,42,44,46,48,50,52,54,56,-1,-1,58,60,62,64,66,68,70,72,74,76,78,80,82,84,86,88,90,92,94,96,98,100,102,104,106,108,-1,-1,-1,-1,-1,-1,-1,-1,-1,-1,-1,-1,-1,-1,-1,-1,-1,-1,-1,-1,-1,-1,-1,-1,-1,-1,-1,-1,-1,-1,-1,-1,-1,-1,-1,-1,-1,-1,-1,-1,-1,-1,-1,-1,-1,-1,-1,-1,-1,-1,-1,-1,-1],"split_conditions":[7E0,3E0,4.7E1,1E0,5E0,1.4E1,8.4E1,-1.3E1,2E0,4E0,6E0,1E1,2.2E1,3.128E3,1.24E2,-3.1E1,0E0,4.06E2,3.003E3,6.15E2,1.9E1,4.77E2,2.824E3,8E0,5.3E1,4.88E2,7.4E1,6.7E1,-1.1293548E0,2.6911914E0,4.09E2,-4E1,4.04E2,-2E0,5E0,1.66E2,3.118E3,5E0,4.84E2,2E1,3.118E3,4.8E1,3.088E3,3.55E2,4.93E2,2.3E1,2.907E3,4.8E1,3.118E3,1E0,4.77E2,4.8E1,4.93E2,3.8E1,3.4E1,2E0,2.166968E0,4.187406E0,3.3644542E-1,-1.5013646E0,-9.561872E-1,-1.920131E-2,-6.4318377E-1,-1.7202546E-1,-9.709771E-2,-6.2017936E-2,-7.2541E-2,-4.4956554E-2,-3.3588033E-2,-4.4117127E-2,-6.993468E-2,-1.3411862E-2,-2.2235608E-2,-7.6734684E-2,-3.3422623E-2,1.3873244E-2,-6.092576E-3,1.7075021E-3,-7.866317E-2,3.278222E-3,4.0462185E-2,2.1495631E-2,-6.520777E-2,6.322964E-2,8.6222075E-2,-3.976316E-2,5.7265516E-2,-1.2708894E-2,9.3779005E-2,-6.8150796E-2,5.92483E-2,-2.9262663E-3,1.2024535E-1,1.5590185E-1,4.5314627E-3,2.6529935E-1,1.3370514E-2,2.5246271E-1,1.983746E-1,1.0322964E-1,4.036823E-1,-2.40821E-1,3.1406328E-1,8.378175E-1,-6.373121E-1,6.144785E-1,1.0551881E0,1.4714992E0,-3.4607645E-2],"split_indices":[5,5,5,5,5,5,5,5,5,5,5,5,5,1,5,5,5,0,1,0,3,1,1,5,1,1,1,5,0,0,1,5,0,5,4,1,1,4,0,3,1,1,1,1,1,1,1,1,1,2,1,1,1,1,5,4,0,0,0,0,0,0,0,0,0,0,0,0,0,0,0,0,0,0,0,0,0,0,0,0,0,0,0,0,0,0,0,0,0,0,0,0,0,0,0,0,0,0,0,0,0,0,0,0,0,0,0,0,0],"split_type":[0,0,0,0,0,0,0,0,0,0,0,0,0,0,0,0,0,0,0,0,0,0,0,0,0,0,0,0,0,0,0,0,0,0,0,0,0,0,0,0,0,0,0,0,0,0,0,0,0,0,0,0,0,0,0,0,0,0,0,0,0,0,0,0,0,0,0,0,0,0,0,0,0,0,0,0,0,0,0,0,0,0,0,0,0,0,0,0,0,0,0,0,0,0,0,0,0,0,0,0,0,0,0,0,0,0,0,0,0],"sum_hessian":[1.59978E5,1.42081E5,1.7897E4,1.01658E5,4.0423E4,1.7749E4,1.48E2,5.734E4,4.4318E4,2.6424E4,1.3999E4,1.4654E4,3.095E3,9.4E1,5.4E1,8E1,5.726E4,2.4429E4,1.9889E4,1.5041E4,1.1383E4,8.022E3,5.977E3,9.656E3,4.998E3,2.583E3,5.12E2,9.3E1,1E0,3.6E1,1.8E1,2E1,6E1,1.4101E4,4.3159E4,6.533E3,1.7896E4,1.9291E4,5.98E2,1.377E4,1.271E3,1.0207E4,1.176E3,4.47E3,3.552E3,5.469E3,5.08E2,4.31E3,5.346E3,1.68E2,4.83E3,1.741E3,8.42E2,1.3E1,4.99E2,5.1E1,4.2E1,1.7E1,1E0,8E0,1.2E1,5E0,5.5E1,1.205E3,1.2896E4,3.3284E4,9.875E3,1.924E3,4.609E3,1.7581E4,3.15E2,1.5392E4,3.899E3,4.4E1,5.54E2,1.2824E4,9.46E2,1.169E3,1.02E2,2.62E2,9.945E3,1.153E3,2.3E1,3.013E3,1.457E3,7E1,3.482E3,8.7E1,5.382E3,7.9E1,4.29E2,1.15E2,4.195E3,5.289E3,5.7E1,5.1E1,1.17E2,2.832E3,1.998E3,7.1E1,1.67E3,4.8E1,7.94E2,4E0,9E0,4.54E2,4.5E1,4.8E1,3E0],"tree_param":{"num_deleted":"0","num_feature":"6","num_nodes":"109","size_leaf_vector":"1"}},{"base_weights":[7.947582E-4,-2.5514796E-1,2.0325778E0,-5.008425E-1,3.627354E-1,1.8921531E0,2.2477617E1,-6.7536205E-1,-2.7503356E-1,2.0182556E-1,6.664268E-1,1.5555217E0,3.9944706E0,1.9270338E1,3.4771076E1,-5.987794E0,-6.647677E-1,-3.8282982E-1,-1.4261839E-1,9.934722E-2,3.3721533E-1,5.7540005E-1,7.884811E-1,1.2387925E0,2.0947876E0,3.6979334E0,8.42805E0,1.5628858E1,2.266718E0,3.6004932E0,3.1962314E-1,-1.0205742E1,-4.4286613E0,-9.2522943E-1,-5.7984877E-1,-5.403372E-1,-3.756485E-1,-9.804776E-2,-1.695441E-1,-2.9685512E-1,1.04760274E-1,3.4749717E-1,-1.8946351E-3,5.8895546E-1,1.927807E-1,8.668624E-1,5.5074775E-1,1.0526577E0,1.3886315E0,1.8554379E0,2.3820674E0,4.132412E0,2.7303627E0,-6.99743E-1,8.783209E0,1.6636087E1,-1.7366307E0,-1.3679101E0,-8.320926E-1,-1.7601203E-2,-4.6922517E-1,-1.488946E-1,-8.738869E-2,-5.6112953E-2,-6.83941E-2,-5.5211958E-2,-1.0119816E-2,-3.602084E-2,-4.4872597E-2,-5.3344082E-2,-8.853578E-3,-2.79016E-2,-1.5522323E-2,-1.0928661E-1,-1.24514345E-2,1.535818E-2,5.18173E-3,-8.510045E-3,3.539824E-2,-5.991302E-2,1.5187832E-2,-1.2925342E-2,5.9467163E-2,-4.826744E-2,3.6306445E-2,-1.1452469E-2,8.862623E-2,-3.0801881E-2,6.5106116E-2,1.1645677E-1,7.373518E-2,1.5046756E-1,1.2123859E-1,3.1163184E-2,1.893649E-1,2.2397506E-1,3.0059427E-1,3.6699873E-1,5.7198054E-1,-2.5603765E-1,3.1571645E-1,9.0435535E-1,-6.988161E-1,1.7335917E0,-1.0654446E-2],"categories":[],"categories_nodes":[],"categories_segments":[],"categories_sizes":[],"default_left":[0,0,0,0,0,0,0,0,0,0,0,0,0,0,0,0,0,0,0,0,0,0,0,0,0,0,0,0,0,0,0,0,0,0,0,0,0,0,0,0,0,0,0,0,0,0,0,0,0,0,0,0,0,0,0,0,0,0,0,0,0,0,0,0,0,0,0,0,0,0,0,0,0,0,0,0,0,0,0,0,0,0,0,0,0,0,0,0,0,0,0,0,0,0,0,0,0,0,0,0,0,0,0,0,0],"id":13,"left_children":[1,3,5,7,9,11,13,15,17,19,21,23,25,27,29,31,33,35,37,39,41,43,45,47,49,51,53,55,-1,-1,-1,57,59,61,63,65,67,69,71,73,75,77,79,81,83,85,87,89,91,93,95,97,99,-1,101,103,-1,-1,-1,-1,-1,-1,-1,-1,-1,-1,-1,-1,-1,-1,-1,-1,-1,-1,-1,-1,-1,-1,-1,-1,-1,-1,-1,-1,-1,-1,-1,-1,-1,-1,-1,-1,-1,-1,-1,-1,-1,-1,-1,-1,-1,-1,-1,-1,-1],"loss_changes":[8.3192805E4,2.1569729E4,5.1342375E4,4.006002E3,1.9752622E3,1.2574684E4,4.1402383E3,3.2232656E3,6.325486E2,3.666007E2,1.5508936E2,2.6149297E3,3.1938438E3,8.703203E2,8.1992773E2,7.045054E2,1.2652422E3,2.7430176E1,2.3853302E1,3.2291138E1,3.969287E1,4.149829E1,1.1091577E2,2.67875E2,3.8538477E2,9.560293E2,8.996709E2,1.9838252E3,0E0,0E0,0E0,8.257666E1,9.4455444E1,4.0589258E2,8.371387E1,5.4441833E0,2.6205078E1,3.0984688E1,1.9393433E1,2.7712505E1,3.834984E1,3.1028198E1,3.0948788E1,3.1885498E1,3.192049E1,8.566162E1,1.2812708E2,1.512583E2,1.0753418E2,1.8210352E2,2.2171875E2,1.1432129E3,1.6248804E3,0E0,6.790947E2,5.8769727E2,0E0,0E0,0E0,0E0,0E0,0E0,0E0,0E0,0E0,0E0,0E0,0E0,0E0,0E0,0E0,0E0,0E0,0E0,0E0,0E0,0E0,0E0,0E0,0E0,0E0,0E0,0E0,0E0,0E0,0E0,0E0,0E0,0E0,0E0,0E0,0E0,0E0,0E0,0E0,0E0,0E0,0E0,0E0,0E0,0E0,0E0,0E0,0E0,0E0],"parents":[2147483647,0,0,1,1,2,2,3,3,4,4,5,5,6,6,7,7,8,8,9,9,10,10,11,11,12,12,13,13,14,14,15,15,16,16,17,17,18,18,19,19,20,20,21,21,22,22,23,23,24,24,25,25,26,26,27,27,31,31,32,32,33,33,34,34,35,35,36,36,37,37,38,38,39,39,40,40,41,41,42,42,43,43,44,44,45,45,46,46,47,47,48,48,49,49,50,50,51,51,52,52,54,54,55,55],"right_children":[2,4,6,8,10,12,14,16,18,20,22,24,26,28,30,32,34,36,38,40,42,44,46,48,50,52,54,56,-1,-1,-1,58,60,62,64,66,68,70,72,74,76,78,80,82,84,86,88,90,92,94,96,98,100,-1,102,104,-1,-1,-1,-1,-1,-1,-1,-1,-1,-1,-1,-1,-1,-1,-1,-1,-1,-1,-1,-1,-1,-1,-1,-1,-1,-1,-1,-1,-1,-1,-1,-1,-1,-1,-1,-1,-1,-1,-1,-1,-1,-1,-1,-1,-1,-1,-1,-1,-1],"split_conditions":[7E0,3E0,5.6E1,1E0,5E0,1.5E1,1.18E2,-1E1,2E0,4E0,6E0,1E1,2.9E1,8.2E1,4.09E2,-2.8E1,0E0,7E0,4.78E2,2.3E1,3.003E3,3.003E3,2.189E3,8E0,1.2E1,4.88E2,9E0,8.1E1,2.266718E0,3.6004932E0,3.1962314E-1,-4E1,4.04E2,-2E0,1.9E1,3.106E3,1.9E1,2.3E1,2.5E2,4.04E2,4.77E2,2.3E1,5.66E2,1.3E1,5.66E2,2.3E1,2.257E3,2.189E3,4.77E2,4.8E1,2.389E3,2.1E1,4.93E2,-6.99743E-1,4E0,2E0,-1.7366307E0,-1.3679101E0,-8.320926E-1,-1.7601203E-2,-4.6922517E-1,-1.488946E-1,-8.738869E-2,-5.6112953E-2,-6.83941E-2,-5.5211958E-2,-1.0119816E-2,-3.602084E-2,-4.4872597E-2,-5.3344082E-2,-8.853578E-3,-2.79016E-2,-1.5522323E-2,-1.0928661E-1,-1.24514345E-2,1.535818E-2,5.18173E-3,-8.510045E-3,3.539824E-2,-5.991302E-2,1.5187832E-2,-1.2925342E-2,5.9467163E-2,-4.826744E-2,3.6306445E-2,-1.1452469E-2,8.862623E-2,-3.0801881E-2,6.5106116E-2,1.1645677E-1,7.373518E-2,1.5046756E-1,1.2123859E-1,3.1163184E-2,1.893649E-1,2.2397506E-1,3.0059427E-1,3.6699873E-1,5.7198054E-1,-2.5603765E-1,3.1571645E-1,9.0435535E-1,-6.988161E-1,1.7335917E0,-1.0654446E-2],"split_indices":[5,5,5,5,5,5,5,5,5,5,5,5,5,5,1,5,5,3,0,1,1,1,1,5,5,1,3,5,0,0,0,5,0,5,3,1,3,1,1,0,1,1,0,1,0,1,1,1,1,1,1,5,1,0,4,4,0,0,0,0,0,0,0,0,0,0,0,0,0,0,0,0,0,0,0,0,0,0,0,0,0,0,0,0,0,0,0,0,0,0,0,0,0,0,0,0,0,0,0,0,0,0,0,0,0],"split_type":[0,0,0,0,0,0,0,0,0,0,0,0,0,0,0,0,0,0,0,0,0,0,0,0,0,0,0,0,0,0,0,0,0,0,0,0,0,0,0,0,0,0,0,0,0,0,0,0,0,0,0,0,0,0,0,0,0,0,0,0,0,0,0,0,0,0,0,0,0,0,0,0,0,0,0,0,0,0,0,0,0,0,0,0,0,0,0,0,0,0,0,0,0,0,0,0,0,0,0,0,0,0,0,0,0],"sum_hessian":[1.59978E5,1.42081E5,1.7897E4,1.01658E5,4.0423E4,1.7776E4,1.21E2,5.734E4,4.4318E4,2.6424E4,1.3999E4,1.5324E4,2.452E3,9.8E1,2.3E1,1.13E2,5.7227E4,2.4429E4,1.9889E4,1.5041E4,1.1383E4,8.022E3,5.977E3,9.656E3,5.668E3,2.3E3,1.52E2,5E1,4.8E1,2.2E1,1E0,2.9E1,8.4E1,1.4068E4,4.3159E4,1.062E3,2.3367E4,7.492E3,1.2397E4,2.02E2,1.4839E4,1.1048E4,3.35E2,7.747E3,2.75E2,4.493E3,1.484E3,4.31E3,5.346E3,3.096E3,2.572E3,1.585E3,7.15E2,3E0,1.49E2,4.9E1,1E0,8E0,2.1E1,5E0,7.9E1,1.172E3,1.2896E4,3.6586E4,6.573E3,1.034E3,2.8E1,1.9296E4,4.071E3,1.59E2,7.333E3,1.432E3,1.0965E4,3.5E1,1.67E2,7.719E3,7.12E3,1.63E2,1.0885E4,6.8E1,2.67E2,6.1E1,7.686E3,5.5E1,2.2E2,8.7E1,4.406E3,1.55E2,1.329E3,3.179E3,1.131E3,3.219E3,2.127E3,7.5E1,3.021E3,2.098E3,4.74E2,1.23E3,3.55E2,5.3E1,6.62E2,1.47E2,2E0,4.7E1,2E0],"tree_param":{"num_deleted":"0","num_feature":"6","num_nodes":"105","size_leaf_vector":"1"}},{"base_weights":[7.4409955E-4,-2.2965619E-1,1.8297604E0,-4.5079067E-1,3.2646245E-1,1.6892211E0,1.8559578E1,-6.07879E-1,-2.4753587E-1,1.8163846E-1,5.997944E-1,1.4000483E0,3.5152247E0,1.3972404E1,2.6145432E1,-7.565429E0,-6.0118854E-1,-3.445528E-1,-1.2836187E-1,8.940572E-2,3.0349225E-1,5.178642E-1,7.096516E-1,1.1149611E0,1.8854402E0,3.1570559E0,5.6377454E0,1.4373434E1,-1.1862229E0,2.21654E0,3.3738125E1,-1.1922442E0,-6.332261E0,-8.4346825E-1,-5.218668E-1,-3.2719007E-1,-4.0051952E-1,-1.1400396E-1,-2.0818564E-1,1.2876797E-3,1.1164238E-1,3.5629448E-1,2.4383056E-1,5.740337E-1,4.3289456E-1,7.3174894E-1,-8.3158374E-2,1.1303967E0,-3.8670236E-1,1.4249945E0,2.0153637E0,3.4569595E0,2.109311E0,7.460507E0,4.73337E0,1.1603002E1,1.8327803E1,3.5467205E0,3.03642E-1,-6.794744E-1,-4.034097E-1,-1.902931E-1,-8.085533E-2,-4.106392E-2,-5.365057E-2,-3.102385E-2,-4.0330075E-2,-5.2293386E-2,-3.6222626E-2,-4.8192157E-3,-1.3713315E-2,-3.036098E-2,-1.8944016E-2,5.042393E-3,-1.571409E-2,2.071017E-2,4.7117188E-3,2.3769906E-2,4.3277208E-2,-1.0130916E-1,2.5540516E-2,4.584184E-2,6.446632E-2,-4.12846E-2,4.9859498E-2,8.213684E-2,6.061796E-2,-2.1777986E-1,5.4921847E-2,9.6443534E-2,1.2641445E-1,9.6557476E-2,-1.843613E-1,1.7810762E-1,-2.24481E-2,2.434734E-1,1.6096424E-1,5.503599E-2,3.5668883E-1,-2.966809E-1,3.1400713E-1,5.482268E-1,1.0721245E0,6.061284E-1,2.068172E-1,1.2246082E0,-1.4008946E-2,1.9867592E0,1.3464273E0],"categories":[],"categories_nodes":[],"categories_segments":[],"categories_sizes":[],"default_left":[0,0,0,0,0,0,0,0,0,0,0,0,0,0,0,0,0,0,0,0,0,0,0,0,0,0,0,0,0,0,0,0,0,0,0,0,0,0,0,0,0,0,0,0,0,0,0,0,0,0,0,0,0,0,0,0,0,0,0,0,0,0,0,0,0,0,0,0,0,0,0,0,0,0,0,0,0,0,0,0,0,0,0,0,0,0,0,0,0,0,0,0,0,0,0,0,0,0,0,0,0,0,0,0,0,0,0,0,0],"id":14,"left_children":[1,3,5,7,9,11,13,15,17,19,21,23,25,27,29,31,33,35,37,39,41,43,45,47,49,51,53,55,-1,-1,57,-1,59,61,63,65,67,69,71,73,75,77,79,81,83,85,87,89,91,93,95,97,99,101,103,105,107,-1,-1,-1,-1,-1,-1,-1,-1,-1,-1,-1,-1,-1,-1,-1,-1,-1,-1,-1,-1,-1,-1,-1,-1,-1,-1,-1,-1,-1,-1,-1,-1,-1,-1,-1,-1,-1,-1,-1,-1,-1,-1,-1,-1,-1,-1,-1,-1,-1,-1,-1,-1],"loss_changes":[6.7416516E4,1.7472969E4,4.2050363E4,3.245713E3,1.6000762E3,9.367621E3,4.8195312E3,2.6646074E3,5.123677E2,2.9696094E2,1.25640625E2,2.1185566E3,1.8264961E3,1.1547461E3,9.142383E2,2.2001465E2,1.1005059E3,2.3608154E1,2.2772247E1,2.9473907E1,3.5775757E1,3.8042725E1,1.04789795E2,2.2427832E2,3.3626367E2,6.456621E2,5.4E2,8.171426E2,0E0,0E0,7.947637E2,0E0,2.0418213E1,5.210713E2,7.005469E1,2.3938232E1,2.6905212E1,2.5657227E1,5.364258E0,2.3610788E1,7.397237E1,5.46521E1,7.8063385E1,3.9121094E1,1.7784888E2,6.4951904E1,2.1710622E2,2.1096191E2,1.9682468E2,7.351719E2,7.479629E2,5.1374023E2,2.4423176E3,6.765835E2,8.227046E2,4.3971533E2,9.583008E0,0E0,0E0,0E0,0E0,0E0,0E0,0E0,0E0,0E0,0E0,0E0,0E0,0E0,0E0,0E0,0E0,0E0,0E0,0E0,0E0,0E0,0E0,0E0,0E0,0E0,0E0,0E0,0E0,0E0,0E0,0E0,0E0,0E0,0E0,0E0,0E0,0E0,0E0,0E0,0E0,0E0,0E0,0E0,0E0,0E0,0E0,0E0,0E0,0E0,0E0,0E0,0E0],"parents":[2147483647,0,0,1,1,2,2,3,3,4,4,5,5,6,6,7,7,8,8,9,9,10,10,11,11,12,12,13,13,14,14,15,15,16,16,17,17,18,18,19,19,20,20,21,21,22,22,23,23,24,24,25,25,26,26,27,27,30,30,32,32,33,33,34,34,35,35,36,36,37,37,38,38,39,39,40,40,41,41,42,42,43,43,44,44,45,45,46,46,47,47,48,48,49,49,50,50,51,51,52,52,53,53,54,54,55,55,56,56],"right_children":[2,4,6,8,10,12,14,16,18,20,22,24,26,28,30,32,34,36,38,40,42,44,46,48,50,52,54,56,-1,-1,58,-1,60,62,64,66,68,70,72,74,76,78,80,82,84,86,88,90,92,94,96,98,100,102,104,106,108,-1,-1,-1,-1,-1,-1,-1,-1,-1,-1,-1,-1,-1,-1,-1,-1,-1,-1,-1,-1,-1,-1,-1,-1,-1,-1,-1,-1,-1,-1,-1,-1,-1,-1,-1,-1,-1,-1,-1,-1,-1,-1,-1,-1,-1,-1,-1,-1,-1,-1,-1,-1],"split_conditions":[7E0,3E0,4.7E1,1E0,5E0,1.5E1,8.4E1,-1.7E1,2E0,4E0,6E0,1E1,2.4E1,3.128E3,1.26E2,-3.7E1,0E0,5E0,1.9E1,2.5E2,4.77E2,1.285E3,3.003E3,3.118E3,2.5E2,1.443E3,2E0,7.1E1,-1.1862229E0,2.21654E0,4.09E2,-1.1922442E0,-2E1,-3E0,2E0,1.9E1,9E0,4.06E2,2E0,5.38E2,4.71E2,2.5E2,4.79E2,2.5E2,1.311E3,4.71E2,5.66E2,8E0,1E0,5.38E2,4.77E2,4.8E1,2.273E3,3.2E1,4.66E2,2E0,3.118E3,3.5467205E0,3.03642E-1,-6.794744E-1,-4.034097E-1,-1.902931E-1,-8.085533E-2,-4.106392E-2,-5.365057E-2,-3.102385E-2,-4.0330075E-2,-5.2293386E-2,-3.6222626E-2,-4.8192157E-3,-1.3713315E-2,-3.036098E-2,-1.8944016E-2,5.042393E-3,-1.571409E-2,2.071017E-2,4.7117188E-3,2.3769906E-2,4.3277208E-2,-1.0130916E-1,2.5540516E-2,4.584184E-2,6.446632E-2,-4.12846E-2,4.9859498E-2,8.213684E-2,6.061796E-2,-2.1777986E-1,5.4921847E-2,9.6443534E-2,1.2641445E-1,9.6557476E-2,-1.843613E-1,1.7810762E-1,-2.24481E-2,2.434734E-1,1.6096424E-1,5.503599E-2,3.5668883E-1,-2.966809E-1,3.1400713E-1,5.482268E-1,1.0721245E0,6.061284E-1,2.068172E-1,1.2246082E0,-1.4008946E-2,1.9867592E0,1.3464273E0],"split_indices":[5,5,5,5,5,5,5,5,5,5,5,5,5,1,5,5,5,4,3,1,1,1,1,1,1,1,4,5,0,0,1,0,5,5,4,3,3,0,4,0,1,1,1,1,1,1,0,5,2,0,1,1,1,5,1,4,1,0,0,0,0,0,0,0,0,0,0,0,0,0,0,0,0,0,0,0,0,0,0,0,0,0,0,0,0,0,0,0,0,0,0,0,0,0,0,0,0,0,0,0,0,0,0,0,0,0,0,0,0],"split_type":[0,0,0,0,0,0,0,0,0,0,0,0,0,0,0,0,0,0,0,0,0,0,0,0,0,0,0,0,0,0,0,0,0,0,0,0,0,0,0,0,0,0,0,0,0,0,0,0,0,0,0,0,0,0,0,0,0,0,0,0,0,0,0,0,0,0,0,0,0,0,0,0,0,0,0,0,0,0,0,0,0,0,0,0,0,0,0,0,0,0,0,0,0,0,0,0,0,0,0,0,0,0,0,0,0,0,0,0,0],"sum_hessian":[1.59978E5,1.42081E5,1.7897E4,1.01658E5,4.0423E4,1.7749E4,1.48E2,5.734E4,4.4318E4,2.6424E4,1.3999E4,1.5324E4,2.425E3,9.4E1,5.4E1,5.4E1,5.7286E4,2.4429E4,1.9889E4,1.5041E4,1.1383E4,8.022E3,5.977E3,9.656E3,5.668E3,2.077E3,3.48E2,9.3E1,1E0,3.8E1,1.6E1,1E1,4.4E1,1.4127E4,4.3159E4,1.865E4,5.779E3,1.6859E4,3.03E3,3.031E3,1.201E4,6.036E3,5.347E3,4.826E3,3.196E3,5.815E3,1.62E2,9.558E3,9.8E1,1.25E3,4.418E3,1.613E3,4.64E2,1.13E2,2.35E2,5.7E1,3.6E1,1.5E1,1E0,3.5E1,9E0,4.49E2,1.3678E4,5.023E3,3.8136E4,1.5257E4,3.393E3,1.374E3,4.405E3,4.385E3,1.2474E4,4.95E2,2.535E3,2.314E3,7.17E2,4.843E3,7.167E3,2.368E3,3.668E3,4.8E1,5.299E3,1.833E3,2.993E3,2.3E2,2.966E3,3.39E3,2.425E3,3.7E1,1.25E2,4.269E3,5.289E3,5.1E1,4.7E1,1.028E3,2.22E2,2.17E3,2.248E3,5.9E1,1.554E3,7.8E1,3.86E2,7.2E1,4.1E1,1.56E2,7.9E1,5.4E1,3E0,2.5E1,1.1E1],"tree_param":{"num_deleted":"0","num_feature":"6","num_nodes":"109","size_leaf_vector":"1"}},{"base_weights":[7.335714E-4,-2.0671003E-1,1.6475098E0,-4.0573984E-1,2.9381883E-1,1.5217544E0,1.6927568E1,-5.4713714E-1,-2.2278741E-1,1.6347486E-1,5.3982204E-1,1.2891144E0,3.4020975E0,1.3857793E1,2.6267208E1,-4.9690566E0,-5.38319E-1,-3.1010407E-1,-1.1552907E-1,8.046617E-2,2.7314222E-1,5.5560774E-1,4.97745E-2,1.0667349E0,1.8753281E0,3.0240865E0,5.1138854E0,1.0546337E1,1.6759039E1,2.687009E1,2.8845987E-1,-9.347449E0,-3.9380426E0,-7.4884003E-1,-4.696823E-1,-2.5863466E-1,-3.2887766E-1,-1.1163718E-1,-4.0554592E-1,9.944285E-2,-1.6585847E-2,2.91526E-1,1.1346954E-1,4.782263E-1,6.585987E-1,-1.0947939E0,3.5727477E-1,9.2804945E-1,1.3234656E0,2.0934448E0,1.5258462E0,3.3284311E0,1.9486759E0,6.78553E0,4.2634773E0,1.1164747E1,-1.2958272E-1,1.7852608E0,1.2433969E1,2.152755E0,3.296461E0,-1.1740855E0,-7.312114E-1,3.2752675E-3,-4.161489E-1,-1.2230059E-1,-7.0565596E-2,-4.527224E-2,-5.639999E-2,-3.306494E-2,-2.2850735E-2,-3.2472696E-2,-5.5877693E-2,-1.7440034E-2,-9.482856E-3,-2.5313616E-2,-6.288969E-2,-3.4464426E-2,1.0558929E-2,2.0865777E-3,-2.1018514E-2,3.147168E-2,1.4894997E-2,1.2847918E-2,-6.1297227E-2,1.4530741E-2,4.8866607E-2,-1.8440543E-2,6.714328E-2,-4.842381E-2,-1.96575E-1,7.7329464E-2,3.527796E-4,1.2730341E-4,9.525929E-2,-1.3750777E-2,1.341919E-1,1.466135E-1,2.4483669E-1,-1.3416128E-1,1.6916367E-1,-3.420092E-2,3.462851E-1,-3.5273162E-1,2.960991E-1,4.94155E-1,9.6260864E-1,5.459016E-1,1.8639396E-1,5.475403E-1,1.2074733E0,4.2210925E-2,-4.5418315E-2,1.6463908E0,1.0813122E-1],"categories":[],"categories_nodes":[],"categories_segments":[],"categories_sizes":[],"default_left":[0,0,0,0,0,0,0,0,0,0,0,0,0,0,0,0,0,0,0,0,0,0,0,0,0,0,0,0,0,0,0,0,0,0,0,0,0,0,0,0,0,0,0,0,0,0,0,0,0,0,0,0,0,0,0,0,0,0,0,0,0,0,0,0,0,0,0,0,0,0,0,0,0,0,0,0,0,0,0,0,0,0,0,0,0,0,0,0,0,0,0,0,0,0,0,0,0,0,0,0,0,0,0,0,0,0,0,0,0,0,0,0,0,0,0],"id":15,"left_children":[1,3,5,7,9,11,13,15,17,19,21,23,25,27,29,31,33,35,37,39,41,43,45,47,49,51,53,55,57,59,-1,61,63,65,67,69,71,73,75,77,79,81,83,85,87,89,91,93,95,97,99,101,103,105,107,109,111,-1,113,-1,-1,-1,-1,-1,-1,-1,-1,-1,-1,-1,-1,-1,-1,-1,-1,-1,-1,-1,-1,-1,-1,-1,-1,-1,-1,-1,-1,-1,-1,-1,-1,-1,-1,-1,-1,-1,-1,-1,-1,-1,-1,-1,-1,-1,-1,-1,-1,-1,-1,-1,-1,-1,-1,-1,-1],"loss_changes":[5.4651277E4,1.415435E4,3.436615E4,2.6296934E3,1.2961091E3,7.761547E3,3.8218984E3,2.2332363E3,4.15031E2,2.4053381E2,1.0827246E2,2.0577148E3,1.248916E3,8.992793E2,4.1588477E2,4.7780664E2,8.265625E2,2.3520752E1,2.2404816E1,2.7704872E1,3.3383484E1,1.0777637E2,1.5454747E2,4.0669727E2,3.2794043E2,5.181699E2,4.714668E2,3.645625E2,5.2347656E1,3.9740234E2,0E0,1.6448608E1,8.353882E1,2.872202E2,6.878418E1,1.41006775E1,1.6896484E1,2.0690277E1,8.793549E0,3.4379684E1,1.784813E1,3.3705383E1,1.2912333E1,2.685791E1,6.3047607E1,4.8502464E1,5.0916626E1,1.6927637E2,1.0845508E2,5.913213E2,7.976089E2,6.169209E2,1.9839052E3,5.6526953E2,6.6684717E2,2.0310107E2,9.080326E-1,0E0,6.684551E2,0E0,0E0,0E0,0E0,0E0,0E0,0E0,0E0,0E0,0E0,0E0,0E0,0E0,0E0,0E0,0E0,0E0,0E0,0E0,0E0,0E0,0E0,0E0,0E0,0E0,0E0,0E0,0E0,0E0,0E0,0E0,0E0,0E0,0E0,0E0,0E0,0E0,0E0,0E0,0E0,0E0,0E0,0E0,0E0,0E0,0E0,0E0,0E0,0E0,0E0,0E0,0E0,0E0,0E0,0E0,0E0],"parents":[2147483647,0,0,1,1,2,2,3,3,4,4,5,5,6,6,7,7,8,8,9,9,10,10,11,11,12,12,13,13,14,14,15,15,16,16,17,17,18,18,19,19,20,20,21,21,22,22,23,23,24,24,25,25,26,26,27,27,28,28,29,29,31,31,32,32,33,33,34,34,35,35,36,36,37,37,38,38,39,39,40,40,41,41,42,42,43,43,44,44,45,45,46,46,47,47,48,48,49,49,50,50,51,51,52,52,53,53,54,54,55,55,56,56,58,58],"right_children":[2,4,6,8,10,12,14,16,18,20,22,24,26,28,30,32,34,36,38,40,42,44,46,48,50,52,54,56,58,60,-1,62,64,66,68,70,72,74,76,78,80,82,84,86,88,90,92,94,96,98,100,102,104,106,108,110,112,-1,114,-1,-1,-1,-1,-1,-1,-1,-1,-1,-1,-1,-1,-1,-1,-1,-1,-1,-1,-1,-1,-1,-1,-1,-1,-1,-1,-1,-1,-1,-1,-1,-1,-1,-1,-1,-1,-1,-1,-1,-1,-1,-1,-1,-1,-1,-1,-1,-1,-1,-1,-1,-1,-1,-1,-1,-1],"split_conditions":[7E0,3E0,4.8E1,1E0,5E0,1.6E1,1.03E2,-1E1,2E0,4E0,3.003E3,1.1E1,2.4E1,7.1E1,4.09E2,-3.1E1,0E0,4.06E2,3.118E3,5E0,1.9E1,6E0,5.66E2,9E0,4.71E2,1.443E3,2E0,2E0,3.118E3,1.29E2,2.8845987E-1,-4.1E1,4.04E2,-2E0,1.9E1,1.66E2,3.118E3,2.56E2,5.92E2,2.3E1,5.9E2,5E0,3.088E3,4.8E1,2.3E1,6E0,5.9E2,4.8E1,1.3E1,2.5E2,4.93E2,4.8E1,2.273E3,3.2E1,4.66E2,1.2E1,1.4E1,1.7852608E0,8.1E1,2.152755E0,3.296461E0,-1.1740855E0,-7.312114E-1,3.2752675E-3,-4.161489E-1,-1.2230059E-1,-7.0565596E-2,-4.527224E-2,-5.639999E-2,-3.306494E-2,-2.2850735E-2,-3.2472696E-2,-5.5877693E-2,-1.7440034E-2,-9.482856E-3,-2.5313616E-2,-6.288969E-2,-3.4464426E-2,1.0558929E-2,2.0865777E-3,-2.1018514E-2,3.147168E-2,1.4894997E-2,1.2847918E-2,-6.1297227E-2,1.4530741E-2,4.8866607E-2,-1.8440543E-2,6.714328E-2,-4.842381E-2,-1.96575E-1,7.7329464E-2,3.527796E-4,1.2730341E-4,9.525929E-2,-1.3750777E-2,1.341919E-1,1.466135E-1,2.4483669E-1,-1.3416128E-1,1.6916367E-1,-3.420092E-2,3.462851E-1,-3.5273162E-1,2.960991E-1,4.94155E-1,9.6260864E-1,5.459016E-1,1.8639396E-1,5.475403E-1,1.2074733E0,4.2210925E-2,-4.5418315E-2,1.6463908E0,1.0813122E-1],"split_indices":[5,5,5,5,5,5,5,5,5,5,1,5,5,5,1,5,5,0,1,4,3,5,0,5,1,1,4,4,1,5,0,5,0,5,3,1,1,1,0,1,0,4,1,1,1,5,0,1,1,1,1,1,1,5,1,3,3,0,5,0,0,0,0,0,0,0,0,0,0,0,0,0,0,0,0,0,0,0,0,0,0,0,0,0,0,0,0,0,0,0,0,0,0,0,0,0,0,0,0,0,0,0,0,0,0,0,0,0,0,0,0,0,0,0,0],"split_type":[0,0,0,0,0,0,0,0,0,0,0,0,0,0,0,0,0,0,0,0,0,0,0,0,0,0,0,0,0,0,0,0,0,0,0,0,0,0,0,0,0,0,0,0,0,0,0,0,0,0,0,0,0,0,0,0,0,0,0,0,0,0,0,0,0,0,0,0,0,0,0,0,0,0,0,0,0,0,0,0,0,0,0,0,0,0,0,0,0,0,0,0,0,0,0,0,0,0,0,0,0,0,0,0,0,0,0,0,0,0,0,0,0,0,0],"sum_hessian":[1.59978E5,1.42081E5,1.7897E4,1.01658E5,4.0423E4,1.7752E4,1.45E2,5.734E4,4.4318E4,2.6424E4,1.3999E4,1.5799E4,1.953E3,1.11E2,3.4E1,1.13E2,5.7227E4,2.4429E4,1.9889E4,1.5041E4,1.1383E4,1.3562E4,4.37E2,1.1456E4,4.343E3,1.602E3,3.51E2,5.4E1,5.7E1,3.3E1,1E0,2E1,9.3E1,1.4068E4,4.3159E4,6.533E3,1.7896E4,1.9627E4,2.62E2,1.2581E4,2.46E3,1.0207E4,1.176E3,7.747E3,5.815E3,9.2E1,3.45E2,7.441E3,4.015E3,2.671E3,1.672E3,1.247E3,3.55E2,1.16E2,2.35E2,5.1E1,3E0,4.3E1,1.4E1,2E1,1.3E1,7E0,1.3E1,5E0,8.8E1,1.172E3,1.2896E4,3.6586E4,6.573E3,1.924E3,4.609E3,1.7581E4,3.15E2,4.144E3,1.5483E4,1.57E2,1.05E2,1.71E2,1.241E4,2.062E3,3.98E2,8.778E3,1.429E3,1.153E3,2.3E1,2.36E2,7.511E3,8.7E1,5.728E3,5.5E1,3.7E1,1.58E2,1.87E2,1.92E2,7.249E3,5E1,3.965E3,9.67E2,1.704E3,9.1E1,1.581E3,4.4E1,1.203E3,5.5E1,3E2,7.2E1,4.4E1,1.56E2,7.9E1,8E0,4.3E1,1E0,2E0,1E1,4E0],"tree_param":{"num_deleted":"0","num_feature":"6","num_nodes":"115","size_leaf_vector":"1"}},{"base_weights":[7.298782E-4,-1.8605995E-1,1.4835476E0,-3.651941E-1,2.6443443E-1,1.3697529E0,1.5310355E1,-4.9246898E-1,-2.005145E-1,1.4712569E-1,4.8583576E-1,1.0506535E0,2.4892924E0,1.1452115E1,2.1485767E1,-5.4609146E0,-4.8595345E-1,-2.7909952E-1,-1.03981934E-1,7.241677E-2,2.4582778E-1,5.6059504E-1,3.893736E-1,8.352574E-1,1.3018967E0,2.1316087E0,3.871793E0,1.1826824E1,-1.1323184E0,1.8054188E0,2.7536558E1,-8.741886E0,-4.2714524E0,-8.870992E-1,-4.533215E-1,-4.879489E-1,-2.7478665E-1,-7.342206E-2,-1.383609E-1,8.004651E-2,-1.5971684E-1,2.520158E-1,-1.9261575E-1,4.116955E-1,6.644218E-1,-7.545933E-1,4.1532078E-1,9.190283E-1,5.8444005E-1,1.4514337E0,1.0766693E0,2.1716213E0,-4.2860225E-1,1.2767808E0,4.326989E0,9.523554E0,1.4930959E1,2.883396E0,2.7403688E-1,-1.10255E0,-6.8397945E-1,3.0023276E-3,-4.6856332E-1,-2.2930825E-1,-8.5552596E-2,-5.88035E-2,-4.2271644E-2,-5.689132E-2,-3.6849584E-2,-4.19919E-2,-2.6814342E-2,-9.755637E-3,1.4741479E-2,-2.931035E-2,-1.1030073E-2,9.219228E-3,-8.877202E-3,-5.3699583E-2,-4.1767335E-3,2.6825527E-2,1.1154062E-2,1.701971E-2,-5.1858198E-2,5.0971437E-2,-8.410452E-3,5.4803677E-2,8.1706725E-2,-1.3168095E-1,8.436967E-2,4.378001E-2,-1.8094582E-2,6.1708808E-2,1.06228866E-1,-5.794741E-2,7.557707E-2,1.0110139E-1,1.725148E-1,-2.2858632E-1,1.2092505E-1,2.0064914E-1,3.0670017E-1,1.2725936E-1,-1.8618947E-1,-2.3137127E-1,2.690309E-1,4.07015E-1,7.737775E-1,1.0082023E0,-1.1742628E-2,1.6240653E0,1.0849046E0],"categories":[],"categories_nodes":[],"categories_segments":[],"categories_sizes":[],"default_left":[0,0,0,0,0,0,0,0,0,0,0,0,0,0,0,0,0,0,0,0,0,0,0,0,0,0,0,0,0,0,0,0,0,0,0,0,0,0,0,0,0,0,0,0,0,0,0,0,0,0,0,0,0,0,0,0,0,0,0,0,0,0,0,0,0,0,0,0,0,0,0,0,0,0,0,0,0,0,0,0,0,0,0,0,0,0,0,0,0,0,0,0,0,0,0,0,0,0,0,0,0,0,0,0,0,0,0,0,0,0,0],"id":16,"left_children":[1,3,5,7,9,11,13,15,17,19,21,23,25,27,29,31,33,35,37,39,41,43,45,47,49,51,53,55,-1,-1,57,59,61,63,65,67,69,71,73,75,77,79,81,83,85,87,89,91,93,95,97,99,101,103,105,107,109,-1,-1,-1,-1,-1,-1,-1,-1,-1,-1,-1,-1,-1,-1,-1,-1,-1,-1,-1,-1,-1,-1,-1,-1,-1,-1,-1,-1,-1,-1,-1,-1,-1,-1,-1,-1,-1,-1,-1,-1,-1,-1,-1,-1,-1,-1,-1,-1,-1,-1,-1,-1,-1,-1],"loss_changes":[4.43105E4,1.1465961E4,2.814005E4,2.1306309E3,1.0498333E3,6.339547E3,3.2325703E3,1.8535967E3,3.3617554E2,1.9483813E2,1.0074194E2,7.4664355E2,1.938584E3,9.190537E2,6.4485547E2,2.55354E2,7.492334E2,2.1871094E1,2.0886612E1,2.6653961E1,3.0934448E1,1.21626465E2,1.8185297E2,1.5582812E2,2.1317969E2,3.2156934E2,9.48917E2,5.0842285E2,0E0,0E0,5.0005664E2,7.1171875E0,1.01691284E2,1.8923218E2,2.1810449E2,4.55838E0,2.2967041E1,5.614725E1,4.0605392E1,2.9870636E1,2.1293007E1,2.5579346E1,1.8892353E1,1.5759686E2,8.205591E1,1.2331849E2,8.024658E1,2.4058398E2,3.7254474E2,4.5983936E2,1.1386843E3,4.4953223E2,1.2184668E2,6.254068E2,5.7033496E2,2.9731396E2,2.1607422E1,0E0,0E0,0E0,0E0,0E0,0E0,0E0,0E0,0E0,0E0,0E0,0E0,0E0,0E0,0E0,0E0,0E0,0E0,0E0,0E0,0E0,0E0,0E0,0E0,0E0,0E0,0E0,0E0,0E0,0E0,0E0,0E0,0E0,0E0,0E0,0E0,0E0,0E0,0E0,0E0,0E0,0E0,0E0,0E0,0E0,0E0,0E0,0E0,0E0,0E0,0E0,0E0,0E0,0E0],"parents":[2147483647,0,0,1,1,2,2,3,3,4,4,5,5,6,6,7,7,8,8,9,9,10,10,11,11,12,12,13,13,14,14,15,15,16,16,17,17,18,18,19,19,20,20,21,21,22,22,23,23,24,24,25,25,26,26,27,27,30,30,31,31,32,32,33,33,34,34,35,35,36,36,37,37,38,38,39,39,40,40,41,41,42,42,43,43,44,44,45,45,46,46,47,47,48,48,49,49,50,50,51,51,52,52,53,53,54,54,55,55,56,56],"right_children":[2,4,6,8,10,12,14,16,18,20,22,24,26,28,30,32,34,36,38,40,42,44,46,48,50,52,54,56,-1,-1,58,60,62,64,66,68,70,72,74,76,78,80,82,84,86,88,90,92,94,96,98,100,102,104,106,108,110,-1,-1,-1,-1,-1,-1,-1,-1,-1,-1,-1,-1,-1,-1,-1,-1,-1,-1,-1,-1,-1,-1,-1,-1,-1,-1,-1,-1,-1,-1,-1,-1,-1,-1,-1,-1,-1,-1,-1,-1,-1,-1,-1,-1,-1,-1,-1,-1,-1,-1,-1,-1,-1,-1],"split_conditions":[7E0,3E0,4.8E1,1E0,5E0,1.3E1,8.4E1,-1.4E1,2E0,4E0,4.77E2,9E0,2E1,3.128E3,1.25E2,-3.2E1,-1E0,3.2E1,4.71E2,3.003E3,3.118E3,2.5E2,4.93E2,2.189E3,4.77E2,3.118E3,9E0,7.1E1,-1.1323184E0,1.8054188E0,4.09E2,-4.2E1,4.04E2,-7E0,0E0,1.5E1,7E0,4.43E2,1.303E3,2E1,5.66E2,1.9E1,1E0,5.38E2,6E0,4.08E2,6.15E2,2.5E2,2.273E3,2.56E2,4.93E2,2.389E3,1E0,4E0,3.4E1,2E0,3.118E3,2.883396E0,2.7403688E-1,-1.10255E0,-6.8397945E-1,3.0023276E-3,-4.6856332E-1,-2.2930825E-1,-8.5552596E-2,-5.88035E-2,-4.2271644E-2,-5.689132E-2,-3.6849584E-2,-4.19919E-2,-2.6814342E-2,-9.755637E-3,1.4741479E-2,-2.931035E-2,-1.1030073E-2,9.219228E-3,-8.877202E-3,-5.3699583E-2,-4.1767335E-3,2.6825527E-2,1.1154062E-2,1.701971E-2,-5.1858198E-2,5.0971437E-2,-8.410452E-3,5.4803677E-2,8.1706725E-2,-1.3168095E-1,8.436967E-2,4.378001E-2,-1.8094582E-2,6.1708808E-2,1.06228866E-1,-5.794741E-2,7.557707E-2,1.0110139E-1,1.725148E-1,-2.2858632E-1,1.2092505E-1,2.0064914E-1,3.0670017E-1,1.2725936E-1,-1.8618947E-1,-2.3137127E-1,2.690309E-1,4.07015E-1,7.737775E-1,1.0082023E0,-1.1742628E-2,1.6240653E0,1.0849046E0],"split_indices":[5,5,5,5,5,5,5,5,5,5,1,5,5,1,5,5,5,1,1,1,1,1,1,1,1,1,3,5,0,0,1,5,0,5,5,3,3,1,1,3,0,3,2,0,5,0,0,1,1,1,1,1,2,4,5,4,1,0,0,0,0,0,0,0,0,0,0,0,0,0,0,0,0,0,0,0,0,0,0,0,0,0,0,0,0,0,0,0,0,0,0,0,0,0,0,0,0,0,0,0,0,0,0,0,0,0,0,0,0,0,0],"split_type":[0,0,0,0,0,0,0,0,0,0,0,0,0,0,0,0,0,0,0,0,0,0,0,0,0,0,0,0,0,0,0,0,0,0,0,0,0,0,0,0,0,0,0,0,0,0,0,0,0,0,0,0,0,0,0,0,0,0,0,0,0,0,0,0,0,0,0,0,0,0,0,0,0,0,0,0,0,0,0,0,0,0,0,0,0,0,0,0,0,0,0,0,0,0,0,0,0,0,0,0,0,0,0,0,0,0,0,0,0,0,0],"sum_hessian":[1.59978E5,1.42081E5,1.7897E4,1.01658E5,4.0423E4,1.7752E4,1.45E2,5.734E4,4.4318E4,2.6424E4,1.3999E4,1.3816E4,3.936E3,9.1E1,5.4E1,7.4E1,5.7266E4,