{"learner":{"attributes":{"scikit_learn":"{\"_estimator_type\": \"regressor\"}"},"feature_names":[],"feature_types":[],"gradient_booster":{"model":{"cats":{"enc":[],"feature_segments":[],"sorted_idx":[]},"gbtree_model_param":{"num_parallel_tree":"1","num_trees":"100"},"iteration_indptr":[0,1,2,3,4,5,6,7,8,9,10,11,12,13,14,15,16,17,18,19,20,21,22,23,24,25,26,27,28,29,30,31,32,33,34,35,36,37,38,39,40,41,42,43,44,45,46,47,48,49,50,51,52,53,54,55,56,57,58,59,60,61,62,63,64,65,66,67,68,69,70,71,72,73,74,75,76,77,78,79,80,81,82,83,84,85,86,87,88,89,90,91,92,93,94,95,96,97,98,99,100],"tree_info":[0,0,0,0,0,0,0,0,0,0,0,0,0,0,0,0,0,0,0,0,0,0,0,0,0,0,0,0,0,0,0,0,0,0,0,0,0,0,0,0,0,0,0,0,0,0,0,0,0,0,0,0,0,0,0,0,0,0,0,0,0,0,0,0,0,0,0,0,0,0,0,0,0,0,0,0,0,0,0,0,0,0,0,0,0,0,0,0,0,0,0,0,0,0,0,0,0,0,0,0],"trees":[{"base_weights":[9.272435E-9,-1.1906786E0,6.734765E0,-2.3224983E0,5.086386E-1,6.2729797E0,7.413096E1,-2.1438745E1,-2.2954829E0,-1.5869127E-1,1.7050999E0,4.7311835E0,1.20650015E1,5.9241966E1,1.1038924E2,-3.5328653E0,-1.5587457E1,-3.65756E0,-2.0115125E0,-5.6949997E-1,3.8220188E-1,1.3174216E0,2.253442E0,3.914544E0,6.7929993E0,1.020567E1,1.7648256E1,4.3257187E1,7.052528E0,1.1256583E1,6.221164E-1,-2.044647E1,-1.3465045E1,-4.438521E0,-3.3151495E0,-2.2911062E0,-1.5152123E0,-5.5764276E-1,-9.556897E-1,4.034235E-1,-2.713791E-1,1.3328923E0,2.1800944E-1,2.280098E0,1.4919897E0,3.5650184E0,5.0588E0,6.0608525E0,7.3146763E0,9.373041E0,1.201484E1,1.5487741E1,2.191114E1,4.6037283E0,-9.18254E-1,-2.139596E0,2.2116398E-2,-1.4461377E-1,-1.4297714E0,-8.3117676E-1,-4.336309E-1,-3.3047497E-1,-3.466894E-1,-2.2475457E-1,-2.444164E-1,-1.4876728E-1,-1.6094744E-1,-5.3376146E-2,-6.8821274E-2,-1.323198E-1,-8.695257E-2,-2.48337E-2,4.1249122E-2,-1.16651855E-1,-1.644234E-2,1.4387465E-1,1.20974265E-1,-8.5918374E-2,4.4658504E-2,8.9409314E-2,2.2908461E-1,4.3428566E-2,1.7508106E-1,3.2139271E-1,4.0493765E-1,4.715302E-1,5.171777E-1,3.5570917E-1,6.093661E-1,1.7201613E-1,7.381914E-1,9.872635E-1,8.590993E-1,6.5689296E-1,1.2176561E0,1.6090794E0,1.3246514E0,1.996562E0,2.693399E0,7.21164E-2,-1.7051147E-1],"categories":[],"categories_nodes":[],"categories_segments":[],"categories_sizes":[],"default_left":[0,0,0,0,0,0,0,0,0,0,0,0,0,0,0,0,0,0,0,0,0,0,0,0,0,0,0,0,0,0,0,0,0,0,0,0,0,0,0,0,0,0,0,0,0,0,0,0,0,0,0,0,0,0,0,0,0,0,0,0,0,0,0,0,0,0,0,0,0,0,0,0,0,0,0,0,0,0,0,0,0,0,0,0,0,0,0,0,0,0,0,0,0,0,0,0,0,0,0,0,0],"id":0,"left_children":[1,3,5,7,9,11,13,15,17,19,21,23,25,27,29,-1,31,33,35,37,39,41,43,45,47,49,51,53,-1,-1,-1,55,57,59,61,63,65,67,69,71,73,75,77,79,81,83,85,87,89,91,93,95,97,-1,99,-1,-1,-1,-1,-1,-1,-1,-1,-1,-1,-1,-1,-1,-1,-1,-1,-1,-1,-1,-1,-1,-1,-1,-1,-1,-1,-1,-1,-1,-1,-1,-1,-1,-1,-1,-1,-1,-1,-1,-1,-1,-1,-1,-1,-1,-1],"loss_changes":[1.2713629E6,2.5912248E5,7.408435E5,4.1712688E4,4.300475E4,2.1121156E5,8.091581E4,8.714531E3,3.1227031E4,7.6833516E3,4.0966406E3,3.1436156E4,5.1445188E4,1.8051562E4,9.729375E3,0E0,5.7033984E2,3.7102969E3,9.2691875E3,8.9456055E1,2.0713379E2,1.919082E2,1.586914E2,5.336078E3,1.9799531E3,5.5106562E3,1.109025E4,6.3056797E3,0E0,0E0,0E0,4.5607812E2,5.7979004E2,1.6437344E3,3.828125E0,2.7948438E2,6.0125E1,5.909326E1,1.7342407E1,8.554321E1,4.4806126E1,1.4351953E2,3.928647E1,1.1286719E2,7.3974915E1,1.7313984E3,9.7078125E1,1.5994531E2,1.1496406E3,9.1578125E2,9.531094E2,9.046094E2,3.5176406E3,0E0,6.389642E0,0E0,0E0,0E0,0E0,0E0,0E0,0E0,0E0,0E0,0E0,0E0,0E0,0E0,0E0,0E0,0E0,0E0,0E0,0E0,0E0,0E0,0E0,0E0,0E0,0E0,0E0,0E0,0E0,0E0,0E0,0E0,0E0,0E0,0E0,0E0,0E0,0E0,0E0,0E0,0E0,0E0,0E0,0E0,0E0,0E0,0E0],"parents":[2147483647,0,0,1,1,2,2,3,3,4,4,5,5,6,6,7,7,8,8,9,9,10,10,11,11,12,12,13,13,14,14,16,16,17,17,18,18,19,19,20,20,21,21,22,22,23,23,24,24,25,25,26,26,27,27,31,31,32,32,33,33,34,34,35,35,36,36,37,37,38,38,39,39,40,40,41,41,42,42,43,43,44,44,45,45,46,46,47,47,48,48,49,49,50,50,51,51,52,52,54,54],"right_children":[2,4,6,8,10,12,14,16,18,20,22,24,26,28,30,-1,32,34,36,38,40,42,44,46,48,50,52,54,-1,-1,-1,56,58,60,62,64,66,68,70,72,74,76,78,80,82,84,86,88,90,92,94,96,98,-1,100,-1,-1,-1,-1,-1,-1,-1,-1,-1,-1,-1,-1,-1,-1,-1,-1,-1,-1,-1,-1,-1,-1,-1,-1,-1,-1,-1,-1,-1,-1,-1,-1,-1,-1,-1,-1,-1,-1,-1,-1,-1,-1,-1,-1,-1,-1],"split_conditions":[6E0,2E0,4.2E1,-1E1,4E0,1.2E1,8.7E1,-2.7E1,0E0,3E0,5E0,9E0,1.8E1,6.1E1,4.09E2,-3.5328653E0,-1.7E1,-1E0,1E0,3.003E3,3.003E3,3.118E3,3.003E3,8E0,1E1,1.5E1,2.3E1,2E0,7.052528E0,1.1256583E1,6.221164E-1,6.15E2,4.04E2,-5E0,2.946E3,5E0,5E0,1.9E1,5.62E2,2.3E1,2E0,4.77E2,3.128E3,1.3E1,5.66E2,7E0,2.51E2,1.3E1,1.3E1,4.72E2,4.8E1,1.443E3,2.9E1,4.6037283E0,1.4E1,-2.139596E0,2.2116398E-2,-1.4461377E-1,-1.4297714E0,-8.3117676E-1,-4.336309E-1,-3.3047497E-1,-3.466894E-1,-2.2475457E-1,-2.444164E-1,-1.4876728E-1,-1.6094744E-1,-5.3376146E-2,-6.8821274E-2,-1.323198E-1,-8.695257E-2,-2.48337E-2,4.1249122E-2,-1.16651855E-1,-1.644234E-2,1.4387465E-1,1.20974265E-1,-8.5918374E-2,4.4658504E-2,8.9409314E-2,2.2908461E-1,4.3428566E-2,1.7508106E-1,3.2139271E-1,4.0493765E-1,4.715302E-1,5.171777E-1,3.5570917E-1,6.093661E-1,1.7201613E-1,7.381914E-1,9.872635E-1,8.590993E-1,6.5689296E-1,1.2176561E0,1.6090794E0,1.3246514E0,1.996562E0,2.693399E0,7.21164E-2,-1.7051147E-1],"split_indices":[5,5,5,5,5,5,5,5,5,5,5,5,5,5,1,0,5,5,5,1,1,1,1,5,5,5,5,4,0,0,0,0,0,5,1,4,4,3,0,1,4,1,1,1,0,5,1,1,1,1,1,1,5,0,3,0,0,0,0,0,0,0,0,0,0,0,0,0,0,0,0,0,0,0,0,0,0,0,0,0,0,0,0,0,0,0,0,0,0,0,0,0,0,0,0,0,0,0,0,0,0],"split_type":[0,0,0,0,0,0,0,0,0,0,0,0,0,0,0,0,0,0,0,0,0,0,0,0,0,0,0,0,0,0,0,0,0,0,0,0,0,0,0,0,0,0,0,0,0,0,0,0,0,0,0,0,0,0,0,0,0,0,0,0,0,0,0,0,0,0,0,0,0,0,0,0,0,0,0,0,0,0,0,0,0,0,0,0,0,0,0,0,0,0,0,0,0,0,0,0,0,0,0,0,0],"sum_hessian":[1.58543E5,1.34725E5,2.3818E4,8.0865E4,5.386E4,2.3657E4,1.61E2,1.13E2,8.0752E4,3.4576E4,1.9284E4,1.8685E4,4.972E3,1.16E2,4.5E1,3.2E1,8.1E1,1.3929E4,6.6823E4,1.9651E4,1.4925E4,1.1299E4,7.985E3,1.3386E4,5.299E3,3.732E3,1.24E3,5E1,6.6E1,4.4E1,1E0,2.2E1,5.9E1,4.242E3,9.687E3,4.2741E4,2.4082E4,1.9068E4,5.83E2,1.4456E4,4.69E2,1.1142E4,1.57E2,7.713E3,2.72E2,1.0257E4,3.129E3,2.21E3,3.089E3,2.56E3,1.172E3,8.26E2,4.14E2,4.7E1,3E0,2.1E1,1E0,4E0,5.5E1,1.07E2,4.135E3,9.087E3,6E2,3.3284E4,9.457E3,1.865E4,5.432E3,1.6124E4,2.944E3,1.08E2,4.75E2,1.98E2,1.4258E4,4.9E1,4.2E2,5.986E3,5.156E3,2.7E1,1.3E2,6E1,7.653E3,5.4E1,2.18E2,5.951E3,4.306E3,7.85E2,2.344E3,3E1,2.18E3,3.7E1,3.052E3,1.555E3,1.005E3,3.5E1,1.137E3,6.46E2,1.8E2,3.02E2,1.12E2,1E0,2E0],"tree_param":{"num_deleted":"0","num_feature":"6","num_nodes":"101","size_leaf_vector":"1"}},{"base_weights":[1.8124822E-4,-1.0716823E0,6.0628996E0,-2.0903714E0,4.5778042E-1,5.6423683E0,6.631501E1,-2.167014E1,-2.0687728E0,-1.4283533E-1,1.5346295E0,4.4457006E0,1.1686104E1,5.259495E1,9.866193E1,-3.272398E0,-1.5782051E1,-3.3059816E0,-1.810373E0,-5.125673E-1,3.4397393E-1,1.1856992E0,2.0281653E0,3.523218E0,6.3864064E0,1.0222497E1,1.7460793E1,3.8893646E1,6.316842E0,1.0050963E2,5.910106E-1,-4.0117183E0,-1.677914E1,-4.9473925E0,-3.152435E0,-2.0620065E0,-1.363704E0,-5.018849E-1,-8.604961E-1,3.5690576E-1,-5.95692E-1,1.1996268E0,1.9594744E-1,2.1482935E0,1.8766855E0,3.2085872E0,4.553236E0,5.797184E0,7.386924E0,9.237191E0,1.1910167E1,1.6389606E1,2.3923939E1,4.1248255E0,-8.5102737E-1,8.025008E0,1.1031727E1,-8.709038E-1,-1.3304466E-1,-1.882184E0,-1.3776828E0,-9.4053537E-1,-4.622519E-1,-3.682662E-1,-2.9837045E-1,-2.0227979E-1,-2.1997736E-1,-1.3427289E-1,-1.4664523E-1,-4.3525405E-2,-5.444484E-2,-1.4159001E-1,-8.1261896E-2,4.2622704E-2,2.7832543E-2,-2.9259932E-1,-2.0612381E-2,1.2948959E-1,1.08879186E-1,-7.763338E-2,4.022675E-2,1.9276205E-1,2.3022974E-1,6.292807E-2,1.902769E-1,2.8925884E-1,3.644533E-1,3.368608E-1,4.5820102E-1,2.2942118E-1,5.8408564E-1,3.1754217E-1,7.4509615E-1,9.9057895E-1,8.139009E-1,-7.416805E-2,1.1977347E0,1.7602072E0,1.3924874E0,-3.9383033E-1,2.4741929E0,6.8510585E-2,-1.5914403E-1],"categories":[],"categories_nodes":[],"categories_segments":[],"categories_sizes":[],"default_left":[0,0,0,0,0,0,0,0,0,0,0,0,0,0,0,0,0,0,0,0,0,0,0,0,0,0,0,0,0,0,0,0,0,0,0,0,0,0,0,0,0,0,0,0,0,0,0,0,0,0,0,0,0,0,0,0,0,0,0,0,0,0,0,0,0,0,0,0,0,0,0,0,0,0,0,0,0,0,0,0,0,0,0,0,0,0,0,0,0,0,0,0,0,0,0,0,0,0,0,0,0,0,0],"id":1,"left_children":[1,3,5,7,9,11,13,15,17,19,21,23,25,27,29,-1,31,33,35,37,39,41,43,45,47,49,51,53,-1,55,-1,57,59,61,63,65,67,69,71,73,75,77,79,81,83,85,87,89,91,93,95,97,99,-1,101,-1,-1,-1,-1,-1,-1,-1,-1,-1,-1,-1,-1,-1,-1,-1,-1,-1,-1,-1,-1,-1,-1,-1,-1,-1,-1,-1,-1,-1,-1,-1,-1,-1,-1,-1,-1,-1,-1,-1,-1,-1,-1,-1,-1,-1,-1,-1,-1],"loss_changes":[1.0302899E6,2.0991042E5,6.031488E5,3.415303E4,3.483603E4,1.7102912E5,6.8038125E4,5.276203E3,2.5818312E4,6.2236543E3,3.3186562E3,3.5329906E4,3.2859875E4,1.4637875E4,7.6320625E3,0E0,6.368506E2,3.5015312E3,7.508E3,7.2609375E1,1.815874E2,1.555332E2,1.4128906E2,4.323797E3,3.7071406E3,5.0798125E3,5.070328E3,5.0885938E3,0E0,4.8584375E2,0E0,6.398181E1,7.8E1,1.6828672E3,1.1309375E3,2.2642188E2,4.9933594E1,5.384326E1,1.4378662E1,8.008716E1,1.8368254E2,1.1625098E2,3.2007275E1,1.4669336E2,1.1398242E2,1.4025859E3,9.125781E1,5.997656E2,6.111953E2,1.3695156E3,9.837656E2,1.7870156E3,2.604457E3,0E0,5.6397967E0,0E0,0E0,0E0,0E0,0E0,0E0,0E0,0E0,0E0,0E0,0E0,0E0,0E0,0E0,0E0,0E0,0E0,0E0,0E0,0E0,0E0,0E0,0E0,0E0,0E0,0E0,0E0,0E0,0E0,0E0,0E0,0E0,0E0,0E0,0E0,0E0,0E0,0E0,0E0,0E0,0E0,0E0,0E0,0E0,0E0,0E0,0E0,0E0],"parents":[2147483647,0,0,1,1,2,2,3,3,4,4,5,5,6,6,7,7,8,8,9,9,10,10,11,11,12,12,13,13,14,14,16,16,17,17,18,18,19,19,20,20,21,21,22,22,23,23,24,24,25,25,26,26,27,27,29,29,31,31,32,32,33,33,34,34,35,35,36,36,37,37,38,38,39,39,40,40,41,41,42,42,43,43,44,44,45,45,46,46,47,47,48,48,49,49,50,50,51,51,52,52,54,54],"right_children":[2,4,6,8,10,12,14,16,18,20,22,24,26,28,30,-1,32,34,36,38,40,42,44,46,48,50,52,54,-1,56,-1,58,60,62,64,66,68,70,72,74,76,78,80,82,84,86,88,90,92,94,96,98,100,-1,102,-1,-1,-1,-1,-1,-1,-1,-1,-1,-1,-1,-1,-1,-1,-1,-1,-1,-1,-1,-1,-1,-1,-1,-1,-1,-1,-1,-1,-1,-1,-1,-1,-1,-1,-1,-1,-1,-1,-1,-1,-1,-1,-1,-1,-1,-1,-1,-1],"split_conditions":[6E0,2E0,4.1E1,-1.2E1,4E0,1.3E1,8.5E1,-2.8E1,0E0,3E0,5E0,9E0,2E1,6.1E1,4.09E2,-3.272398E0,4.04E2,-2E0,1E0,3.003E3,3.118E3,3.118E3,4.77E2,8E0,1.1E1,1.6E1,2.9E1,2E0,6.316842E0,1.08E2,5.910106E-1,-1.7E1,-1.6E1,-7E0,-1E0,5E0,1.9E1,4.78E2,4.84E2,4.72E2,3.128E3,4.77E2,3.128E3,2.51E2,4.94E2,7E0,4.8E1,1.3E1,2.3E1,4.72E2,1.3E1,4.66E2,9E0,4.1248255E0,1.4E1,8.025008E0,1.1031727E1,-8.709038E-1,-1.3304466E-1,-1.882184E0,-1.3776828E0,-9.4053537E-1,-4.622519E-1,-3.682662E-1,-2.9837045E-1,-2.0227979E-1,-2.1997736E-1,-1.3427289E-1,-1.4664523E-1,-4.3525405E-2,-5.444484E-2,-1.4159001E-1,-8.1261896E-2,4.2622704E-2,2.7832543E-2,-2.9259932E-1,-2.0612381E-2,1.2948959E-1,1.08879186E-1,-7.763338E-2,4.022675E-2,1.9276205E-1,2.3022974E-1,6.292807E-2,1.902769E-1,2.8925884E-1,3.644533E-1,3.368608E-1,4.5820102E-1,2.2942118E-1,5.8408564E-1,3.1754217E-1,7.4509615E-1,9.9057895E-1,8.139009E-1,-7.416805E-2,1.1977347E0,1.7602072E0,1.3924874E0,-3.9383033E-1,2.4741929E0,6.8510585E-2,-1.5914403E-1],"split_indices":[5,5,5,5,5,5,5,5,5,5,5,5,5,5,1,0,0,5,5,1,1,1,1,5,5,5,5,4,0,5,0,5,5,5,5,4,3,0,0,1,1,1,1,1,1,5,1,1,1,1,1,1,3,0,3,0,0,0,0,0,0,0,0,0,0,0,0,0,0,0,0,0,0,0,0,0,0,0,0,0,0,0,0,0,0,0,0,0,0,0,0,0,0,0,0,0,0,0,0,0,0,0,0],"split_type":[0,0,0,0,0,0,0,0,0,0,0,0,0,0,0,0,0,0,0,0,0,0,0,0,0,0,0,0,0,0,0,0,0,0,0,0,0,0,0,0,0,0,0,0,0,0,0,0,0,0,0,0,0,0,0,0,0,0,0,0,0,0,0,0,0,0,0,0,0,0,0,0,0,0,0,0,0,0,0,0,0,0,0,0,0,0,0,0,0,0,0,0,0,0,0,0,0,0,0,0,0,0,0],"sum_hessian":[1.58543E5,1.34725E5,2.3818E4,8.0865E4,5.386E4,2.3654E4,1.64E2,8.8E1,8.0777E4,3.4576E4,1.9284E4,1.9746E4,3.908E3,1.17E2,4.7E1,2.9E1,5.9E1,1.3954E4,6.6823E4,1.9651E4,1.4925E4,1.1299E4,7.985E3,1.3386E4,6.36E3,3.12E3,7.88E2,5.3E1,6.4E1,4.6E1,1E0,5E0,5.4E1,1.191E3,1.2763E4,4.2741E4,2.4082E4,1.9068E4,5.83E2,1.4723E4,2.02E2,1.1142E4,1.57E2,4.446E3,3.539E3,1.0257E4,3.129E3,4.007E3,2.353E3,1.974E3,1.146E3,6.79E2,1.09E2,5E1,3E0,1.8E1,2.8E1,1E0,4E0,2.9E1,2.5E1,7.9E1,1.112E3,3.076E3,9.687E3,3.3284E4,9.457E3,2.0011E4,4.071E3,7.437E3,1.1631E4,4.4E1,5.39E2,7.82E3,6.903E3,2.8E1,1.74E2,5.986E3,5.156E3,2.7E1,1.3E2,1.833E3,2.613E3,7.3E1,3.466E3,5.951E3,4.306E3,7.7E1,3.052E3,5E1,3.957E3,3.6E1,2.317E3,1.222E3,7.52E2,6E0,1.14E3,4.51E2,2.28E2,3E0,1.06E2,1E0,2E0],"tree_param":{"num_deleted":"0","num_feature":"6","num_nodes":"103","size_leaf_vector":"1"}},{"base_weights":[3.6171713E-4,-9.645883E-1,5.458351E0,-1.8814619E0,4.120082E-1,5.0890317E0,6.14463E1,-1.7526304E1,-1.8593525E0,-1.2856813E-1,1.381212E0,4.001299E0,1.05699835E1,4.9370186E1,9.106345E1,-2.8855991E1,-1.2753059E1,-2.9625888E0,-1.6293463E0,-4.613269E-1,3.0956024E-1,1.067147E0,1.8254334E0,3.1710043E0,5.7480607E0,9.201185E0,1.5910147E1,3.5830074E1,5.780364E0,9.2920065E0,5.614601E-1,-3.266018E0,-2.2113626E0,-1.6737505E1,-1.1013137E1,-3.5948727E0,-2.685365E0,-1.8558158E0,-1.2273453E0,-4.0771946E-1,-5.2154195E-1,3.2121995E-1,-5.376656E-1,1.0796854E0,1.7611599E-1,1.8489585E0,1.1540114E0,2.8877923E0,4.0981665E0,5.217668E0,6.6486826E0,8.314385E0,1.0720129E1,1.4755282E1,2.2375675E1,3.8403203E0,-7.8858304E-1,-1.7602955E0,1.1511978E-1,-1.2240108E-1,-1.1690503E0,-6.791174E-1,-3.5105413E-1,-2.6759738E-1,-2.8229073E-1,-1.8205242E-1,-1.9798194E-1,-1.202397E-1,-1.3127647E-1,-4.4256594E-2,-1.0687609E-2,-1.2034762E-1,-5.1176738E-2,4.2348493E-2,2.744179E-2,-3.80465E-1,-2.7553637E-2,1.1654278E-1,9.799339E-2,6.285619E-2,-2.4029369E-2,6.1654735E-2,1.8585388E-1,2.0482933E-2,1.387121E-1,2.603378E-1,3.280164E-1,3.798641E-1,4.1968146E-1,4.8761946E-1,5.634677E-1,2.866462E-1,6.7061865E-1,8.91602E-1,7.3261875E-1,-6.781078E-2,1.0780662E0,1.2734541E0,1.6095947E0,-3.6429307E-1,2.3079975E0,6.508505E-2,-1.4853445E-1],"categories":[],"categories_nodes":[],"categories_segments":[],"categories_sizes":[],"default_left":[0,0,0,0,0,0,0,0,0,0,0,0,0,0,0,0,0,0,0,0,0,0,0,0,0,0,0,0,0,0,0,0,0,0,0,0,0,0,0,0,0,0,0,0,0,0,0,0,0,0,0,0,0,0,0,0,0,0,0,0,0,0,0,0,0,0,0,0,0,0,0,0,0,0,0,0,0,0,0,0,0,0,0,0,0,0,0,0,0,0,0,0,0,0,0,0,0,0,0,0,0,0,0],"id":2,"left_children":[1,3,5,7,9,11,13,15,17,19,21,23,25,27,29,31,33,35,37,39,41,43,45,47,49,51,53,55,-1,-1,-1,-1,-1,57,59,61,63,65,67,69,71,73,75,77,79,81,83,85,87,89,91,93,95,97,99,-1,101,-1,-1,-1,-1,-1,-1,-1,-1,-1,-1,-1,-1,-1,-1,-1,-1,-1,-1,-1,-1,-1,-1,-1,-1,-1,-1,-1,-1,-1,-1,-1,-1,-1,-1,-1,-1,-1,-1,-1,-1,-1,-1,-1,-1,-1,-1],"loss_changes":[8.350069E5,1.7004719E5,4.922033E5,2.7938688E4,2.8219496E4,1.41038E5,5.1299188E4,5.797047E3,2.0486344E4,5.04116E3,2.688586E3,2.8621375E4,2.8492625E4,1.0832344E4,6.4586875E3,1.2418945E2,3.8414355E2,2.4320625E3,6.081453E3,6.3223145E1,1.4761755E2,1.2605469E2,1.2400781E2,3.503375E3,3.0038438E3,4.114875E3,5.6283594E3,4.364621E3,0E0,0E0,0E0,0E0,0E0,3.763457E2,3.8354004E2,1.1198555E3,4.9609375E0,1.834375E2,4.9746094E1,1.0898999E2,6.10542E1,7.0355835E1,1.7279524E2,9.416211E1,2.9918686E1,8.993164E1,6.012079E1,1.1362109E3,7.653906E1,5.432578E2,4.9275E2,1.108875E3,7.987031E2,1.6372344E3,2.2647383E3,0E0,4.978504E0,0E0,0E0,0E0,0E0,0E0,0E0,0E0,0E0,0E0,0E0,0E0,0E0,0E0,0E0,0E0,0E0,0E0,0E0,0E0,0E0,0E0,0E0,0E0,0E0,0E0,0E0,0E0,0E0,0E0,0E0,0E0,0E0,0E0,0E0,0E0,0E0,0E0,0E0,0E0,0E0,0E0,0E0,0E0,0E0,0E0,0E0],"parents":[2147483647,0,0,1,1,2,2,3,3,4,4,5,5,6,6,7,7,8,8,9,9,10,10,11,11,12,12,13,13,14,14,15,15,16,16,17,17,18,18,19,19,20,20,21,21,22,22,23,23,24,24,25,25,26,26,27,27,33,33,34,34,35,35,36,36,37,37,38,38,39,39,40,40,41,41,42,42,43,43,44,44,45,45,46,46,47,47,48,48,49,49,50,50,51,51,52,52,53,53,54,54,56,56],"right_children":[2,4,6,8,10,12,14,16,18,20,22,24,26,28,30,32,34,36,38,40,42,44,46,48,50,52,54,56,-1,-1,-1,-1,-1,58,60,62,64,66,68,70,72,74,76,78,80,82,84,86,88,90,92,94,96,98,100,-1,102,-1,-1,-1,-1,-1,-1,-1,-1,-1,-1,-1,-1,-1,-1,-1,-1,-1,-1,-1,-1,-1,-1,-1,-1,-1,-1,-1,-1,-1,-1,-1,-1,-1,-1,-1,-1,-1,-1,-1,-1,-1,-1,-1,-1,-1,-1],"split_conditions":[6E0,2E0,4.4E1,-1E1,4E0,1.3E1,9.1E1,-2.7E1,0E0,3E0,5E0,9E0,2E1,6.2E1,4.09E2,-3.2E1,-1.7E1,-1E0,1E0,4.72E2,3.118E3,3.118E3,3.003E3,8E0,1.1E1,1.6E1,2.9E1,2E0,5.780364E0,9.2920065E0,5.614601E-1,-3.266018E0,-2.2113626E0,6.15E2,4.04E2,-5E0,2.946E3,5E0,5E0,4.4E2,4.79E2,4.06E2,2E0,4.77E2,1E0,1.3E1,5.66E2,7E0,2.51E2,1E1,2.3E1,4.72E2,1.3E1,1.2E1,9E0,3.8403203E0,1.4E1,-1.7602955E0,1.1511978E-1,-1.2240108E-1,-1.1690503E0,-6.791174E-1,-3.5105413E-1,-2.6759738E-1,-2.8229073E-1,-1.8205242E-1,-1.9798194E-1,-1.202397E-1,-1.3127647E-1,-4.4256594E-2,-1.0687609E-2,-1.2034762E-1,-5.1176738E-2,4.2348493E-2,2.744179E-2,-3.80465E-1,-2.7553637E-2,1.1654278E-1,9.799339E-2,6.285619E-2,-2.4029369E-2,6.1654735E-2,1.8585388E-1,2.0482933E-2,1.387121E-1,2.603378E-1,3.280164E-1,3.798641E-1,4.1968146E-1,4.8761946E-1,5.634677E-1,2.866462E-1,6.7061865E-1,8.91602E-1,7.3261875E-1,-6.781078E-2,1.0780662E0,1.2734541E0,1.6095947E0,-3.6429307E-1,2.3079975E0,6.508505E-2,-1.4853445E-1],"split_indices":[5,5,5,5,5,5,5,5,5,5,5,5,5,5,1,5,5,5,5,1,1,1,1,5,5,5,5,4,0,0,0,0,0,0,0,5,1,4,4,1,1,0,4,1,2,1,0,5,1,5,1,1,1,3,3,0,3,0,0,0,0,0,0,0,0,0,0,0,0,0,0,0,0,0,0,0,0,0,0,0,0,0,0,0,0,0,0,0,0,0,0,0,0,0,0,0,0,0,0,0,0,0,0],"split_type":[0,0,0,0,0,0,0,0,0,0,0,0,0,0,0,0,0,0,0,0,0,0,0,0,0,0,0,0,0,0,0,0,0,0,0,0,0,0,0,0,0,0,0,0,0,0,0,0,0,0,0,0,0,0,0,0,0,0,0,0,0,0,0,0,0,0,0,0,0,0,0,0,0,0,0,0,0,0,0,0,0,0,0,0,0,0,0,0,0,0,0,0,0,0,0,0,0,0,0,0,0,0,0],"sum_hessian":[1.58543E5,1.34725E5,2.3818E4,8.0865E4,5.386E4,2.3663E4,1.55E2,1.13E2,8.0752E4,3.4576E4,1.9284E4,1.9746E4,3.917E3,1.12E2,4.3E1,3.2E1,8.1E1,1.3929E4,6.6823E4,1.9651E4,1.4925E4,1.1299E4,7.985E3,1.3386E4,6.36E3,3.12E3,7.97E2,4.5E1,6.7E1,4.2E1,1E0,1.8E1,1.4E1,2.2E1,5.9E1,4.242E3,9.687E3,4.2741E4,2.4082E4,1.04E4,9.251E3,1.4723E4,2.02E2,1.1142E4,1.57E2,7.713E3,2.72E2,1.0257E4,3.129E3,4.007E3,2.353E3,1.974E3,1.146E3,6.79E2,1.18E2,4.2E1,3E0,2.1E1,1E0,4E0,5.5E1,1.07E2,4.135E3,9.087E3,6E2,3.3284E4,9.457E3,1.865E4,5.432E3,9.32E3,1.08E3,1.29E2,9.122E3,4.62E3,1.0103E4,1.4E1,1.88E2,5.986E3,5.156E3,7.5E1,8.2E1,6E1,7.653E3,5.4E1,2.18E2,5.951E3,4.306E3,7.85E2,2.344E3,2.21E3,1.797E3,3.6E1,2.317E3,1.222E3,7.52E2,6E0,1.14E3,2.75E2,4.04E2,3E0,1.15E2,1E0,2E0],"tree_param":{"num_deleted":"0","num_feature":"6","num_nodes":"103","size_leaf_vector":"1"}},{"base_weights":[4.499268E-4,-8.682076E-1,4.913786E0,-1.693447E0,3.7080917E-1,4.5708575E0,5.404748E1,-1.7765785E1,-1.6757178E0,-1.1572757E-1,1.243125E0,3.445558E0,8.800793E0,4.1584595E1,7.821716E1,-2.6790218E0,-1.2957471E1,-2.6778224E0,-1.466421E0,-4.1520566E-1,2.7858162E-1,9.6045476E-1,1.6429409E0,2.8540075E0,4.939075E0,7.437631E0,1.2904088E1,3.1782818E1,4.9993412E1,7.946808E1,5.3338706E-1,-3.4028878E0,-1.3764199E1,-4.0564656E0,-2.5488644E0,-1.670243E0,-1.1046212E0,-4.0573487E-1,-7.2373897E-1,2.9504794E-1,-2.2850803E-1,9.717362E-1,1.5875006E-1,1.7494227E0,1.5087128E0,2.5990705E0,3.6886053E0,4.3887954E0,5.33122E0,6.83392E0,8.749368E0,1.1314029E1,1.6064466E1,3.3709698E0,-7.30587E-1,5.1251326E0,-1.0853703E0,6.4780855E0,9.175601E0,-7.393438E-1,-1.1260901E-1,-1.5083021E0,-1.0702108E0,-7.6528424E-1,-3.7943217E-1,-2.9635754E-1,-2.4168852E-1,-1.4929825E-1,-1.693809E-1,-1.0856072E-1,-1.19779505E-1,-3.8385157E-2,-5.254165E-2,-1.036516E-1,-6.505952E-2,-2.9626196E-2,3.0327965E-2,-9.6227095E-2,-1.40820015E-2,2.8049234E-2,9.818446E-2,-7.527753E-2,3.5236806E-2,1.553274E-1,1.8863727E-1,3.8386073E-2,1.5322867E-1,2.343084E-1,2.9522237E-1,3.7819865E-1,3.3791766E-1,4.6220413E-1,4.0445405E-1,8.650673E-2,5.385063E-1,7.21408E-1,6.239126E-1,9.331369E-1,7.3874956E-1,1.1827554E0,9.415881E-1,9.488885E-1,1.6687952E0,6.1830807E-2,-1.3863215E-1],"categories":[],"categories_nodes":[],"categories_segments":[],"categories_sizes":[],"default_left":[0,0,0,0,0,0,0,0,0,0,0,0,0,0,0,0,0,0,0,0,0,0,0,0,0,0,0,0,0,0,0,0,0,0,0,0,0,0,0,0,0,0,0,0,0,0,0,0,0,0,0,0,0,0,0,0,0,0,0,0,0,0,0,0,0,0,0,0,0,0,0,0,0,0,0,0,0,0,0,0,0,0,0,0,0,0,0,0,0,0,0,0,0,0,0,0,0,0,0,0,0,0,0,0,0],"id":3,"left_children":[1,3,5,7,9,11,13,15,17,19,21,23,25,27,29,-1,31,33,35,37,39,41,43,45,47,49,51,53,55,57,-1,59,61,63,65,67,69,71,73,75,77,79,81,83,85,87,89,91,93,95,97,99,101,-1,103,-1,-1,-1,-1,-1,-1,-1,-1,-1,-1,-1,-1,-1,-1,-1,-1,-1,-1,-1,-1,-1,-1,-1,-1,-1,-1,-1,-1,-1,-1,-1,-1,-1,-1,-1,-1,-1,-1,-1,-1,-1,-1,-1,-1,-1,-1,-1,-1,-1,-1],"loss_changes":[6.7667106E5,1.37756E5,4.0108744E5,2.3013016E4,2.2859488E4,1.1256616E5,4.6449344E4,3.5147812E3,1.6938219E4,4.0832085E3,2.1779395E3,1.6494797E4,2.77035E4,7.5598438E3,4.5904688E3,0E0,4.1563867E2,2.4706719E3,4.925953E3,5.713086E1,1.24698E2,1.02046875E2,1.1150391E2,2.8387656E3,1.1202891E3,2.8964062E3,6.0394375E3,3.4076953E3,4.9956094E3,3.8016875E3,0E0,4.6188377E1,6.0689453E1,1.0947461E3,6.914531E2,1.7601562E2,4.1365234E1,4.974048E1,1.2686188E1,7.0458984E1,3.0105328E1,7.7583984E1,2.8150314E1,1.1652637E2,9.328223E1,9.204297E2,7.766406E1,1.5884375E2,7.3839844E2,5.340703E2,8.608047E2,6.9475E2,1.5307578E3,0E0,4.3952417E0,0E0,0E0,0E0,0E0,0E0,0E0,0E0,0E0,0E0,0E0,0E0,0E0,0E0,0E0,0E0,0E0,0E0,0E0,0E0,0E0,0E0,0E0,0E0,0E0,0E0,0E0,0E0,0E0,0E0,0E0,0E0,0E0,0E0,0E0,0E0,0E0,0E0,0E0,0E0,0E0,0E0,0E0,0E0,0E0,0E0,0E0,0E0,0E0,0E0,0E0],"parents":[2147483647,0,0,1,1,2,2,3,3,4,4,5,5,6,6,7,7,8,8,9,9,10,10,11,11,12,12,13,13,14,14,16,16,17,17,18,18,19,19,20,20,21,21,22,22,23,23,24,24,25,25,26,26,27,27,28,28,29,29,31,31,32,32,33,33,34,34,35,35,36,36,37,37,38,38,39,39,40,40,41,41,42,42,43,43,44,44,45,45,46,46,47,47,48,48,49,49,50,50,51,51,52,52,54,54],"right_children":[2,4,6,8,10,12,14,16,18,20,22,24,26,28,30,-1,32,34,36,38,40,42,44,46,48,50,52,54,56,58,-1,60,62,64,66,68,70,72,74,76,78,80,82,84,86,88,90,92,94,96,98,100,102,-1,104,-1,-1,-1,-1,-1,-1,-1,-1,-1,-1,-1,-1,-1,-1,-1,-1,-1,-1,-1,-1,-1,-1,-1,-1,-1,-1,-1,-1,-1,-1,-1,-1,-1,-1,-1,-1,-1,-1,-1,-1,-1,-1,-1,-1,-1,-1,-1,-1,-1,-1],"split_conditions":[6E0,2E0,4.1E1,-1.2E1,4E0,1.2E1,8.4E1,-2.8E1,0E0,3E0,5E0,9E0,1.8E1,6.1E1,1.45E2,-2.6790218E0,4.04E2,-2E0,1E0,3.003E3,3.003E3,3.118E3,4.77E2,8E0,1E1,1.5E1,2.3E1,2E0,3.128E3,1.11E2,5.3338706E-1,-1.7E1,-1.5E1,-7E0,-1E0,2E0,1.9E1,1.9E1,5.62E2,2.3E1,2E0,2.3E1,3.128E3,2.51E2,4.94E2,7E0,2.189E3,4.77E2,1.3E1,4.72E2,4.88E2,1.443E3,9E0,3.3709698E0,1.4E1,5.1251326E0,-1.0853703E0,6.4780855E0,9.175601E0,-7.393438E-1,-1.1260901E-1,-1.5083021E0,-1.0702108E0,-7.6528424E-1,-3.7943217E-1,-2.9635754E-1,-2.4168852E-1,-1.4929825E-1,-1.693809E-1,-1.0856072E-1,-1.19779505E-1,-3.8385157E-2,-5.254165E-2,-1.036516E-1,-6.505952E-2,-2.9626196E-2,3.0327965E-2,-9.6227095E-2,-1.40820015E-2,2.8049234E-2,9.818446E-2,-7.527753E-2,3.5236806E-2,1.553274E-1,1.8863727E-1,3.8386073E-2,1.5322867E-1,2.343084E-1,2.9522237E-1,3.7819865E-1,3.3791766E-1,4.6220413E-1,4.0445405E-1,8.650673E-2,5.385063E-1,7.21408E-1,6.239126E-1,9.331369E-1,7.3874956E-1,1.1827554E0,9.415881E-1,9.488885E-1,1.6687952E0,6.1830807E-2,-1.3863215E-1],"split_indices":[5,5,5,5,5,5,5,5,5,5,5,5,5,5,5,0,0,5,5,1,1,1,1,5,5,5,5,4,1,5,0,5,5,5,5,4,3,3,0,1,4,1,1,1,1,5,1,1,1,1,1,1,3,0,3,0,0,0,0,0,0,0,0,0,0,0,0,0,0,0,0,0,0,0,0,0,0,0,0,0,0,0,0,0,0,0,0,0,0,0,0,0,0,0,0,0,0,0,0,0,0,0,0,0,0],"split_type":[0,0,0,0,0,0,0,0,0,0,0,0,0,0,0,0,0,0,0,0,0,0,0,0,0,0,0,0,0,0,0,0,0,0,0,0,0,0,0,0,0,0,0,0,0,0,0,0,0,0,0,0,0,0,0,0,0,0,0,0,0,0,0,0,0,0,0,0,0,0,0,0,0,0,0,0,0,0,0,0,0,0,0,0,0,0,0,0,0,0,0,0,0,0,0,0,0,0,0,0,0,0,0,0,0],"sum_hessian":[1.58543E5,1.34725E5,2.3818E4,8.0865E4,5.386E4,2.3654E4,1.64E2,8.8E1,8.0777E4,3.4576E4,1.9284E4,1.8685E4,4.969E3,1.1E2,5.4E1,2.9E1,5.9E1,1.3954E4,6.6823E4,1.9651E4,1.4925E4,1.1299E4,7.985E3,1.3386E4,5.299E3,3.732E3,1.237E3,5.3E1,5.7E1,5.3E1,1E0,5E0,5.4E1,1.191E3,1.2763E4,4.2741E4,2.4082E4,1.9068E4,5.83E2,1.4456E4,4.69E2,1.1142E4,1.57E2,4.446E3,3.539E3,1.0257E4,3.129E3,2.21E3,3.089E3,2.56E3,1.172E3,8.26E2,4.11E2,5E1,3E0,5.6E1,1E0,2.7E1,2.6E1,1E0,4E0,3.5E1,1.9E1,7.9E1,1.112E3,3.076E3,9.687E3,5.023E3,3.7718E4,2.0011E4,4.071E3,1.6124E4,2.944E3,1.08E2,4.75E2,1.98E2,1.4258E4,4.9E1,4.2E2,1.61E2,1.0981E4,2.7E1,1.3E2,1.833E3,2.613E3,7.3E1,3.466E3,5.951E3,4.306E3,2.395E3,7.34E2,1.31E3,9E2,3.7E1,3.052E3,1.555E3,1.005E3,8.17E2,3.55E2,6.46E2,1.8E2,3.7E1,3.74E2,1E0,2E0],"tree_param":{"num_deleted":"0","num_feature":"6","num_nodes":"105","size_leaf_vector":"1"}},{"base_weights":[5.6848873E-4,-7.814469E-1,4.4238353E0,-1.5242054E0,3.3373293E-1,4.124728E0,5.0360535E1,-1.6057852E1,-1.5081736E0,-1.04165524E-1,1.1188447E0,3.2386258E0,8.587417E0,4.065563E1,7.52723E1,-2.3644964E1,-1.1383597E1,-2.4101608E0,-1.3197871E0,-3.736983E-1,2.5071606E-1,8.64417E-1,1.4787139E0,2.5686998E0,4.648005E0,7.4633613E0,1.2961903E1,3.0919853E1,4.874023E1,7.6861033E0,5.067177E-1,-2.8976033E0,-1.9218826E0,-3.2045913E0,-1.2108414E1,-3.6517797E0,-2.2940202E0,-1.5032262E0,-9.9416846E-1,-3.2600698E-1,-4.27272E-1,2.6058358E-1,-4.6623132E-1,9.526226E-1,7.6487786E-1,1.4994798E0,8.8652575E-1,2.339215E0,3.3199735E0,4.215088E0,5.3831296E0,6.936256E0,9.149983E0,1.1953259E1,1.8523188E1,3.2791744E1,-6.767286E-1,4.972644E0,2.2501747E1,-7.0237666E-1,-1.03600286E-1,-1.2418296E0,1.847789E-1,-6.8971246E-1,-3.4152305E-1,-2.667314E-1,-2.1752217E-1,-1.472132E-1,-1.6124955E-1,-9.7156785E-2,-1.0715716E-1,-3.5738293E-2,-5.51641E-3,-6.0718965E-2,-3.94275E-2,3.1988416E-2,1.9336887E-2,-2.558278E-1,-1.1688512E-2,7.728305E-2,1.06955945E-1,-8.411786E-2,7.7967696E-2,9.2994906E-2,1.517251E-1,3.4275937E-3,1.09651305E-1,2.108815E-1,2.6570702E-1,2.287722E-1,3.3452588E-1,1.2556775E-1,4.2521557E-1,2.1823071E-1,5.431899E-1,7.4635667E-1,6.0244805E-1,-3.6051947E-1,9.2067957E-1,1.3011792E0,9.8117334E-1,-4.081377E-1,1.9132468E0,2.3627279E0,3.472129E0,5.873927E-2,-1.2938999E-1,-1.0311017E0,3.687634E0],"categories":[],"categories_nodes":[],"categories_segments":[],"categories_sizes":[],"default_left":[0,0,0,0,0,0,0,0,0,0,0,0,0,0,0,0,0,0,0,0,0,0,0,0,0,0,0,0,0,0,0,0,0,0,0,0,0,0,0,0,0,0,0,0,0,0,0,0,0,0,0,0,0,0,0,0,0,0,0,0,0,0,0,0,0,0,0,0,0,0,0,0,0,0,0,0,0,0,0,0,0,0,0,0,0,0,0,0,0,0,0,0,0,0,0,0,0,0,0,0,0,0,0,0,0,0,0,0,0],"id":4,"left_children":[1,3,5,7,9,11,13,15,17,19,21,23,25,27,29,31,33,35,37,39,41,43,45,47,49,51,53,55,57,-1,-1,-1,-1,59,61,63,65,67,69,71,73,75,77,79,81,83,85,87,89,91,93,95,97,99,101,103,105,-1,107,-1,-1,-1,-1,-1,-1,-1,-1,-1,-1,-1,-1,-1,-1,-1,-1,-1,-1,-1,-1,-1,-1,-1,-1,-1,-1,-1,-1,-1,-1,-1,-1,-1,-1,-1,-1,-1,-1,-1,-1,-1,-1,-1,-1,-1,-1,-1,-1,-1,-1],"loss_changes":[5.484171E5,1.1159532E5,3.2706544E5,1.8817625E4,1.8517488E4,9.3557E4,3.4171812E4,2.8871387E3,1.3722797E4,3.3074604E3,1.7644707E3,1.8632766E4,1.9178531E4,7.3871562E3,4.2951094E3,2.2178516E2,2.991089E2,2.0039688E3,3.9899766E3,5.0071533E1,1.05715576E2,9.8484375E1,9.687695E1,2.3002344E3,2.0016875E3,2.7111875E3,4.266078E3,3.216043E3,4.3367188E2,0E0,0E0,0E0,0E0,4.2416676E1,2.4783496E2,8.915244E2,5.602344E2,1.4284375E2,4.108789E1,8.836743E1,5.4687256E1,5.86261E1,1.4806323E2,1.250459E2,1.2695947E2,7.666406E1,4.8818924E1,7.456289E2,7.4046875E1,4.3433594E2,3.5560938E2,1.1002656E3,5.694336E2,1.4138047E3,1.7445586E3,8.147656E1,3.8807447E0,0E0,2.266913E3,0E0,0E0,0E0,0E0,0E0,0E0,0E0,0E0,0E0,0E0,0E0,0E0,0E0,0E0,0E0,0E0,0E0,0E0,0E0,0E0,0E0,0E0,0E0,0E0,0E0,0E0,0E0,0E0,0E0,0E0,0E0,0E0,0E0,0E0,0E0,0E0,0E0,0E0,0E0,0E0,0E0,0E0,0E0,0E0,0E0,0E0,0E0,0E0,0E0,0E0],"parents":[2147483647,0,0,1,1,2,2,3,3,4,4,5,5,6,6,7,7,8,8,9,9,10,10,11,11,12,12,13,13,14,14,15,15,16,16,17,17,18,18,19,19,20,20,21,21,22,22,23,23,24,24,25,25,26,26,27,27,28,28,33,33,34,34,35,35,36,36,37,37,38,38,39,39,40,40,41,41,42,42,43,43,44,44,45,45,46,46,47,47,48,48,49,49,50,50,51,51,52,52,53,53,54,54,55,55,56,56,58,58],"right_children":[2,4,6,8,10,12,14,16,18,20,22,24,26,28,30,32,34,36,38,40,42,44,46,48,50,52,54,56,58,-1,-1,-1,-1,60,62,64,66,68,70,72,74,76,78,80,82,84,86,88,90,92,94,96,98,100,102,104,106,-1,108,-1,-1,-1,-1,-1,-1,-1,-1,-1,-1,-1,-1,-1,-1,-1,-1,-1,-1,-1,-1,-1,-1,-1,-1,-1,-1,-1,-1,-1,-1,-1,-1,-1,-1,-1,-1,-1,-1,-1,-1,-1,-1,-1,-1,-1,-1,-1,-1,-1,-1],"split_conditions":[6E0,2E0,4.5E1,-1.2E1,4E0,1.3E1,9.4E1,-2.7E1,0E0,3E0,5E0,9E0,2E1,6.6E1,4.09E2,-3.5E1,4.04E2,-2E0,1E0,4.72E2,3.118E3,4.77E2,3.003E3,8E0,1.1E1,1.7E1,2.9E1,2E0,3.128E3,7.6861033E0,5.067177E-1,-2.8976033E0,-1.9218826E0,-1.7E1,6.15E2,-7E0,-1E0,5E0,5E0,4.4E2,1.304E3,4.72E2,3.128E3,2.51E2,4.79E2,4.8E1,5.66E2,7E0,4.8E1,1.3E1,2.3E1,4.72E2,1.3E1,4.66E2,9E0,1.2E1,1.4E1,4.972644E0,8.4E1,-7.0237666E-1,-1.03600286E-1,-1.2418296E0,1.847789E-1,-6.8971246E-1,-3.4152305E-1,-2.667314E-1,-2.1752217E-1,-1.472132E-1,-1.6124955E-1,-9.7156785E-2,-1.0715716E-1,-3.5738293E-2,-5.51641E-3,-6.0718965E-2,-3.94275E-2,3.1988416E-2,1.9336887E-2,-2.558278E-1,-1.1688512E-2,7.728305E-2,1.06955945E-1,-8.411786E-2,7.7967696E-2,9.2994906E-2,1.517251E-1,3.4275937E-3,1.09651305E-1,2.108815E-1,2.6570702E-1,2.287722E-1,3.3452588E-1,1.2556775E-1,4.2521557E-1,2.1823071E-1,5.431899E-1,7.4635667E-1,6.0244805E-1,-3.6051947E-1,9.2067957E-1,1.3011792E0,9.8117334E-1,-4.081377E-1,1.9132468E0,2.3627279E0,3.472129E0,5.873927E-2,-1.2938999E-1,-1.0311017E0,3.687634E0],"split_indices":[5,5,5,5,5,5,5,5,5,5,5,5,5,5,1,5,0,5,5,1,1,1,1,5,5,5,5,4,1,0,0,0,0,5,0,5,5,4,4,1,1,1,1,1,1,1,0,5,1,1,1,1,1,1,3,3,3,0,5,0,0,0,0,0,0,0,0,0,0,0,0,0,0,0,0,0,0,0,0,0,0,0,0,0,0,0,0,0,0,0,0,0,0,0,0,0,0,0,0,0,0,0,0,0,0,0,0,0,0],"split_type":[0,0,0,0,0,0,0,0,0,0,0,0,0,0,0,0,0,0,0,0,0,0,0,0,0,0,0,0,0,0,0,0,0,0,0,0,0,0,0,0,0,0,0,0,0,0,0,0,0,0,0,0,0,0,0,0,0,0,0,0,0,0,0,0,0,0,0,0,0,0,0,0,0,0,0,0,0,0,0,0,0,0,0,0,0,0,0,0,0,0,0,0,0,0,0,0,0,0,0,0,0,0,0,0,0,0,0,0,0],"sum_hessian":[1.58543E5,1.34725E5,2.3818E4,8.0865E4,5.386E4,2.3665E4,1.53E2,8.8E1,8.0777E4,3.4576E4,1.9284E4,1.9746E4,3.919E3,1.12E2,4.1E1,3.2E1,5.6E1,1.3954E4,6.6823E4,1.9651E4,1.4925E4,1.1299E4,7.985E3,1.3386E4,6.36E3,3.12E3,7.99E2,5.3E1,5.9E1,4E1,1E0,1.2E1,2E1,5E0,5.1E1,1.191E3,1.2763E4,4.2741E4,2.4082E4,1.04E4,9.251E3,1.4723E4,2.02E2,5.986E3,5.313E3,7.713E3,2.72E2,1.0257E4,3.129E3,4.007E3,2.353E3,2.381E3,7.39E2,6.79E2,1.2E2,5E1,3E0,5.6E1,3E0,1E0,4E0,5E1,1E0,7.9E1,1.112E3,3.076E3,9.687E3,3.3284E4,9.457E3,1.865E4,5.432E3,9.32E3,1.08E3,1.431E3,7.82E3,7.82E3,6.903E3,2.8E1,1.74E2,2.362E3,3.624E3,4.8E1,5.265E3,2.35E2,7.478E3,5.4E1,2.18E2,5.951E3,4.306E3,7.7E1,3.052E3,5E1,3.957E3,3.6E1,2.317E3,1.504E3,8.77E2,3E0,7.36E2,4.51E2,2.28E2,3E0,1.17E2,1.1E1,3.9E1,1E0,2E0,1E0,2E0],"tree_param":{"num_deleted":"0","num_feature":"6","num_nodes":"109","size_leaf_vector":"1"}},{"base_weights":[6.447272E-4,-7.033655E-1,3.982696E0,-1.3718926E0,3.0036294E-1,3.7027807E0,4.408824E1,-1.8134884E1,-1.3604668E0,-9.375933E-2,1.006988E0,2.9148822E0,7.682041E0,3.3843678E1,6.3962025E1,-2.4148116E0,-1.4008805E0,-2.1851046E0,-1.187816E0,-3.363357E-1,2.2562996E-1,7.7799106E-1,1.3308873E0,2.3119075E0,4.1834106E0,6.7176366E0,1.1487141E1,2.6615263E1,4.1251846E1,6.4968216E1,4.813818E-1,-6.159171E0,-2.1369345E0,-1.3529108E0,-8.9476013E-1,-3.2786667E-1,-6.12294E-1,2.3936418E-1,-1.9730896E-1,7.880289E-1,6.514744E-2,1.4259704E0,1.2110665E0,2.10534E0,2.9881558E0,3.7937162E0,4.84514E0,5.811176E0,7.5517764E0,9.955346E0,1.3554837E1,2.8085847E0,-6.267184E-1,4.24219E0,-9.7954667E-1,5.314255E0,7.6560297E0,-7.736979E-1,-4.7888175E-1,-2.5561985E-1,-1.957722E-1,-1.1965301E-1,-1.3737042E-1,-8.902054E-2,-1.23343125E-1,-3.0798947E-2,-4.3659043E-2,-1.0875174E-1,-5.7155825E-2,-2.9861236E-2,2.4685545E-2,-8.63583E-2,-1.1771036E-2,8.57951E-2,7.07662E-2,4.8971705E-2,-3.2440003E-2,1.2539145E-1,1.5461406E-1,1.9631865E-2,1.2323761E-1,1.897969E-1,2.3914249E-1,3.1126228E-1,2.792318E-1,1.13257185E-1,3.8270473E-1,5.1350754E-1,4.37776E-1,6.174664E-1,5.272197E-1,8.0114746E-1,6.5011686E-1,1.0670713E0,7.29478E-1,1.2357519E0,1.5869789E0,5.580231E-2,-1.20763995E-1],"categories":[],"categories_nodes":[],"categories_segments":[],"categories_sizes":[],"default_left":[0,0,0,0,0,0,0,0,0,0,0,0,0,0,0,0,0,0,0,0,0,0,0,0,0,0,0,0,0,0,0,0,0,0,0,0,0,0,0,0,0,0,0,0,0,0,0,0,0,0,0,0,0,0,0,0,0,0,0,0,0,0,0,0,0,0,0,0,0,0,0,0,0,0,0,0,0,0,0,0,0,0,0,0,0,0,0,0,0,0,0,0,0,0,0,0,0,0,0],"id":5,"left_children":[1,3,5,7,9,11,13,15,17,19,21,23,25,27,29,-1,-1,31,33,35,37,39,41,43,45,47,49,51,53,55,-1,57,59,61,63,65,67,69,71,73,75,77,79,81,83,85,87,89,91,93,95,-1,97,-1,-1,-1,-1,-1,-1,-1,-1,-1,-1,-1,-1,-1,-1,-1,-1,-1,-1,-1,-1,-1,-1,-1,-1,-1,-1,-1,-1,-1,-1,-1,-1,-1,-1,-1,-1,-1,-1,-1,-1,-1,-1,-1,-1,-1,-1],"loss_changes":[4.444658E5,9.0404195E4,2.6723262E5,1.5463547E4,1.5000203E4,7.4142E4,3.1429031E4,1.0263242E3,1.1502969E4,2.6789736E3,1.4293711E3,1.5094625E4,1.4267516E4,4.846039E3,2.9605312E3,0E0,0E0,2.6647656E3,3.231875E3,4.5727783E1,8.6748535E1,8.080469E1,8.9256836E1,1.86375E3,1.6219375E3,2.3159531E3,2.364039E3,2.3812383E3,3.5811328E3,3.3339375E3,0E0,3.2402832E2,1.0336211E3,1.3733594E2,3.6052734E1,4.107617E1,1.0683838E1,5.833716E1,2.482456E1,6.2010254E1,2.6290485E1,9.000781E1,7.630664E1,6.0402734E2,6.760156E1,3.5117188E2,2.9651172E2,2.613086E2,7.3128125E2,7.9196094E2,7.26875E2,0E0,3.4268582E0,0E0,0E0,0E0,0E0,0E0,0E0,0E0,0E0,0E0,0E0,0E0,0E0,0E0,0E0,0E0,0E0,0E0,0E0,0E0,0E0,0E0,0E0,0E0,0E0,0E0,0E0,0E0,0E0,0E0,0E0,0E0,0E0,0E0,0E0,0E0,0E0,0E0,0E0,0E0,0E0,0E0,0E0,0E0,0E0,0E0,0E0],"parents":[2147483647,0,0,1,1,2,2,3,3,4,4,5,5,6,6,7,7,8,8,9,9,10,10,11,11,12,12,13,13,14,14,17,17,18,18,19,19,20,20,21,21,22,22,23,23,24,24,25,25,26,26,27,27,28,28,29,29,31,31,32,32,33,33,34,34,35,35,36,36,37,37,38,38,39,39,40,40,41,41,42,42,43,43,44,44,45,45,46,46,47,47,48,48,49,49,50,50,52,52],"right_children":[2,4,6,8,10,12,14,16,18,20,22,24,26,28,30,-1,-1,32,34,36,38,40,42,44,46,48,50,52,54,56,-1,58,60,62,64,66,68,70,72,74,76,78,80,82,84,86,88,90,92,94,96,-1,98,-1,-1,-1,-1,-1,-1,-1,-1,-1,-1,-1,-1,-1,-1,-1,-1,-1,-1,-1,-1,-1,-1,-1,-1,-1,-1,-1,-1,-1,-1,-1,-1,-1,-1,-1,-1,-1,-1,-1,-1,-1,-1,-1,-1,-1,-1],"split_conditions":[6E0,2E0,4.1E1,-1.7E1,4E0,1.3E1,8.4E1,-3.1E1,0E0,3E0,5E0,9E0,2E1,6.4E1,1.45E2,-2.4148116E0,-1.4008805E0,-5E0,1E0,3.003E3,3.003E3,3.118E3,4.77E2,8E0,1.1E1,1.5E1,2.4E1,2E0,3.128E3,1.14E2,4.813818E-1,-9E0,-1E0,2E0,3.118E3,1.9E1,4.84E2,2.3E1,2E0,4.72E2,1E0,2.51E2,4.94E2,7E0,4.77E2,1.3E1,4.77E2,4.72E2,4.88E2,1.431E3,2.9E1,2.8085847E0,1.4E1,4.24219E0,-9.7954667E-1,5.314255E0,7.6560297E0,-7.736979E-1,-4.7888175E-1,-2.5561985E-1,-1.957722E-1,-1.1965301E-1,-1.3737042E-1,-8.902054E-2,-1.23343125E-1,-3.0798947E-2,-4.3659043E-2,-1.0875174E-1,-5.7155825E-2,-2.9861236E-2,2.4685545E-2,-8.63583E-2,-1.1771036E-2,8.57951E-2,7.07662E-2,4.8971705E-2,-3.2440003E-2,1.2539145E-1,1.5461406E-1,1.9631865E-2,1.2323761E-1,1.897969E-1,2.3914249E-1,3.1126228E-1,2.792318E-1,1.13257185E-1,3.8270473E-1,5.1350754E-1,4.37776E-1,6.174664E-1,5.272197E-1,8.0114746E-1,6.5011686E-1,1.0670713E0,7.29478E-1,1.2357519E0,1.5869789E0,5.580231E-2,-1.20763995E-1],"split_indices":[5,5,5,5,5,5,5,5,5,5,5,5,5,5,5,0,0,5,5,1,1,1,1,5,5,5,5,4,1,5,0,5,5,4,1,3,0,1,4,1,2,1,1,5,1,1,1,1,1,1,5,0,3,0,0,0,0,0,0,0,0,0,0,0,0,0,0,0,0,0,0,0,0,0,0,0,0,0,0,0,0,0,0,0,0,0,0,0,0,0,0,0,0,0,0,0,0,0,0],"split_type":[0,0,0,0,0,0,0,0,0,0,0,0,0,0,0,0,0,0,0,0,0,0,0,0,0,0,0,0,0,0,0,0,0,0,0,0,0,0,0,0,0,0,0,0,0,0,0,0,0,0,0,0,0,0,0,0,0,0,0,0,0,0,0,0,0,0,0,0,0,0,0,0,0,0,0,0,0,0,0,0,0,0,0,0,0,0,0,0,0,0,0,0,0,0,0,0,0,0,0],"sum_hessian":[1.58543E5,1.34725E5,2.3818E4,8.0865E4,5.386E4,2.3654E4,1.64E2,5.4E1,8.0811E4,3.4576E4,1.9284E4,1.9746E4,3.908E3,1.1E2,5.4E1,2E1,3.4E1,1.3988E4,6.6823E4,1.9651E4,1.4925E4,1.1299E4,7.985E3,1.3386E4,6.36E3,3.12E3,7.88E2,5.8E1,5.2E1,5.3E1,1E0,1.66E2,1.3822E4,4.2741E4,2.4082E4,1.9068E4,5.83E2,1.4456E4,4.69E2,1.1142E4,1.57E2,4.446E3,3.539E3,1.0257E4,3.129E3,4.007E3,2.353E3,1.499E3,1.621E3,4.56E2,3.32E2,5.5E1,3E0,5.1E1,1E0,2.9E1,2.4E1,7.5E1,9.1E1,4.135E3,9.687E3,5.023E3,3.7718E4,2.3766E4,3.16E2,1.6124E4,2.944E3,4.4E1,5.39E2,1.98E2,1.4258E4,4.9E1,4.2E2,5.953E3,5.189E3,7.5E1,8.2E1,1.833E3,2.613E3,7.3E1,3.466E3,5.951E3,4.306E3,1.904E3,1.225E3,5E1,3.957E3,1.446E3,9.07E2,8.89E2,6.1E2,1.123E3,4.98E2,3.57E2,9.9E1,2.23E2,1.09E2,1E0,2E0],"tree_param":{"num_deleted":"0","num_feature":"6","num_nodes":"99","size_leaf_vector":"1"}},{"base_weights":[7.278613E-4,-6.3307154E-1,3.58565E0,-1.2347775E0,2.703313E-1,3.332912E0,3.9797344E1,-1.3153759E1,-1.22163E0,-8.439339E-2,9.0632015E-1,2.5092018E0,6.429193E0,2.819531E1,5.4391705E1,-1.9453579E1,-9.275727E0,-1.9522177E0,-1.0690415E0,-3.027144E-1,2.0305997E-1,7.0020723E-1,1.1978515E0,2.080793E0,3.5908241E0,5.4201417E0,9.46664E0,2.8886091E1,-1.8023688E0,4.448709E1,6.474906E1,-2.445371E0,-1.5841982E0,-2.269183E0,-9.905795E0,-2.9971972E0,-1.8544766E0,-1.2176257E0,-8.0529296E-1,-2.4418333E-1,-3.3852363E-1,2.1141668E-1,-4.040691E-1,8.062042E-1,6.435095E-1,1.2536727E0,1.0232389E0,1.8948479E0,2.6895292E0,3.1504748E0,3.904747E0,4.7770896E0,6.0791206E0,8.4486685E0,1.220783E1,2.9874752E1,-5.80287E-1,4.609378E0,1.8503464E1,6.648665E0,4.5731267E-1,-5.972138E-1,-3.3416446E-2,-1.0196334E0,2.4558397E-1,-5.282744E-1,-2.7807695E-1,-2.1451326E-1,-1.76197E-1,-1.20008364E-1,-1.399387E-1,-7.880674E-2,-8.8975094E-2,-7.6234184E-2,-2.3287171E-2,-3.1672977E-2,-4.3476824E-2,2.9703164E-2,1.7224029E-2,-3.2193992E-1,-1.7849227E-2,-5.2029353E-2,8.2653545E-2,6.56301E-2,5.189864E-3,7.12488E-2,1.2754321E-1,2.3513881E-2,1.1121779E-1,4.81618E-2,1.9322765E-1,2.4069361E-1,2.783102E-1,3.3659086E-1,2.8335115E-1,3.2778308E-2,3.9479896E-1,4.8327753E-1,2.3259316E-1,2.0938115E-1,6.1824197E-1,6.944669E-1,9.0897304E-1,3.4324417E-1,1.2468888E0,2.309738E0,3.5323758E0,5.3012192E-2,-1.1271306E-1,-9.305693E-1,3.0875082E0],"categories":[],"categories_nodes":[],"categories_segments":[],"categories_sizes":[],"default_left":[0,0,0,0,0,0,0,0,0,0,0,0,0,0,0,0,0,0,0,0,0,0,0,0,0,0,0,0,0,0,0,0,0,0,0,0,0,0,0,0,0,0,0,0,0,0,0,0,0,0,0,0,0,0,0,0,0,0,0,0,0,0,0,0,0,0,0,0,0,0,0,0,0,0,0,0,0,0,0,0,0,0,0,0,0,0,0,0,0,0,0,0,0,0,0,0,0,0,0,0,0,0,0,0,0,0,0,0,0,0,0],"id":6,"left_children":[1,3,5,7,9,11,13,15,17,19,21,23,25,27,29,31,33,35,37,39,41,43,45,47,49,51,53,55,-1,57,59,-1,-1,61,63,65,67,69,71,73,75,77,79,81,83,85,87,89,91,93,95,97,99,101,103,105,107,-1,109,-1,-1,-1,-1,-1,-1,-1,-1,-1,-1,-1,-1,-1,-1,-1,-1,-1,-1,-1,-1,-1,-1,-1,-1,-1,-1,-1,-1,-1,-1,-1,-1,-1,-1,-1,-1,-1,-1,-1,-1,-1,-1,-1,-1,-1,-1,-1,-1,-1,-1,-1,-1],"loss_changes":[3.602335E5,7.323507E4,2.178604E5,1.2655969E4,1.2151169E4,6.03145E4,2.6404922E4,1.9939033E3,9.002984E3,2.170014E3,1.1579648E3,8.6511875E3,1.51814375E4,3.521789E3,4.5056562E3,2.0853418E2,2.291543E2,1.4197695E3,2.6177734E3,4.1107056E1,7.5813965E1,6.739209E1,7.655762E1,1.5101953E3,7.2034375E2,1.5528438E3,3.3514453E3,2.7266328E3,0E0,8.170156E2,3.1464531E3,0E0,0E0,4.099604E1,2.118003E2,5.7493945E2,3.3941406E2,1.3460156E2,3.433496E1,4.3564667E1,2.5431152E1,4.933435E1,1.2834523E2,1.0652783E2,5.5716553E1,7.0299805E1,1.357185E2,5.4166797E2,7.606836E1,1.414375E2,4.7665625E2,2.4727734E2,7.445547E2,8.1039844E2,7.200625E2,2.5078125E3,3.0263968E0,0E0,1.6634908E3,0E0,0E0,0E0,0E0,0E0,0E0,0E0,0E0,0E0,0E0,0E0,0E0,0E0,0E0,0E0,0E0,0E0,0E0,0E0,0E0,0E0,0E0,0E0,0E0,0E0,0E0,0E0,0E0,0E0,0E0,0E0,0E0,0E0,0E0,0E0,0E0,0E0,0E0,0E0,0E0,0E0,0E0,0E0,0E0,0E0,0E0,0E0,0E0,0E0,0E0,0E0,0E0],"parents":[2147483647,0,0,1,1,2,2,3,3,4,4,5,5,6,6,7,7,8,8,9,9,10,10,11,11,12,12,13,13,14,14,15,15,16,16,17,17,18,18,19,19,20,20,21,21,22,22,23,23,24,24,25,25,26,26,27,27,29,29,30,30,33,33,34,34,35,35,36,36,37,37,38,38,39,39,40,40,41,41,42,42,43,43,44,44,45,45,46,46,47,47,48,48,49,49,50,50,51,51,52,52,53,53,54,54,55,55,56,56,58,58],"right_children":[2,4,6,8,10,12,14,16,18,20,22,24,26,28,30,32,34,36,38,40,42,44,46,48,50,52,54,56,-1,58,60,-1,-1,62,64,66,68,70,72,74,76,78,80,82,84,86,88,90,92,94,96,98,100,102,104,106,108,-1,110,-1,-1,-1,-1,-1,-1,-1,-1,-1,-1,-1,-1,-1,-1,-1,-1,-1,-1,-1,-1,-1,-1,-1,-1,-1,-1,-1,-1,-1,-1,-1,-1,-1,-1,-1,-1,-1,-1,-1,-1,-1,-1,-1,-1,-1,-1,-1,-1,-1,-1,-1,-1],"split_conditions":[6E0,2E0,4.1E1,-1.2E1,4E0,1.2E1,8.2E1,-2.7E1,0E0,3E0,5E0,9E0,1.8E1,8.1E1,1.05E2,-3.6E1,4.04E2,-2E0,1E0,4.78E2,3.118E3,4.06E2,2.189E3,8E0,1E1,1.4E1,2.4E1,2E0,-1.8023688E0,3.118E3,4.09E2,-2.445371E0,-1.5841982E0,-1.7E1,6.15E2,-6E0,-1E0,2E1,1.9E1,2.3E1,5E0,4.06E2,2E0,4.8E1,3.118E3,4.8E1,2.259E3,4.8E1,2.51E2,4.77E2,1.3E1,5E0,4.8E1,1E1,5.3E1,5.6E1,1.4E1,4.609378E0,8.4E1,6.648665E0,4.5731267E-1,-5.972138E-1,-3.3416446E-2,-1.0196334E0,2.4558397E-1,-5.282744E-1,-2.7807695E-1,-2.1451326E-1,-1.76197E-1,-1.20008364E-1,-1.399387E-1,-7.880674E-2,-8.8975094E-2,-7.6234184E-2,-2.3287171E-2,-3.1672977E-2,-4.3476824E-2,2.9703164E-2,1.7224029E-2,-3.2193992E-1,-1.7849227E-2,-5.2029353E-2,8.2653545E-2,6.56301E-2,5.189864E-3,7.12488E-2,1.2754321E-1,2.3513881E-2,1.1121779E-1,4.81618E-2,1.9322765E-1,2.4069361E-1,2.783102E-1,3.3659086E-1,2.8335115E-1,3.2778308E-2,3.9479896E-1,4.8327753E-1,2.3259316E-1,2.0938115E-1,6.1824197E-1,6.944669E-1,9.0897304E-1,3.4324417E-1,1.2468888E0,2.309738E0,3.5323758E0,5.3012192E-2,-1.1271306E-1,-9.305693E-1,3.0875082E0],"split_indices":[5,5,5,5,5,5,5,5,5,5,5,5,5,5,5,5,0,5,5,0,1,0,1,5,5,5,5,4,0,1,1,0,0,5,0,5,5,3,3,1,4,0,4,1,1,1,1,1,1,1,1,4,1,3,1,5,3,0,5,0,0,0,0,0,0,0,0,0,0,0,0,0,0,0,0,0,0,0,0,0,0,0,0,0,0,0,0,0,0,0,0,0,0,0,0,0,0,0,0,0,0,0,0,0,0,0,0,0,0,0,0],"split_type":[0,0,0,0,0,0,0,0,0,0,0,0,0,0,0,0,0,0,0,0,0,0,0,0,0,0,0,0,0,0,0,0,0,0,0,0,0,0,0,0,0,0,0,0,0,0,0,0,0,0,0,0,0,0,0,0,0,0,0,0,0,0,0,0,0,0,0,0,0,0,0,0,0,0,0,0,0,0,0,0,0,0,0,0,0,0,0,0,0,0,0,0,0,0,0,0,0,0,0,0,0,0,0,0,0,0,0,0,0,0,0],"sum_hessian":[1.58543E5,1.34725E5,2.3818E4,8.0865E4,5.386E4,2.3654E4,1.64E2,8.8E1,8.0777E4,3.4576E4,1.9284E4,1.8685E4,4.969E3,9.3E1,7.1E1,3.2E1,5.6E1,1.3954E4,6.6823E4,1.9651E4,1.4925E4,1.1299E4,7.985E3,1.3386E4,5.299E3,3.732E3,1.237E3,9.2E1,1E0,3.9E1,3.2E1,1.1E1,2.1E1,5E0,5.1E1,1.191E3,1.2763E4,4.2741E4,2.4082E4,7.462E3,1.2189E4,1.4723E4,2.02E2,3.933E3,7.366E3,6.046E3,1.939E3,1.0257E4,3.129E3,2.21E3,3.089E3,1.893E3,1.839E3,9.05E2,3.32E2,8.9E1,3E0,3.6E1,3E0,3.1E1,1E0,1E0,4E0,5E1,1E0,1.01E2,1.09E3,3.076E3,9.687E3,3.8986E4,3.755E3,2.0011E4,4.071E3,1.58E2,7.304E3,9.942E3,2.247E3,4.62E3,1.0103E4,1.4E1,1.88E2,5.9E1,3.874E3,7.21E3,1.56E2,2.35E2,5.811E3,1.97E2,1.742E3,2.65E2,9.992E3,7.85E2,2.344E3,1.31E3,9E2,3.7E1,3.052E3,1.85E3,4.3E1,4.7E1,1.792E3,2.74E2,6.31E2,1E1,3.22E2,4.2E1,4.7E1,1E0,2E0,1E0,2E0],"tree_param":{"num_deleted":"0","num_feature":"6","num_nodes":"111","size_leaf_vector":"1"}},{"base_weights":[7.642119E-4,-5.6981707E-1,3.2281091E0,-1.111387E0,2.4329752E-1,3.0097647E0,3.7431858E1,-1.4919652E1,-1.1019754E0,-7.596762E-2,8.1571066E-1,2.3605993E0,6.276667E0,3.0454618E1,5.6688164E1,-1.9888443E0,-1.1512101E1,-1.7698581E0,-9.621437E-1,-2.724519E-1,1.8273433E-1,6.3019544E-1,1.0781082E0,1.8727703E0,3.3868856E0,5.632859E0,1.0564419E1,2.3064714E1,3.6597958E1,5.7951303E0,4.344471E-1,-7.614438E0,-1.2384948E0,-4.995672E0,-1.730758E0,-1.0958692E0,-7.2477067E-1,-2.649266E-1,-5.1770395E-1,1.9027817E-1,-3.6533603E-1,6.985362E-1,5.539786E-1,1.0961384E0,5.646909E-1,1.5186645E0,2.1559556E0,3.0656254E0,3.9324355E0,5.0349874E0,7.0073714E0,1.0009131E1,1.8304363E1,2.4463594E1,-5.3718346E-1,3.9325225E0,2.7386318E1,-1.0076237E0,-3.6297515E-1,-6.583386E-1,-4.0673527E-1,-2.0699039E-1,-1.5857913E-1,-1.0737189E-1,-1.21756986E-1,-7.042991E-2,-7.94914E-2,-2.4675803E-2,-3.6431666E-2,-7.86965E-2,-4.5495782E-2,-1.4862779E-2,1.996796E-2,-2.2434993E-1,-5.20099E-3,5.3877812E-2,8.034388E-2,2.919494E-2,6.0836643E-2,1.1823527E-2,1.1037888E-1,-1.9928178E-2,7.539777E-2,1.675989E-1,1.3112643E-1,7.121516E-2,2.1941249E-1,8.106865E-2,3.0939063E-1,2.0308569E-1,3.9967117E-1,5.462236E-1,4.2968974E-1,-4.3888712E-1,7.044862E-1,7.483668E-1,1.087975E0,2.035376E0,2.7569842E-1,1.647403E0,2.6010463E0,5.0361585E-2,-1.0519885E-1,3.3157156E0,6.9048804E-1],"categories":[],"categories_nodes":[],"categories_segments":[],"categories_sizes":[],"default_left":[0,0,0,0,0,0,0,0,0,0,0,0,0,0,0,0,0,0,0,0,0,0,0,0,0,0,0,0,0,0,0,0,0,0,0,0,0,0,0,0,0,0,0,0,0,0,0,0,0,0,0,0,0,0,0,0,0,0,0,0,0,0,0,0,0,0,0,0,0,0,0,0,0,0,0,0,0,0,0,0,0,0,0,0,0,0,0,0,0,0,0,0,0,0,0,0,0,0,0,0,0,0,0,0,0],"id":7,"left_children":[1,3,5,7,9,11,13,15,17,19,21,23,25,27,29,-1,31,33,35,37,39,41,43,45,47,49,51,53,55,-1,-1,57,-1,59,61,63,65,67,69,71,73,75,77,79,81,83,85,87,89,91,93,95,97,99,101,-1,103,-1,-1,-1,-1,-1,-1,-1,-1,-1,-1,-1,-1,-1,-1,-1,-1,-1,-1,-1,-1,-1,-1,-1,-1,-1,-1,-1,-1,-1,-1,-1,-1,-1,-1,-1,-1,-1,-1,-1,-1,-1,-1,-1,-1,-1,-1,-1,-1],"loss_changes":[2.919547E5,5.9328E4,1.7777233E5,1.0492672E4,9.843244E3,5.0181453E4,1.8561297E4,7.022705E2,7.545422E3,1.7576287E3,9.3808887E2,9.880047E3,1.0769891E4,4.2859375E3,2.3268125E3,0E0,2.4767578E1,1.7557812E3,2.1203906E3,3.6132324E1,6.178192E1,5.847168E1,7.330762E1,1.3391406E3,1.1027891E3,2.7694531E3,2.0130117E3,1.7960176E3,4.303828E2,0E0,0E0,5.1711243E1,0E0,2.1936523E2,6.763203E2,1.1391016E2,3.4021484E1,3.4344482E1,9.5086975E0,4.69433E1,1.1934427E2,9.935034E1,7.602368E1,5.758008E1,3.962876E1,1.9201172E2,4.0823047E2,2.5308984E2,2.7960547E2,7.276914E2,4.7183594E2,9.717656E2,9.9535547E2,2.0180273E2,2.6730332E0,0E0,1.7803682E3,0E0,0E0,0E0,0E0,0E0,0E0,0E0,0E0,0E0,0E0,0E0,0E0,0E0,0E0,0E0,0E0,0E0,0E0,0E0,0E0,0E0,0E0,0E0,0E0,0E0,0E0,0E0,0E0,0E0,0E0,0E0,0E0,0E0,0E0,0E0,0E0,0E0,0E0,0E0,0E0,0E0,0E0,0E0,0E0,0E0,0E0,0E0,0E0],"parents":[2147483647,0,0,1,1,2,2,3,3,4,4,5,5,6,6,7,7,8,8,9,9,10,10,11,11,12,12,13,13,14,14,16,16,17,17,18,18,19,19,20,20,21,21,22,22,23,23,24,24,25,25,26,26,27,27,28,28,31,31,33,33,34,34,35,35,36,36,37,37,38,38,39,39,40,40,41,41,42,42,43,43,44,44,45,45,46,46,47,47,48,48,49,49,50,50,51,51,52,52,53,53,54,54,56,56],"right_children":[2,4,6,8,10,12,14,16,18,20,22,24,26,28,30,-1,32,34,36,38,40,42,44,46,48,50,52,54,56,-1,-1,58,-1,60,62,64,66,68,70,72,74,76,78,80,82,84,86,88,90,92,94,96,98,100,102,-1,104,-1,-1,-1,-1,-1,-1,-1,-1,-1,-1,-1,-1,-1,-1,-1,-1,-1,-1,-1,-1,-1,-1,-1,-1,-1,-1,-1,-1,-1,-1,-1,-1,-1,-1,-1,-1,-1,-1,-1,-1,-1,-1,-1,-1,-1,-1,-1,-1],"split_conditions":[6E0,2E0,4.6E1,-1.7E1,4E0,1.3E1,9.8E1,-3.1E1,0E0,3E0,5E0,9E0,2.2E1,6.7E1,4.09E2,-1.9888443E0,3E0,-5E0,1E0,3.003E3,3.118E3,4.72E2,3.003E3,7E0,1.1E1,1.7E1,3.6E1,2E0,3.118E3,5.7951303E0,4.344471E-1,-2.7E1,-1.2384948E0,-1E1,-1E0,1.9E1,5E0,1.9E1,5.62E2,4.8E1,3.128E3,2.51E2,1.311E3,1.3E1,5.66E2,4.72E2,4.8E1,1.3E1,5.3E1,4.72E2,1.3E1,1.2E1,2E0,1.2E1,1.4E1,3.9325225E0,8.1E1,-1.0076237E0,-3.6297515E-1,-6.583386E-1,-4.0673527E-1,-2.0699039E-1,-1.5857913E-1,-1.0737189E-1,-1.21756986E-1,-7.042991E-2,-7.94914E-2,-2.4675803E-2,-3.6431666E-2,-7.86965E-2,-4.5495782E-2,-1.4862779E-2,1.996796E-2,-2.2434993E-1,-5.20099E-3,5.3877812E-2,8.034388E-2,2.919494E-2,6.0836643E-2,1.1823527E-2,1.1037888E-1,-1.9928178E-2,7.539777E-2,1.675989E-1,1.3112643E-1,7.121516E-2,2.1941249E-1,8.106865E-2,3.0939063E-1,2.0308569E-1,3.9967117E-1,5.462236E-1,4.2968974E-1,-4.3888712E-1,7.044862E-1,7.483668E-1,1.087975E0,2.035376E0,2.7569842E-1,1.647403E0,2.6010463E0,5.0361585E-2,-1.0519885E-1,3.3157156E0,6.9048804E-1],"split_indices":[5,5,5,5,5,5,5,5,5,5,5,5,5,5,1,0,4,5,5,1,1,1,1,5,5,5,5,4,1,0,0,5,0,5,5,3,4,3,0,1,1,1,1,1,0,1,1,1,1,1,1,3,4,3,3,0,5,0,0,0,0,0,0,0,0,0,0,0,0,0,0,0,0,0,0,0,0,0,0,0,0,0,0,0,0,0,0,0,0,0,0,0,0,0,0,0,0,0,0,0,0,0,0,0,0],"split_type":[0,0,0,0,0,0,0,0,0,0,0,0,0,0,0,0,0,0,0,0,0,0,0,0,0,0,0,0,0,0,0,0,0,0,0,0,0,0,0,0,0,0,0,0,0,0,0,0,0,0,0,0,0,0,0,0,0,0,0,0,0,0,0,0,0,0,0,0,0,0,0,0,0,0,0,0,0,0,0,0,0,0,0,0,0,0,0,0,0,0,0,0,0,0,0,0,0,0,0,0,0,0,0,0,0],"sum_hessian":[1.58543E5,1.34725E5,2.3818E4,8.0865E4,5.386E4,2.3668E4,1.5E2,5.4E1,8.0811E4,3.4576E4,1.9284E4,1.9746E4,3.922E3,1.12E2,3.8E1,2E1,3.4E1,1.3988E4,6.6823E4,1.9651E4,1.4925E4,1.1299E4,7.985E3,1.3386E4,6.36E3,3.412E3,5.1E2,5.3E1,5.9E1,3.7E1,1E0,8E0,2.6E1,1.66E2,1.3822E4,4.2741E4,2.4082E4,1.9068E4,5.83E2,1.4723E4,2.02E2,5.953E3,5.346E3,7.713E3,2.72E2,5.951E3,7.435E3,4.007E3,2.353E3,2.381E3,1.031E3,4.78E2,3.2E1,5E1,3E0,4.3E1,1.6E1,4E0,4E0,5.9E1,1.07E2,4.135E3,9.687E3,3.6168E4,6.573E3,1.865E4,5.432E3,1.6124E4,2.944E3,1.08E2,4.75E2,3.97E2,1.4326E4,2.8E1,1.74E2,2.362E3,3.591E3,9.2E2,4.426E3,6E1,7.653E3,5.4E1,2.18E2,3.38E3,2.571E3,1.92E2,7.243E3,5E1,3.957E3,7.8E1,2.275E3,1.504E3,8.77E2,3E0,1.028E3,1.25E2,3.53E2,2.8E1,4E0,1E1,4E1,1E0,2E0,1.2E1,4E0],"tree_param":{"num_deleted":"0","num_feature":"6","num_nodes":"105","size_leaf_vector":"1"}},{"base_weights":[8.071353E-4,-5.1288295E-1,2.9063618E0,-1.0003275E0,2.189676E-1,2.7090828E0,3.3810272E1,-1.3511286E1,-9.9180025E-1,-6.8382725E-2,7.341604E-1,2.199855E0,6.0985003E0,2.7707293E1,5.1865208E1,-1.974912E0,-1.111031E1,-1.5929745E0,-8.65935E-1,-2.4521612E-1,1.6444579E-1,5.671958E-1,9.703195E-1,1.6855375E0,3.1567538E0,5.419504E0,9.516093E0,2.12708E1,3.3666073E1,5.307662E1,4.127247E-1,-1.184369E0,-7.579126E-1,-3.4009223E0,-1.5333217E0,-9.862876E-1,-6.522998E-1,-2.0521516E-1,-2.9015827E-1,2.2291636E-1,1.0006881E-1,-6.4369235E-3,5.7548743E-1,1.0498723E0,8.7011E-1,1.5268569E0,2.2050455E0,2.7591603E0,3.6559367E0,4.934469E0,6.6149826E0,9.012053E0,1.6543959E1,2.2467184E1,-4.9717444E-1,3.620279E0,2.474452E1,4.275275E0,6.0063615E0,-5.416776E-1,-2.8398886E-1,-1.7994088E-1,-1.4272285E-1,-8.440953E-2,-1.0052009E-1,-5.9195865E-2,-6.746245E-2,-2.4989452E-2,-5.287765E-3,-8.950587E-2,-2.8150681E-2,1.780144E-2,5.764256E-2,-5.4500382E-2,1.13868145E-2,9.299043E-3,-2.2213268E-1,6.460346E-2,4.9803484E-2,9.0123646E-2,1.1537546E-1,5.5231906E-2,9.327073E-2,3.0833801E-2,1.5591393E-1,2.3255537E-1,2.0159972E-1,2.5295553E-1,3.0399713E-1,3.899503E-1,3.2805336E-1,5.3622E-1,4.077943E-1,5.5320317E-1,7.1122646E-1,1.0061325E0,6.935331E-1,1.838857E0,2.5364262E-1,1.4976391E0,2.3798997E0,4.7843505E-2,-9.818559E-2,3.0345824E0,6.352491E-1],"categories":[],"categories_nodes":[],"categories_segments":[],"categories_sizes":[],"default_left":[0,0,0,0,0,0,0,0,0,0,0,0,0,0,0,0,0,0,0,0,0,0,0,0,0,0,0,0,0,0,0,0,0,0,0,0,0,0,0,0,0,0,0,0,0,0,0,0,0,0,0,0,0,0,0,0,0,0,0,0,0,0,0,0,0,0,0,0,0,0,0,0,0,0,0,0,0,0,0,0,0,0,0,0,0,0,0,0,0,0,0,0,0,0,0,0,0,0,0,0,0,0,0,0,0],"id":8,"left_children":[1,3,5,7,9,11,13,15,17,19,21,23,25,27,29,-1,31,33,35,37,39,41,43,45,47,49,51,53,55,57,-1,-1,-1,59,61,63,65,67,69,71,73,75,77,79,81,83,85,87,89,91,93,95,97,99,101,-1,103,-1,-1,-1,-1,-1,-1,-1,-1,-1,-1,-1,-1,-1,-1,-1,-1,-1,-1,-1,-1,-1,-1,-1,-1,-1,-1,-1,-1,-1,-1,-1,-1,-1,-1,-1,-1,-1,-1,-1,-1,-1,-1,-1,-1,-1,-1,-1,-1],"loss_changes":[2.366371E5,4.8061902E4,1.4512552E5,8.613703E3,7.973677E3,4.0838938E4,1.5201484E4,6.0431055E2,6.113414E3,1.4236396E3,7.598613E2,1.0122633E4,7.1211953E3,3.6945547E3,1.9206641E3,0E0,1.9002441E1,1.5034883E3,1.7175117E3,3.526941E1,5.616153E1,5.3750732E1,6.275049E1,1.1002031E3,1.4175156E3,1.4639531E3,1.6610312E3,1.5216543E3,4.168047E2,2.8890625E1,0E0,0E0,0E0,4.8902637E2,3.7978125E2,1.1410156E2,3.204297E1,7.077954E1,4.816632E1,1.24042145E2,6.3316635E1,3.58823E1,6.054248E1,6.762451E1,6.990527E1,4.030371E2,6.661914E1,2.5072852E2,2.7852344E2,6.522383E2,3.602461E2,9.739883E2,8.0602734E2,1.9227734E2,2.3611937E0,0E0,1.4555361E3,0E0,0E0,0E0,0E0,0E0,0E0,0E0,0E0,0E0,0E0,0E0,0E0,0E0,0E0,0E0,0E0,0E0,0E0,0E0,0E0,0E0,0E0,0E0,0E0,0E0,0E0,0E0,0E0,0E0,0E0,0E0,0E0,0E0,0E0,0E0,0E0,0E0,0E0,0E0,0E0,0E0,0E0,0E0,0E0,0E0,0E0,0E0,0E0],"parents":[2147483647,0,0,1,1,2,2,3,3,4,4,5,5,6,6,7,7,8,8,9,9,10,10,11,11,12,12,13,13,14,14,16,16,17,17,18,18,19,19,20,20,21,21,22,22,23,23,24,24,25,25,26,26,27,27,28,28,29,29,33,33,34,34,35,35,36,36,37,37,38,38,39,39,40,40,41,41,42,42,43,43,44,44,45,45,46,46,47,47,48,48,49,49,50,50,51,51,52,52,53,53,54,54,56,56],"right_children":[2,4,6,8,10,12,14,16,18,20,22,24,26,28,30,-1,32,34,36,38,40,42,44,46,48,50,52,54,56,58,-1,-1,-1,60,62,64,66,68,70,72,74,76,78,80,82,84,86,88,90,92,94,96,98,100,102,-1,104,-1,-1,-1,-1,-1,-1,-1,-1,-1,-1,-1,-1,-1,-1,-1,-1,-1,-1,-1,-1,-1,-1,-1,-1,-1,-1,-1,-1,-1,-1,-1,-1,-1,-1,-1,-1,-1,-1,-1,-1,-1,-1,-1,-1,-1,-1,-1,-1],"split_conditions":[6E0,2E0,4.6E1,-1.7E1,4E0,1.4E1,1E2,-3.4E1,0E0,3E0,5E0,9E0,2.2E1,7E1,4.09E2,-1.974912E0,-2E1,-3E0,1E0,4.72E2,4.72E2,2.3E1,4.77E2,8E0,1.1E1,1.8E1,3.6E1,2E0,3.118E3,1.22E2,4.127247E-1,-1.184369E0,-7.579126E-1,-8E0,-1E0,2E0,4.06E2,4.04E2,4.79E2,4.44E2,4.94E2,5.62E2,4.77E2,2.51E2,1.311E3,4.8E1,4.77E2,1E1,4.77E2,4.72E2,1E1,4.66E2,2E0,1.2E1,1.4E1,3.620279E0,8.1E1,4.275275E0,6.0063615E0,-5.416776E-1,-2.8398886E-1,-1.7994088E-1,-1.4272285E-1,-8.440953E-2,-1.0052009E-1,-5.9195865E-2,-6.746245E-2,-2.4989452E-2,-5.287765E-3,-8.950587E-2,-2.8150681E-2,1.780144E-2,5.764256E-2,-5.4500382E-2,1.13868145E-2,9.299043E-3,-2.2213268E-1,6.460346E-2,4.9803484E-2,9.0123646E-2,1.1537546E-1,5.5231906E-2,9.327073E-2,3.0833801E-2,1.5591393E-1,2.3255537E-1,2.0159972E-1,2.5295553E-1,3.0399713E-1,3.899503E-1,3.2805336E-1,5.3622E-1,4.077943E-1,5.5320317E-1,7.1122646E-1,1.0061325E0,6.935331E-1,1.838857E0,2.5364262E-1,1.4976391E0,2.3798997E0,4.7843505E-2,-9.818559E-2,3.0345824E0,6.352491E-1],"split_indices":[5,5,5,5,5,5,5,5,5,5,5,5,5,5,1,0,5,5,5,1,1,1,1,5,5,5,5,4,1,5,0,0,0,5,5,4,0,1,1,1,1,0,1,1,1,1,1,5,1,1,3,1,4,3,3,0,5,0,0,0,0,0,0,0,0,0,0,0,0,0,0,0,0,0,0,0,0,0,0,0,0,0,0,0,0,0,0,0,0,0,0,0,0,0,0,0,0,0,0,0,0,0,0,0,0],"split_type":[0,0,0,0,0,0,0,0,0,0,0,0,0,0,0,0,0,0,0,0,0,0,0,0,0,0,0,0,0,0,0,0,0,0,0,0,0,0,0,0,0,0,0,0,0,0,0,0,0,0,0,0,0,0,0,0,0,0,0,0,0,0,0,0,0,0,0,0,0,0,0,0,0,0,0,0,0,0,0,0,0,0,0,0,0,0,0,0,0,0,0,0,0,0,0,0,0,0,0,0,0,0,0,0,0],"sum_hessian":[1.58543E5,1.34725E5,2.3818E4,8.0865E4,5.386E4,2.3668E4,1.5E2,5.4E1,8.0811E4,3.4576E4,1.9284E4,2.0578E4,3.09E3,1.14E2,3.6E1,1.3E1,4.1E1,1.3988E4,6.6823E4,1.9651E4,1.4925E4,1.1299E4,7.985E3,1.3386E4,7.192E3,2.58E3,5.1E2,5.7E1,5.7E1,3.5E1,1E0,3.2E1,9E0,4.45E2,1.3543E4,4.2741E4,2.4082E4,1.04E4,9.251E3,7.82E3,7.105E3,1.61E2,1.1138E4,4.446E3,3.539E3,1.0257E4,3.129E3,4.007E3,3.185E3,1.839E3,7.41E2,4.78E2,3.2E1,5.4E1,3E0,4.2E1,1.5E1,1.7E1,1.8E1,9.5E1,3.5E2,3.856E3,9.687E3,5.023E3,3.7718E4,6.511E3,1.7571E4,8.041E3,2.359E3,1.29E2,9.122E3,6.94E3,8.8E2,1.48E2,6.957E3,1.55E2,6E0,5.825E3,5.313E3,1.833E3,2.613E3,5.84E2,2.955E3,2.65E2,9.992E3,1.904E3,1.225E3,2.21E3,1.797E3,1.926E3,1.259E3,1.223E3,6.16E2,2.37E2,5.04E2,3.15E2,1.63E2,2.8E1,4E0,1E1,4.4E1,1E0,2E0,1.1E1,4E0],"tree_param":{"num_deleted":"0","num_feature":"6","num_nodes":"105","size_leaf_vector":"1"}},{"base_weights":[8.8078325E-4,-4.6163353E-1,2.6169732E0,-9.0036124E-1,1.9707341E-1,2.4565449E0,3.3758026E1,-1.0236896E1,-8.909888E-1,-6.1547816E-2,6.607576E-1,1.9799619E0,5.5992208E0,2.7774527E1,4.7280422E1,-1.6376951E1,-7.9552884E0,-1.4252234E0,-7.7934617E-1,-2.2070204E-1,1.4800331E-1,5.104674E-1,8.733319E-1,1.5170302E0,2.8412557E0,4.936318E0,9.471087E0,2.8433521E1,-1.5519059E-1,4.8407245E0,3.920885E-1,-1.9742959E0,-1.2786874E0,-1.0146245E0,-8.556872E0,-2.8797457E0,-1.3800133E0,-8.876631E-1,-5.870751E-1,-1.7086728E-1,-2.511939E-1,1.5859988E-1,-1.782574E-1,5.3355116E-1,3.1147802E-1,8.8393843E-1,1.4611453E-1,1.2141129E0,1.7592903E0,2.4833834E0,3.2905684E0,4.441536E0,6.031194E0,8.420679E0,1.59935E1,2.4782713E1,3.2499905E1,-6.872992E-2,4.5451332E-2,-4.6753272E-1,6.525817E-2,-9.9938387E-1,-7.075646E-1,-4.4584057E-1,-2.5567088E-1,-1.6195147E-1,-1.2845205E-1,-8.606585E-2,-9.826052E-2,-5.754577E-2,-6.974883E-2,-6.3545994E-2,-1.607316E-2,-2.3140442E-2,-3.38612E-2,-2.9140834E-2,1.6486911E-2,-4.801323E-3,-4.7575276E-2,6.253963E-2,4.8570774E-2,3.313546E-2,-6.572326E-2,1.795945E-3,8.905881E-2,-4.5204666E-2,6.5650485E-2,1.3103665E-1,9.2343144E-2,5.3015184E-2,1.7917952E-1,4.6319555E-2,2.5087866E-1,1.720472E-1,3.3440456E-1,8.2964025E-2,4.535752E-1,6.5469736E-1,4.9547073E-1,1.1564772E-2,8.658903E-1,1.7215861E0,1.7154932E-1,2.6040077E0,-1.7785372E0,3.3461888E0,1.619805E0],"categories":[],"categories_nodes":[],"categories_segments":[],"categories_sizes":[],"default_left":[0,0,0,0,0,0,0,0,0,0,0,0,0,0,0,0,0,0,0,0,0,0,0,0,0,0,0,0,0,0,0,0,0,0,0,0,0,0,0,0,0,0,0,0,0,0,0,0,0,0,0,0,0,0,0,0,0,0,0,0,0,0,0,0,0,0,0,0,0,0,0,0,0,0,0,0,0,0,0,0,0,0,0,0,0,0,0,0,0,0,0,0,0,0,0,0,0,0,0,0,0,0,0,0,0,0,0],"id":9,"left_children":[1,3,5,7,9,11,13,15,17,19,21,23,25,27,29,31,33,35,37,39,41,43,45,47,49,51,53,55,57,-1,-1,-1,-1,59,61,63,65,67,69,71,73,75,77,79,81,83,85,87,89,91,93,95,97,99,101,103,105,-1,-1,-1,-1,-1,-1,-1,-1,-1,-1,-1,-1,-1,-1,-1,-1,-1,-1,-1,-1,-1,-1,-1,-1,-1,-1,-1,-1,-1,-1,-1,-1,-1,-1,-1,-1,-1,-1,-1,-1,-1,-1,-1,-1,-1,-1,-1,-1,-1,-1],"loss_changes":[1.9183628E5,3.8935055E4,1.1891441E5,7.067125E3,6.4589756E3,3.5482516E4,8.557969E3,1.0044619E3,4.8172344E3,1.1532084E3,6.1566797E2,8.200953E3,7.96125E3,1.6056953E3,1.5691016E3,1.3178711E0,2.460166E2,9.1421875E2,1.391168E3,2.9819336E1,5.1631073E1,5.1739746E1,6.146875E1,9.802656E2,1.1484375E3,1.4174531E3,2.9826172E3,4.564375E2,1.2856727E0,0E0,0E0,0E0,0E0,3.9669907E1,4.8481445E1,2.0278687E2,3.0768164E2,1.0873828E2,3.0490234E1,3.5040833E1,2.1009888E1,4.083423E1,1.8188263E1,4.4183105E1,2.2880516E1,4.5309082E1,3.571107E1,1.6532129E2,2.9614062E2,2.0452734E2,2.617578E2,6.223867E2,4.2673633E2,7.785117E2,1.0525459E3,3.085791E3,3.8222656E1,0E0,0E0,0E0,0E0,0E0,0E0,0E0,0E0,0E0,0E0,0E0,0E0,0E0,0E0,0E0,0E0,0E0,0E0,0E0,0E0,0E0,0E0,0E0,0E0,0E0,0E0,0E0,0E0,0E0,0E0,0E0,0E0,0E0,0E0,0E0,0E0,0E0,0E0,0E0,0E0,0E0,0E0,0E0,0E0,0E0,0E0,0E0,0E0,0E0,0E0],"parents":[2147483647,0,0,1,1,2,2,3,3,4,4,5,5,6,6,7,7,8,8,9,9,10,10,11,11,12,12,13,13,14,14,15,15,16,16,17,17,18,18,19,19,20,20,21,21,22,22,23,23,24,24,25,25,26,26,27,27,28,28,33,33,34,34,35,35,36,36,37,37,38,38,39,39,40,40,41,41,42,42,43,43,44,44,45,45,46,46,47,47,48,48,49,49,50,50,51,51,52,52,53,53,54,54,55,55,56,56],"right_children":[2,4,6,8,10,12,14,16,18,20,22,24,26,28,30,32,34,36,38,40,42,44,46,48,50,52,54,56,58,-1,-1,-1,-1,60,62,64,66,68,70,72,74,76,78,80,82,84,86,88,90,92,94,96,98,100,102,104,106,-1,-1,-1,-1,-1,-1,-1,-1,-1,-1,-1,-1,-1,-1,-1,-1,-1,-1,-1,-1,-1,-1,-1,-1,-1,-1,-1,-1,-1,-1,-1,-1,-1,-1,-1,-1,-1,-1,-1,-1,-1,-1,-1,-1,-1,-1,-1,-1,-1,-1],"split_conditions":[6E0,2E0,5.6E1,-1.3E1,4E0,1.4E1,1.01E2,-3.1E1,0E0,3E0,5E0,9E0,2.3E1,2E0,4.09E2,-4E1,4.04E2,-3E0,1E0,4.78E2,3.003E3,1.9E1,3.118E3,7E0,1.1E1,1.8E1,3.6E1,8.2E1,3.6E2,4.8407245E0,3.920885E-1,-1.9742959E0,-1.2786874E0,-1.7E1,-2E1,-8E0,-1E0,5E0,2E1,2.3E1,5E0,2.3E1,1.6E1,4.06E2,3.047E3,1.3E1,1.3E1,2.189E3,4.8E1,1.3E1,5.3E1,4.8E1,4.77E2,7.4E1,2E0,8.1E1,3.118E3,-6.872992E-2,4.5451332E-2,-4.6753272E-1,6.525817E-2,-9.9938387E-1,-7.075646E-1,-4.4584057E-1,-2.5567088E-1,-1.6195147E-1,-1.2845205E-1,-8.606585E-2,-9.826052E-2,-5.754577E-2,-6.974883E-2,-6.3545994E-2,-1.607316E-2,-2.3140442E-2,-3.38612E-2,-2.9140834E-2,1.6486911E-2,-4.801323E-3,-4.7575276E-2,6.253963E-2,4.8570774E-2,3.313546E-2,-6.572326E-2,1.795945E-3,8.905881E-2,-4.5204666E-2,6.5650485E-2,1.3103665E-1,9.2343144E-2,5.3015184E-2,1.7917952E-1,4.6319555E-2,2.5087866E-1,1.720472E-1,3.3440456E-1,8.2964025E-2,4.535752E-1,6.5469736E-1,4.9547073E-1,1.1564772E-2,8.658903E-1,1.7215861E0,1.7154932E-1,2.6040077E0,-1.7785372E0,3.3461888E0,1.619805E0],"split_indices":[5,5,5,5,5,5,5,5,5,5,5,5,5,4,1,5,0,5,5,0,1,3,1,5,5,5,5,5,1,0,0,0,0,5,5,5,5,4,3,1,4,1,3,0,1,1,3,1,1,1,1,1,1,1,4,5,1,0,0,0,0,0,0,0,0,0,0,0,0,0,0,0,0,0,0,0,0,0,0,0,0,0,0,0,0,0,0,0,0,0,0,0,0,0,0,0,0,0,0,0,0,0,0,0,0,0,0],"split_type":[0,0,0,0,0,0,0,0,0,0,0,0,0,0,0,0,0,0,0,0,0,0,0,0,0,0,0,0,0,0,0,0,0,0,0,0,0,0,0,0,0,0,0,0,0,0,0,0,0,0,0,0,0,0,0,0,0,0,0,0,0,0,0,0,0,0,0,0,0,0,0,0,0,0,0,0,0,0,0,0,0,0,0,0,0,0,0,0,0,0,0,0,0,0,0,0,0,0,0,0,0,0,0,0,0,0,0],"sum_hessian":[1.58543E5,1.34725E5,2.3818E4,8.0865E4,5.386E4,2.3697E4,1.21E2,8E1,8.0785E4,3.4576E4,1.9284E4,2.0578E4,3.119E3,8.6E1,3.5E1,2E1,6E1,1.3962E4,6.6823E4,1.9651E4,1.4925E4,1.1299E4,7.985E3,1.3386E4,7.192E3,2.665E3,4.54E2,8.4E1,2E0,3.4E1,1E0,8E0,1.2E1,5E0,5.5E1,4.19E2,1.3543E4,4.2741E4,2.4082E4,7.462E3,1.2189E4,1.4456E4,4.69E2,1.0123E4,1.176E3,7.87E3,1.15E2,5.951E3,7.435E3,4.007E3,3.185E3,1.839E3,8.26E2,3.93E2,6.1E1,4.8E1,3.6E1,1E0,1E0,1E0,4E0,2.5E1,3E1,6.9E1,3.5E2,3.856E3,9.687E3,3.3284E4,9.457E3,2.1795E4,2.287E3,1.58E2,7.304E3,9.942E3,2.247E3,1.98E2,1.4258E4,3.27E2,1.42E2,3.463E3,6.66E3,1.153E3,2.3E1,6E1,7.81E3,5.3E1,6.2E1,4.468E3,1.483E3,1.92E2,7.243E3,5E1,3.957E3,1.06E2,3.079E3,4.7E1,1.792E3,5.55E2,2.71E2,1.1E1,3.82E2,5.6E1,5E0,4.7E1,1E0,3.3E1,3E0],"tree_param":{"num_deleted":"0","num_feature":"6","num_nodes":"107","size_leaf_vector":"1"}},{"base_weights":[8.560248E-4,-4.155197E-1,2.3559775E0,-8.104075E-1,1.7736585E-1,2.2111316E0,3.0472395E1,-1.1099538E1,-8.033948E-1,-5.5398848E-2,5.9469163E-1,1.7820266E0,5.040727E0,2.5450037E1,4.3802464E1,-1.7318776E0,-9.3326235E0,-1.2904785E0,-7.014162E-1,-1.9863877E-1,1.3319865E-1,4.5942757E-1,7.860126E-1,1.4594857E0,2.7912362E0,4.7068076E0,1.1485386E1,2.6026918E1,-1.4743109E-1,4.4975133E0,3.7248406E-1,-1.0707431E0,-7.552049E0,-2.7587507E0,-1.2420335E0,-7.989011E-1,-5.283728E-1,-1.8239957E-1,-2.8762898E-1,1.8530226E-1,7.522956E-2,4.672693E-1,-9.652111E-2,8.325978E-1,6.404009E-1,1.2299649E0,1.9001157E0,2.5598655E0,3.1672359E0,3.9976737E0,5.8583565E0,-7.386092E-1,1.1912056E1,2.2321287E1,2.9820795E1,-6.5293424E-2,4.3178763E-2,-8.22318E-1,3.6064118E-1,-4.6641323E-1,-2.3609939E-1,-1.4576052E-1,-1.15608156E-1,-7.841913E-2,-9.513753E-2,-5.2429944E-2,-8.321099E-2,-1.5942369E-2,-2.7612982E-2,-4.0285155E-2,-2.649799E-2,1.4503251E-2,4.889186E-2,-1.23258665E-1,8.566346E-3,-5.450286E-3,4.7492366E-2,-9.4015285E-2,8.453392E-3,8.1510216E-2,1.3079713E-1,-7.948654E-3,7.2181076E-2,-2.1992896E-2,1.2512116E-1,2.0452209E-1,1.67979E-1,5.026673E-2,2.610873E-1,3.216779E-1,1.01107076E-1,4.0683413E-1,-5.5566467E-2,6.492576E-1,4.5911905E-1,1.2212509E0,-6.8809056E-1,2.349032E0,-1.6896104E0,3.0597892E0,1.4983196E0],"categories":[],"categories_nodes":[],"categories_segments":[],"categories_sizes":[],"default_left":[0,0,0,0,0,0,0,0,0,0,0,0,0,0,0,0,0,0,0,0,0,0,0,0,0,0,0,0,0,0,0,0,0,0,0,0,0,0,0,0,0,0,0,0,0,0,0,0,0,0,0,0,0,0,0,0,0,0,0,0,0,0,0,0,0,0,0,0,0,0,0,0,0,0,0,0,0,0,0,0,0,0,0,0,0,0,0,0,0,0,0,0,0,0,0,0,0,0,0,0,0],"id":10,"left_children":[1,3,5,7,9,11,13,15,17,19,21,23,25,27,29,-1,31,33,35,37,39,41,43,45,47,49,51,53,55,-1,-1,-1,57,59,61,63,65,67,69,71,73,75,77,79,81,83,85,87,89,91,93,-1,95,97,99,-1,-1,-1,-1,-1,-1,-1,-1,-1,-1,-1,-1,-1,-1,-1,-1,-1,-1,-1,-1,-1,-1,-1,-1,-1,-1,-1,-1,-1,-1,-1,-1,-1,-1,-1,-1,-1,-1,-1,-1,-1,-1,-1,-1,-1,-1],"loss_changes":[1.5547169E5,3.1542633E4,9.693667E4,5.825961E3,5.2320215E3,2.876496E4,7.0529297E3,4.427578E2,4.0131953E3,9.341134E2,4.987129E2,6.694625E3,6.660172E3,1.3476016E3,1.3364062E3,0E0,2.9294678E1,9.916172E2,1.1268398E3,2.8347229E1,4.5068542E1,4.9308594E1,5.3638184E1,1.5750469E3,4.2539062E2,2.4002578E3,1.3199238E3,5.8559375E2,1.1603196E0,0E0,0E0,0E0,2.0189832E2,3.2700146E2,2.4926953E2,9.511719E1,2.9360352E1,3.5752075E1,7.8032074E0,9.6029816E1,9.653917E1,4.452881E1,2.4212988E1,4.9226562E1,1.1375281E2,3.1627734E2,1.6728516E2,3.2292578E2,1.9907031E2,5.9432227E2,8.7752344E2,0E0,9.3099023E2,2.6433652E3,1.4285156E1,0E0,0E0,0E0,0E0,0E0,0E0,0E0,0E0,0E0,0E0,0E0,0E0,0E0,0E0,0E0,0E0,0E0,0E0,0E0,0E0,0E0,0E0,0E0,0E0,0E0,0E0,0E0,0E0,0E0,0E0,0E0,0E0,0E0,0E0,0E0,0E0,0E0,0E0,0E0,0E0,0E0,0E0,0E0,0E0,0E0,0E0],"parents":[2147483647,0,0,1,1,2,2,3,3,4,4,5,5,6,6,7,7,8,8,9,9,10,10,11,11,12,12,13,13,14,14,16,16,17,17,18,18,19,19,20,20,21,21,22,22,23,23,24,24,25,25,26,26,27,27,28,28,32,32,33,33,34,34,35,35,36,36,37,37,38,38,39,39,40,40,41,41,42,42,43,43,44,44,45,45,46,46,47,47,48,48,49,49,50,50,52,52,53,53,54,54],"right_children":[2,4,6,8,10,12,14,16,18,20,22,24,26,28,30,-1,32,34,36,38,40,42,44,46,48,50,52,54,56,-1,-1,-1,58,60,62,64,66,68,70,72,74,76,78,80,82,84,86,88,90,92,94,-1,96,98,100,-1,-1,-1,-1,-1,-1,-1,-1,-1,-1,-1,-1,-1,-1,-1,-1,-1,-1,-1,-1,-1,-1,-1,-1,-1,-1,-1,-1,-1,-1,-1,-1,-1,-1,-1,-1,-1,-1,-1,-1,-1,-1,-1,-1,-1,-1],"split_conditions":[6E0,2E0,5.6E1,-1.7E1,4E0,1.4E1,1.06E2,-3.7E1,0E0,3E0,5E0,1E1,2.9E1,2E0,4.09E2,-1.7318776E0,-2.7E1,-3E0,1E0,1.9E1,4.77E2,3.118E3,2.189E3,8E0,1.2E1,1.8E1,9E0,8.2E1,3.6E2,4.4975133E0,3.7248406E-1,-1.0707431E0,6.15E2,-9E0,-1E0,2E1,3.118E3,5E0,2E0,4.44E2,4.79E2,2.3E1,3.128E3,1.415E3,2.259E3,2.3E1,4.77E2,4.8E1,5E0,5E0,4.66E2,-7.386092E-1,4E0,8.1E1,3.118E3,-6.5293424E-2,4.3178763E-2,-8.22318E-1,3.6064118E-1,-4.6641323E-1,-2.3609939E-1,-1.4576052E-1,-1.15608156E-1,-7.841913E-2,-9.513753E-2,-5.2429944E-2,-8.321099E-2,-1.5942369E-2,-2.7612982E-2,-4.0285155E-2,-2.649799E-2,1.4503251E-2,4.889186E-2,-1.23258665E-1,8.566346E-3,-5.450286E-3,4.7492366E-2,-9.4015285E-2,8.453392E-3,8.1510216E-2,1.3079713E-1,-7.948654E-3,7.2181076E-2,-2.1992896E-2,1.2512116E-1,2.0452209E-1,1.67979E-1,5.026673E-2,2.610873E-1,3.216779E-1,1.01107076E-1,4.0683413E-1,-5.5566467E-2,6.492576E-1,4.5911905E-1,1.2212509E0,-6.8809056E-1,2.349032E0,-1.6896104E0,3.0597892E0,1.4983196E0],"split_indices":[5,5,5,5,5,5,5,5,5,5,5,5,5,4,1,0,5,5,5,3,1,1,1,5,5,5,3,5,1,0,0,0,0,5,5,3,1,4,4,1,1,1,1,1,1,1,1,1,4,4,1,0,4,5,1,0,0,0,0,0,0,0,0,0,0,0,0,0,0,0,0,0,0,0,0,0,0,0,0,0,0,0,0,0,0,0,0,0,0,0,0,0,0,0,0,0,0,0,0,0,0],"split_type":[0,0,0,0,0,0,0,0,0,0,0,0,0,0,0,0,0,0,0,0,0,0,0,0,0,0,0,0,0,0,0,0,0,0,0,0,0,0,0,0,0,0,0,0,0,0,0,0,0,0,0,0,0,0,0,0,0,0,0,0,0,0,0,0,0,0,0,0,0,0,0,0,0,0,0,0,0,0,0,0,0,0,0,0,0,0,0,0,0,0,0,0,0,0,0,0,0,0,0,0,0],"sum_hessian":[1.58543E5,1.34725E5,2.3818E4,8.0865E4,5.386E4,2.3697E4,1.21E2,5.4E1,8.0811E4,3.4576E4,1.9284E4,2.0578E4,3.119E3,9E1,3.1E1,1E1,4.4E1,1.3988E4,6.6823E4,1.9651E4,1.4925E4,1.1299E4,7.985E3,1.5596E4,4.982E3,2.967E3,1.52E2,8.8E1,2E0,3E1,1E0,2.2E1,2.2E1,4.45E2,1.3543E4,4.2741E4,2.4082E4,1.6621E4,3.03E3,7.859E3,7.066E3,1.1142E4,1.57E2,6.046E3,1.939E3,1.0257E4,5.339E3,3.089E3,1.893E3,1.839E3,1.128E3,3E0,1.49E2,4.8E1,4E1,1E0,1E0,2.1E1,1E0,7.5E1,3.7E2,3.856E3,9.687E3,3.8986E4,3.755E3,2.3766E4,3.16E2,1.3351E4,3.27E3,4.95E2,2.535E3,6.94E3,9.19E2,5.5E1,7.011E3,1.61E2,1.0981E4,2.7E1,1.3E2,5.834E3,2.12E2,1.97E2,1.742E3,1.48E2,1.0109E4,3.214E3,2.125E3,7.5E1,3.014E3,1.85E3,4.3E1,1.811E3,2.8E1,7.49E2,3.79E2,1.47E2,2E0,4.7E1,1E0,3.7E1,3E0],"tree_param":{"num_deleted":"0","num_feature":"6","num_nodes":"101","size_leaf_vector":"1"}},{"base_weights":[8.2126935E-4,-3.1714928E-1,2.5042431E0,-6.217745E-1,4.4529015E-1,2.3138E0,2.5136097E1,-8.370853E-1,-3.4220183E-1,2.4639067E-1,8.1952375E-1,1.917064E0,4.8141155E0,1.905241E1,3.5187263E1,-1.0048934E1,-8.281396E-1,-4.7554123E-1,-1.7878053E-1,1.1987534E-1,4.1348106E-1,7.0744604E-1,9.6976453E-1,1.5255728E0,2.5851004E0,4.272332E0,7.3333006E0,1.9490465E1,-1.106234E0,2.9107132E0,4.2984413E1,-1.6111249E0,-8.512585E0,-1.1614996E0,-7.1901506E-1,-6.357784E-1,-4.681216E-1,-1.7220673E-1,-3.931246E-1,1.2612553E-1,-3.3405358E-1,4.342065E-1,2.3485927E-1,7.222613E-1,2.8622866E-1,1.1052301E0,7.8984094E-1,1.2963424E0,1.710174E0,2.3039796E0,2.92328E0,4.659526E0,3.4036226E0,6.863689E0,1.241026E1,1.5804413E1,2.474183E0,4.469428E0,3.5385987E-1,-9.78291E-1,-6.816917E-1,-3.350928E-1,-1.1349644E-1,-5.932771E-2,-7.357438E-2,-6.470864E-2,-2.1027764E-2,-4.5108024E-2,-5.473125E-2,-4.9483128E-2,-1.6820697E-2,-8.1204355E-2,-3.5748668E-2,1.3901368E-2,-5.18448E-3,-2.858715E-1,-1.3191613E-2,5.7956525E-3,4.44118E-2,2.521731E-2,-6.074333E-2,3.1928364E-2,7.348807E-2,-4.035732E-2,4.5815956E-2,-1.6159378E-2,1.1382233E-1,-6.853671E-2,8.2976244E-2,-3.43211E-3,1.332855E-1,1.8407623E-1,1.51189E-1,4.5306195E-2,2.3498721E-1,3.1499138E-1,2.5698358E-1,1.2158618E-1,4.8124105E-1,-1.9852291E-1,3.7986347E-1,-6.807706E-2,7.082148E-1,1.3751706E0,1.611244E-1,1.6689713E0,-3.1955894E-2],"categories":[],"categories_nodes":[],"categories_segments":[],"categories_sizes":[],"default_left":[0,0,0,0,0,0,0,0,0,0,0,0,0,0,0,0,0,0,0,0,0,0,0,0,0,0,0,0,0,0,0,0,0,0,0,0,0,0,0,0,0,0,0,0,0,0,0,0,0,0,0,0,0,0,0,0,0,0,0,0,0,0,0,0,0,0,0,0,0,0,0,0,0,0,0,0,0,0,0,0,0,0,0,0,0,0,0,0,0,0,0,0,0,0,0,0,0,0,0,0,0,0,0,0,0,0,0],"id":11,"left_children":[1,3,5,7,9,11,13,15,17,19,21,23,25,27,29,31,33,35,37,39,41,43,45,47,49,51,53,55,-1,-1,57,-1,59,61,63,65,67,69,71,73,75,77,79,81,83,85,87,89,91,93,95,97,99,101,103,105,-1,-1,-1,-1,-1,-1,-1,-1,-1,-1,-1,-1,-1,-1,-1,-1,-1,-1,-1,-1,-1,-1,-1,-1,-1,-1,-1,-1,-1,-1,-1,-1,-1,-1,-1,-1,-1,-1,-1,-1,-1,-1,-1,-1,-1,-1,-1,-1,-1,-1,-1],"loss_changes":[1.2620409E5,3.2673676E4,7.695432E4,6.050336E3,2.9891768E3,1.7568406E4,8.440672E3,4.671039E3,9.529004E2,5.5433374E2,2.3399512E2,3.9961602E3,3.2798008E3,1.4688398E3,1.3562734E3,3.751128E2,2.062875E3,2.8334473E1,2.7623047E1,4.2389282E1,4.173059E1,4.9629395E1,1.4419727E2,4.0596484E2,5.3041016E2,6.5652344E2,9.352578E2,1.4285078E3,0E0,0E0,1.3256797E3,0E0,3.239673E1,8.0891406E2,8.946875E1,4.9786377E0,3.0820312E1,2.4523926E1,8.428474E0,3.3779785E1,1.03219604E2,3.772876E1,1.7317726E1,3.8993652E1,3.2562233E1,1.42E2,1.5133374E2,2.0930518E2,1.3548926E2,2.614082E2,1.9704883E2,7.2069336E2,1.3273115E3,6.5419336E2,4.848628E2,8.3325586E2,0E0,0E0,0E0,0E0,0E0,0E0,0E0,0E0,0E0,0E0,0E0,0E0,0E0,0E0,0E0,0E0,0E0,0E0,0E0,0E0,0E0,0E0,0E0,0E0,0E0,0E0,0E0,0E0,0E0,0E0,0E0,0E0,0E0,0E0,0E0,0E0,0E0,0E0,0E0,0E0,0E0,0E0,0E0,0E0,0E0,0E0,0E0,0E0,0E0,0E0,0E0],"parents":[2147483647,0,0,1,1,2,2,3,3,4,4,5,5,6,6,7,7,8,8,9,9,10,10,11,11,12,12,13,13,14,14,15,15,16,16,17,17,18,18,19,19,20,20,21,21,22,22,23,23,24,24,25,25,26,26,27,27,30,30,32,32,33,33,34,34,35,35,36,36,37,37,38,38,39,39,40,40,41,41,42,42,43,43,44,44,45,45,46,46,47,47,48,48,49,49,50,50,51,51,52,52,53,53,54,54,55,55],"right_children":[2,4,6,8,10,12,14,16,18,20,22,24,26,28,30,32,34,36,38,40,42,44,46,48,50,52,54,56,-1,-1,58,-1,60,62,64,66,68,70,72,74,76,78,80,82,84,86,88,90,92,94,96,98,100,102,104,106,-1,-1,-1,-1,-1,-1,-1,-1,-1,-1,-1,-1,-1,-1,-1,-1,-1,-1,-1,-1,-1,-1,-1,-1,-1,-1,-1,-1,-1,-1,-1,-1,-1,-1,-1,-1,-1,-1,-1,-1,-1,-1,-1,-1,-1,-1,-1,-1,-1,-1,-1],"split_conditions":[7E0,3E0,4.7E1,1E0,5E0,1.5E1,8.4E1,-1.7E1,2E0,4E0,6E0,1E1,2.3E1,3.128E3,1.2E2,-3.8E1,0E0,7E0,3.003E3,3.118E3,1.9E1,3.003E3,4.77E2,8E0,1.2E1,4.88E2,3.6E1,7.1E1,-1.106234E0,2.9107132E0,4.09E2,-1.6111249E0,-2.7E1,-5E0,2E0,3.106E3,1.9E1,2.3E1,4.84E2,2E1,2E0,4.8E1,3.047E3,4.8E1,5.66E2,2.3E1,4.94E2,4.8E1,4.77E2,4.8E1,4.72E2,4.8E1,4.94E2,7.4E1,2E0,2E0,2.474183E0,4.469428E0,3.5385987E-1,-9.78291E-1,-6.816917E-1,-3.350928E-1,-1.1349644E-1,-5.932771E-2,-7.357438E-2,-6.470864E-2,-2.1027764E-2,-4.5108024E-2,-5.473125E-2,-4.9483128E-2,-1.6820697E-2,-8.1204355E-2,-3.5748668E-2,1.3901368E-2,-5.18448E-3,-2.858715E-1,-1.3191613E-2,5.7956525E-3,4.44118E-2,2.521731E-2,-6.074333E-2,3.1928364E-2,7.348807E-2,-4.035732E-2,4.5815956E-2,-1.6159378E-2,1.1382233E-1,-6.853671E-2,8.2976244E-2,-3.43211E-3,1.332855E-1,1.8407623E-1,1.51189E-1,4.5306195E-2,2.3498721E-1,3.1499138E-1,2.5698358E-1,1.2158618E-1,4.8124105E-1,-1.9852291E-1,3.7986347E-1,-6.807706E-2,7.082148E-1,1.3751706E0,1.611244E-1,1.6689713E0,-3.1955894E-2],"split_indices":[5,5,5,5,5,5,5,5,5,5,5,5,5,1,5,5,5,3,1,1,3,1,1,5,5,1,5,5,0,0,1,0,5,5,4,1,3,1,0,3,4,1,1,1,0,1,1,1,1,1,1,1,1,1,4,4,0,0,0,0,0,0,0,0,0,0,0,0,0,0,0,0,0,0,0,0,0,0,0,0,0,0,0,0,0,0,0,0,0,0,0,0,0,0,0,0,0,0,0,0,0,0,0,0,0,0,0],"split_type":[0,0,0,0,0,0,0,0,0,0,0,0,0,0,0,0,0,0,0,0,0,0,0,0,0,0,0,0,0,0,0,0,0,0,0,0,0,0,0,0,0,0,0,0,0,0,0,0,0,0,0,0,0,0,0,0,0,0,0,0,0,0,0,0,0,0,0,0,0,0,0,0,0,0,0,0,0,0,0,0,0,0,0,0,0,0,0,0,0,0,0,0,0,0,0,0,0,0,0,0,0,0,0,0,0,0,0],"sum_hessian":[1.58543E5,1.40676E5,1.7867E4,1.00516E5,4.016E4,1.7719E4,1.48E2,5.6783E4,4.3733E4,2.6224E4,1.3936E4,1.5294E4,2.425E3,9.4E1,5.4E1,5.4E1,5.6729E4,2.4082E4,1.9651E4,1.4925E4,1.1299E4,7.985E3,5.951E3,9.645E3,5.649E3,1.998E3,4.27E2,9.3E1,1E0,3.3E1,2.1E1,9E0,4.5E1,1.3988E4,4.2741E4,1.062E3,2.302E4,1.9068E4,5.83E2,1.4723E4,2.02E2,1.0123E4,1.176E3,7.713E3,2.72E2,3.392E3,2.559E3,4.306E3,5.339E3,3.089E3,2.56E3,1.379E3,6.19E2,3.93E2,3.4E1,5.7E1,3.6E1,2E1,1E0,2.3E1,2.2E1,1.66E2,1.3822E4,5.023E3,3.7718E4,1.034E3,2.8E1,1.8949E4,4.071E3,2.32E2,1.8836E4,4.4E1,5.39E2,1.3729E4,9.94E2,1.4E1,1.88E2,2.6E2,9.863E3,1.153E3,2.3E1,2.35E2,7.478E3,5.4E1,2.18E2,8.6E1,3.306E3,6.7E1,2.492E3,1.15E2,4.191E3,3.214E3,2.125E3,7.5E1,3.014E3,1.555E3,1.005E3,5.9E1,1.32E3,4.2E1,5.77E2,1.1E1,3.82E2,3E1,4E0,5.4E1,3E0],"tree_param":{"num_deleted":"0","num_feature":"6","num_nodes":"107","size_leaf_vector":"1"}},{"base_weights":[8.06878E-4,-2.8546476E-1,2.2546592E0,-5.5963904E-1,4.0075973E-1,2.0989883E0,2.4881203E1,-7.534446E-1,-3.0799004E-1,2.2174099E-1,7.375873E-1,1.7254437E0,4.4272656E0,2.128024E1,3.8001736E1,-7.6668096E0,-7.435558E-1,-4.2799476E-1,-1.6091183E-1,1.07868254E-1,3.7213418E-1,6.367152E-1,8.7280685E-1,1.3730637E0,2.3267412E0,4.096199E0,9.377313E0,1.5805005E1,2.3816818E1,3.9305005E0,3.3616686E-1,-1.2356659E1,-5.9265857E0,-1.0387113E0,-6.4711666E-1,-4.0941045E-1,-4.917143E-1,-1.264935E-1,-1.9958715E-1,1.23849206E-1,-6.481129E-2,3.8233954E-1,2.9586716E-2,7.0430267E-1,5.516309E-1,9.1768545E-1,3.9109358E-1,1.1667383E0,1.5392193E0,2.0736723E0,2.6311755E0,3.627059E0,5.209212E0,-7.226524E-1,9.757566E0,1.6803951E0,-1.18755616E-1,2.5260484E0,1.609905E1,-1.5016469E0,-9.5647395E-1,-1.9520195E-2,-6.434831E-1,-1.7232096E-1,-9.7427726E-2,-6.2324036E-2,-7.3107496E-2,-3.9077815E-2,-4.9305286E-2,-6.267414E-2,-4.4585228E-2,-1.5220523E-2,9.532472E-3,-3.62026E-2,-1.698196E-2,1.7475525E-2,7.168026E-3,2.1063504E-4,-8.360414E-2,-5.8442787E-3,3.8890857E-2,-5.7792824E-2,1.8775312E-2,5.7541788E-2,7.9445966E-2,2.5354147E-2,6.10437E-2,-1.4561999E-2,9.347795E-2,-6.838026E-2,5.9016474E-2,-3.0918415E-3,1.1996012E-1,1.5553583E-1,4.2642825E-3,-3.665094E-2,2.1033657E-1,1.1185002E-1,2.6832852E-1,3.683676E-1,-1.34351E-1,5.922889E-1,3.669571E-1,1.0024174E0,-6.647598E-1,-6.0430963E-2,4.261762E-2,2.1460202E0,3.2291704E-1],"categories":[],"categories_nodes":[],"categories_segments":[],"categories_sizes":[],"default_left":[0,0,0,0,0,0,0,0,0,0,0,0,0,0,0,0,0,0,0,0,0,0,0,0,0,0,0,0,0,0,0,0,0,0,0,0,0,0,0,0,0,0,0,0,0,0,0,0,0,0,0,0,0,0,0,0,0,0,0,0,0,0,0,0,0,0,0,0,0,0,0,0,0,0,0,0,0,0,0,0,0,0,0,0,0,0,0,0,0,0,0,0,0,0,0,0,0,0,0,0,0,0,0,0,0,0,0,0,0],"id":12,"left_children":[1,3,5,7,9,11,13,15,17,19,21,23,25,27,29,31,33,35,37,39,41,43,45,47,49,51,53,55,57,-1,-1,59,61,63,65,67,69,71,73,75,77,79,81,83,85,87,89,91,93,95,97,99,101,-1,103,-1,105,-1,107,-1,-1,-1,-1,-1,-1,-1,-1,-1,-1,-1,-1,-1,-1,-1,-1,-1,-1,-1,-1,-1,-1,-1,-1,-1,-1,-1,-1,-1,-1,-1,-1,-1,-1,-1,-1,-1,-1,-1,-1,-1,-1,-1,-1,-1,-1,-1,-1,-1,-1],"loss_changes":[1.0229545E5,2.6467914E4,6.288417E4,4.90208E3,2.421482E3,1.5427195E4,4.9553906E3,3.876338E3,7.7184033E2,4.4908093E2,1.8954346E2,3.237586E3,3.9815547E3,9.846328E2,9.965E2,5.8783984E2,1.6133828E3,2.8316895E1,2.6134247E1,4.1197556E1,3.9491333E1,4.5536133E1,1.2831494E2,3.2888867E2,4.2983594E2,1.1825938E3,1.0365049E3,5.4283203E2,3.1755078E2,0E0,0E0,1.2316895E1,1.7643335E2,6.141592E2,8.522461E1,2.8874023E1,3.3365112E1,5.9334824E1,4.467572E1,3.6269836E1,6.528701E1,3.1795288E1,3.162552E1,5.121631E1,6.1899536E1,9.9086914E1,1.09319786E2,1.695542E2,1.2891309E2,2.2466309E2,1.9886914E2,4.614121E2,7.254531E2,0E0,7.2269727E2,0E0,1.0513238E0,0E0,8.27667E2,0E0,0E0,0E0,0E0,0E0,0E0,0E0,0E0,0E0,0E0,0E0,0E0,0E0,0E0,0E0,0E0,0E0,0E0,0E0,0E0,0E0,0E0,0E0,0E0,0E0,0E0,0E0,0E0,0E0,0E0,0E0,0E0,0E0,0E0,0E0,0E0,0E0,0E0,0E0,0E0,0E0,0E0,0E0,0E0,0E0,0E0,0E0,0E0,0E0,0E0],"parents":[2147483647,0,0,1,1,2,2,3,3,4,4,5,5,6,6,7,7,8,8,9,9,10,10,11,11,12,12,13,13,14,14,15,15,16,16,17,17,18,18,19,19,20,20,21,21,22,22,23,23,24,24,25,25,26,26,27,27,28,28,31,31,32,32,33,33,34,34,35,35,36,36,37,37,38,38,39,39,40,40,41,41,42,42,43,43,44,44,45,45,46,46,47,47,48,48,49,49,50,50,51,51,52,52,54,54,56,56,58,58],"right_children":[2,4,6,8,10,12,14,16,18,20,22,24,26,28,30,32,34,36,38,40,42,44,46,48,50,52,54,56,58,-1,-1,60,62,64,66,68,70,72,74,76,78,80,82,84,86,88,90,92,94,96,98,100,102,-1,104,-1,106,-1,108,-1,-1,-1,-1,-1,-1,-1,-1,-1,-1,-1,-1,-1,-1,-1,-1,-1,-1,-1,-1,-1,-1,-1,-1,-1,-1,-1,-1,-1,-1,-1,-1,-1,-1,-1,-1,-1,-1,-1,-1,-1,-1,-1,-1,-1,-1,-1,-1,-1,-1],"split_conditions":[7E0,3E0,5.6E1,1E0,5E0,1.5E1,1.17E2,-1.3E1,2E0,4E0,6E0,1E1,2.9E1,7.3E1,4.09E2,-3.1E1,0E0,5E0,4.72E2,6.15E2,3.003E3,4.77E2,2.824E3,8E0,1.2E1,2E1,9E0,2E0,3.118E3,3.9305005E0,3.3616686E-1,-4E1,4.04E2,-2E0,5E0,1.9E1,9E0,4.4E2,1.304E3,4.77E2,3.118E3,2.3E1,5.66E2,2.51E2,1.311E3,2.3E1,2.907E3,4.8E1,3.118E3,1.3E1,5.3E1,5E0,4.88E2,-7.226524E-1,4E0,1.6803951E0,3.6E2,2.5260484E0,8.1E1,-1.5016469E0,-9.5647395E-1,-1.9520195E-2,-6.434831E-1,-1.7232096E-1,-9.7427726E-2,-6.2324036E-2,-7.3107496E-2,-3.9077815E-2,-4.9305286E-2,-6.267414E-2,-4.4585228E-2,-1.5220523E-2,9.532472E-3,-3.62026E-2,-1.698196E-2,1.7475525E-2,7.168026E-3,2.1063504E-4,-8.360414E-2,-5.8442787E-3,3.8890857E-2,-5.7792824E-2,1.8775312E-2,5.7541788E-2,7.9445966E-2,2.5354147E-2,6.10437E-2,-1.4561999E-2,9.347795E-2,-6.838026E-2,5.9016474E-2,-3.0918415E-3,1.1996012E-1,1.5553583E-1,4.2642825E-3,-3.665094E-2,2.1033657E-1,1.1185002E-1,2.6832852E-1,3.683676E-1,-1.34351E-1,5.922889E-1,3.669571E-1,1.0024174E0,-6.647598E-1,-6.0430963E-2,4.261762E-2,2.1460202E0,3.2291704E-1],"split_indices":[5,5,5,5,5,5,5,5,5,5,5,5,5,5,1,5,5,4,1,0,1,1,1,5,5,5,3,4,1,0,0,5,0,5,4,3,3,1,1,1,1,1,0,1,1,1,1,1,1,1,1,4,1,0,4,0,1,0,5,0,0,0,0,0,0,0,0,0,0,0,0,0,0,0,0,0,0,0,0,0,0,0,0,0,0,0,0,0,0,0,0,0,0,0,0,0,0,0,0,0,0,0,0,0,0,0,0,0,0],"split_type":[0,0,0,0,0,0,0,0,0,0,0,0,0,0,0,0,0,0,0,0,0,0,0,0,0,0,0,0,0,0,0,0,0,0,0,0,0,0,0,0,0,0,0,0,0,0,0,0,0,0,0,0,0,0,0,0,0,0,0,0,0,0,0,0,0,0,0,0,0,0,0,0,0,0,0,0,0,0,0,0,0,0,0,0,0,0,0,0,0,0,0,0,0,0,0,0,0,0,0,0,0,0,0,0,0,0,0,0,0],"sum_hessian":[1.58543E5,1.40676E5,1.7867E4,1.00516E5,4.016E4,1.7746E4,1.21E2,5.6783E4,4.3733E4,2.6224E4,1.3936E4,1.5294E4,2.452E3,9.7E1,2.4E1,8E1,5.6703E4,2.4082E4,1.9651E4,1.4925E4,1.1299E4,7.985E3,5.951E3,9.645E3,5.649E3,2.3E3,1.52E2,3.3E1,6.4E1,2.3E1,1E0,2E1,6E1,1.3962E4,4.2741E4,1.865E4,5.432E3,1.04E4,9.251E3,1.3661E4,1.264E3,1.0972E4,3.27E2,4.446E3,3.539E3,5.443E3,5.08E2,4.306E3,5.339E3,3.089E3,2.56E3,1.621E3,6.79E2,3E0,1.49E2,3.1E1,2E0,5.2E1,1.2E1,8E0,1.2E1,5E0,5.5E1,1.199E3,1.2763E4,3.3284E4,9.457E3,1.5257E4,3.393E3,1.374E3,4.058E3,9.32E3,1.08E3,1.431E3,7.82E3,6.913E3,6.748E3,1.164E3,1E2,1.61E2,1.0811E4,6.7E1,2.6E2,1.833E3,2.613E3,5.84E2,2.955E3,8.6E1,5.357E3,7.9E1,4.29E2,1.15E2,4.191E3,5.282E3,5.7E1,3.7E1,3.052E3,8.6E1,2.474E3,1.603E3,1.8E1,4.62E2,2.17E2,1.47E2,2E0,1E0,1E0,8E0,4E0],"tree_param":{"num_deleted":"0","num_feature":"6","num_nodes":"109","size_leaf_vector":"1"}},{"base_weights":[7.830249E-4,-2.5694352E-1,2.0298963E0,-5.037127E-1,3.6068946E-1,1.8739686E0,2.056017E1,-6.781622E-1,-2.7719688E-1,1.9956441E-1,6.6384965E-1,1.5529536E0,3.8970728E0,1.5537625E1,2.8861649E1,-5.990544E0,-6.6746384E-1,-3.8520345E-1,-1.4482363E-1,9.707745E-2,3.3492023E-1,5.730716E-1,7.85538E-1,1.2357861E0,2.094165E0,3.5011513E0,6.2432837E0,1.59299555E1,-1.0670681E0,2.4381797E0,3.671569E1,-1.0208476E1,-4.431385E0,-9.2839575E-1,-5.824082E-1,-3.2933772E-1,-4.0588477E-1,-1.3009953E-1,-2.2552282E-1,-1.8936469E-1,1.0491742E-1,3.8790625E-1,2.751607E-1,5.818132E-1,-2.501744E-2,9.0459687E-1,6.287248E-1,1.0500914E0,1.3853275E0,1.8663613E0,2.3682063E0,3.7995834E0,2.4577742E0,8.201148E0,5.271081E0,1.2596633E1,1.9590485E0,3.8499722E0,3.1935856E-1,-1.3681673E0,-8.323602E-1,-1.7893521E-2,-4.6949264E-1,-1.491301E-1,-8.768572E-2,-5.6353785E-2,-6.8614095E-2,-4.1032337E-2,-2.9551178E-2,-4.011697E-2,-6.6629075E-2,-5.955587E-3,-1.552091E-2,-3.291849E-2,-2.051593E-2,-1.2796178E-1,1.5621344E-3,1.5669012E-2,5.022879E-3,2.543821E-2,4.7483858E-2,-1.14265464E-1,2.883012E-2,-1.5198461E-2,5.8746934E-2,4.453664E-2,-6.332589E-2,6.899282E-2,1.0568841E-1,-4.9205627E-2,6.644383E-2,1.1621975E-1,7.346328E-2,1.501256E-1,1.20936535E-1,3.2102685E-2,1.9046961E-1,2.235707E-1,2.945381E-1,7.116824E-2,3.916287E-1,-2.603267E-1,3.4845558E-1,6.066411E-1,1.171626E0,6.64838E-1,2.502243E-1,1.3378056E0,-1.2494871E-2],"categories":[],"categories_nodes":[],"categories_segments":[],"categories_sizes":[],"default_left":[0,0,0,0,0,0,0,0,0,0,0,0,0,0,0,0,0,0,0,0,0,0,0,0,0,0,0,0,0,0,0,0,0,0,0,0,0,0,0,0,0,0,0,0,0,0,0,0,0,0,0,0,0,0,0,0,0,0,0,0,0,0,0,0,0,0,0,0,0,0,0,0,0,0,0,0,0,0,0,0,0,0,0,0,0,0,0,0,0,0,0,0,0,0,0,0,0,0,0,0,0,0,0,0,0,0,0,0,0],"id":13,"left_children":[1,3,5,7,9,11,13,15,17,19,21,23,25,27,29,31,33,35,37,39,41,43,45,47,49,51,53,55,-1,-1,57,59,61,63,65,67,69,71,73,75,77,79,81,83,85,87,89,91,93,95,97,99,101,103,105,107,-1,-1,-1,-1,-1,-1,-1,-1,-1,-1,-1,-1,-1,-1,-1,-1,-1,-1,-1,-1,-1,-1,-1,-1,-1,-1,-1,-1,-1,-1,-1,-1,-1,-1,-1,-1,-1,-1,-1,-1,-1,-1,-1,-1,-1,-1,-1,-1,-1,-1,-1,-1,-1],"loss_changes":[8.291212E4,2.1441156E4,5.1588992E4,3.9717988E3,1.9615996E3,1.1502145E4,5.764051E3,3.2232656E3,6.2521704E2,3.6376624E2,1.5350635E2,2.622871E3,2.2316875E3,1.1468008E3,1.0399727E3,7.044751E2,1.2572012E3,2.7691162E1,2.3321625E1,3.353914E1,3.5673706E1,4.1767334E1,1.1055542E2,2.6640625E2,3.4829883E2,6.377051E2,6.2107227E2,9.001875E2,0E0,0E0,9.535293E2,8.251538E1,9.441931E1,4.028203E2,8.328027E1,1.7717834E1,2.1308594E1,2.9433655E1,6.3306885E0,8.896768E1,4.1129242E1,6.937372E1,9.9333405E1,3.275757E1,3.3470436E1,1.0980005E2,1.0327637E2,1.514624E2,1.07115234E2,1.8243945E2,1.892666E2,5.7884766E2,2.4254827E3,7.843618E2,8.833545E2,5.186006E2,0E0,0E0,0E0,0E0,0E0,0E0,0E0,0E0,0E0,0E0,0E0,0E0,0E0,0E0,0E0,0E0,0E0,0E0,0E0,0E0,0E0,0E0,0E0,0E0,0E0,0E0,0E0,0E0,0E0,0E0,0E0,0E0,0E0,0E0,0E0,0E0,0E0,0E0,0E0,0E0,0E0,0E0,0E0,0E0,0E0,0E0,0E0,0E0,0E0,0E0,0E0,0E0,0E0],"parents":[2147483647,0,0,1,1,2,2,3,3,4,4,5,5,6,6,7,7,8,8,9,9,10,10,11,11,12,12,13,13,14,14,15,15,16,16,17,17,18,18,19,19,20,20,21,21,22,22,23,23,24,24,25,25,26,26,27,27,30,30,31,31,32,32,33,33,34,34,35,35,36,36,37,37,38,38,39,39,40,40,41,41,42,42,43,43,44,44,45,45,46,46,47,47,48,48,49,49,50,50,51,51,52,52,53,53,54,54,55,55],"right_children":[2,4,6,8,10,12,14,16,18,20,22,24,26,28,30,32,34,36,38,40,42,44,46,48,50,52,54,56,-1,-1,58,60,62,64,66,68,70,72,74,76,78,80,82,84,86,88,90,92,94,96,98,100,102,104,106,108,-1,-1,-1,-1,-1,-1,-1,-1,-1,-1,-1,-1,-1,-1,-1,-1,-1,-1,-1,-1,-1,-1,-1,-1,-1,-1,-1,-1,-1,-1,-1,-1,-1,-1,-1,-1,-1,-1,-1,-1,-1,-1,-1,-1,-1,-1,-1,-1,-1,-1,-1,-1,-1],"split_conditions":[7E0,3E0,4.7E1,1E0,5E0,1.5E1,8.4E1,-1E1,2E0,4E0,6E0,1E1,2.4E1,3.128E3,1.25E2,-2.8E1,0E0,4.06E2,1.9E1,4.8E1,4.77E2,3.118E3,4.72E2,8E0,1.2E1,1.443E3,2E0,6.7E1,-1.0670681E0,2.4381797E0,4.09E2,-4E1,4.04E2,-2E0,1.9E1,1.66E2,3.118E3,4.06E2,2E0,4.04E2,4.77E2,2.51E2,4.79E2,1.3E1,5.92E2,2.51E2,4.94E2,2.189E3,4.77E2,4.8E1,2.389E3,4.8E1,2.273E3,3.2E1,4.66E2,2E0,1.9590485E0,3.8499722E0,3.1935856E-1,-1.3681673E0,-8.323602E-1,-1.7893521E-2,-4.6949264E-1,-1.491301E-1,-8.768572E-2,-5.6353785E-2,-6.8614095E-2,-4.1032337E-2,-2.9551178E-2,-4.011697E-2,-6.6629075E-2,-5.955587E-3,-1.552091E-2,-3.291849E-2,-2.051593E-2,-1.2796178E-1,1.5621344E-3,1.5669012E-2,5.022879E-3,2.543821E-2,4.7483858E-2,-1.14265464E-1,2.883012E-2,-1.5198461E-2,5.8746934E-2,4.453664E-2,-6.332589E-2,6.899282E-2,1.0568841E-1,-4.9205627E-2,6.644383E-2,1.1621975E-1,7.346328E-2,1.501256E-1,1.20936535E-1,3.2102685E-2,1.9046961E-1,2.235707E-1,2.945381E-1,7.116824E-2,3.916287E-1,-2.603267E-1,3.4845558E-1,6.066411E-1,1.171626E0,6.64838E-1,2.502243E-1,1.3378056E0,-1.2494871E-2],"split_indices":[5,5,5,5,5,5,5,5,5,5,5,5,5,1,5,5,5,0,3,1,1,1,1,5,5,1,4,5,0,0,1,5,0,5,3,1,1,0,4,0,1,1,1,1,0,1,1,1,1,1,1,1,1,5,1,4,0,0,0,0,0,0,0,0,0,0,0,0,0,0,0,0,0,0,0,0,0,0,0,0,0,0,0,0,0,0,0,0,0,0,0,0,0,0,0,0,0,0,0,0,0,0,0,0,0,0,0,0,0],"split_type":[0,0,0,0,0,0,0,0,0,0,0,0,0,0,0,0,0,0,0,0,0,0,0,0,0,0,0,0,0,0,0,0,0,0,0,0,0,0,0,0,0,0,0,0,0,0,0,0,0,0,0,0,0,0,0,0,0,0,0,0,0,0,0,0,0,0,0,0,0,0,0,0,0,0,0,0,0,0,0,0,0,0,0,0,0,0,0,0,0,0,0,0,0,0,0,0,0,0,0,0,0,0,0,0,0,0,0,0,0],"sum_hessian":[1.58543E5,1.40676E5,1.7867E4,1.00516E5,4.016E4,1.7719E4,1.48E2,5.6783E4,4.3733E4,2.6224E4,1.3936E4,1.5294E4,2.425E3,9.4E1,5.4E1,1.13E2,5.667E4,2.4082E4,1.9651E4,1.4925E4,1.1299E4,7.985E3,5.951E3,9.645E3,5.649E3,2.077E3,3.48E2,9.3E1,1E0,3.7E1,1.7E1,2.9E1,8.4E1,1.3929E4,4.2741E4,6.511E3,1.7571E4,1.6621E4,3.03E3,3.97E2,1.4528E4,5.986E3,5.313E3,7.87E3,1.15E2,3.38E3,2.571E3,4.306E3,5.339E3,3.089E3,2.56E3,1.613E3,4.64E2,1.13E2,2.35E2,5.1E1,4.2E1,1.6E1,1E0,8E0,2.1E1,5E0,7.9E1,1.166E3,1.2763E4,3.6168E4,6.573E3,1.915E3,4.596E3,1.7261E4,3.1E2,4.364E3,1.2257E4,4.95E2,2.535E3,6.2E1,3.35E2,7.462E3,7.066E3,2.362E3,3.624E3,4.8E1,5.265E3,6E1,7.81E3,6.5E1,5E1,1.405E3,1.975E3,7.9E1,2.492E3,3.175E3,1.131E3,3.214E3,2.125E3,7.5E1,3.014E3,2.086E3,4.74E2,5.9E1,1.554E3,7.8E1,3.86E2,7.2E1,4.1E1,1.56E2,7.9E1,4.8E1,3E0],"tree_param":{"num_deleted":"0","num_feature":"6","num_nodes":"109","size_leaf_vector":"1"}},{"base_weights":[7.682338E-4,-2.3127194E-1,1.8276495E0,-4.533743E-1,3.2462296E-1,1.6882232E0,1.8740143E1,-6.103997E-1,-2.4948296E-1,1.7960347E-1,5.9748024E-1,1.3977368E0,3.516672E0,1.4139149E1,2.609562E1,-7.5679536E0,-6.036436E-1,-3.4669042E-1,-1.3034512E-1,8.736263E-2,3.014271E-1,5.157677E-1,7.070164E-1,1.1122553E0,1.8848795E0,3.1038291E0,5.4232984E0,1.4517319E1,-1.0137147E0,2.214363E0,3.362691E1,-1.1924833E0,-6.334762E0,-8.4642327E-1,-5.241703E-1,-3.300028E-1,-4.0391368E-1,-1.2648165E-1,-4.308927E-1,1.0203881E-1,-7.120912E-2,3.200981E-1,1.4057182E-1,5.7285416E-1,4.2958188E-1,7.2923523E-1,-8.656722E-2,1.1277044E0,-3.889543E-1,2.0867083E0,1.5778356E0,3.4092767E0,2.4189556E0,1.0512552E0,5.8312025E0,1.1846166E1,1.8269188E1,3.5349355E0,3.033906E-1,-6.797211E-1,-4.036468E-1,-1.9078004E-1,-8.114099E-2,-4.126494E-2,-5.3901043E-2,-3.1305626E-2,-4.0609017E-2,-5.2530415E-2,-3.6269274E-2,-1.1013345E-2,-1.9496769E-2,-1.6888367E-2,-5.680945E-2,1.2071353E-2,-1.7486137E-3,-1.1585824E-3,-7.5823806E-2,3.4163635E-2,1.793818E-2,1.5541284E-2,-5.7889093E-2,4.6161182E-2,6.414005E-2,-3.8463213E-2,4.9306422E-2,-1.9942483E-2,7.432718E-2,-2.1811382E-1,5.4581583E-2,9.621432E-2,1.261181E-1,9.633455E-2,-1.8458425E-1,1.446092E-1,2.4612191E-1,-1.4457375E-1,1.7018598E-1,6.4170055E-2,3.5323998E-1,-2.4982432E-1,2.780583E-1,2.725423E-1,-5.567551E-1,5.3125393E-1,9.547453E-1,1.2525426E0,-1.1557757E-2,1.9932498E0,1.2676891E0],"categories":[],"categories_nodes":[],"categories_segments":[],"categories_sizes":[],"default_left":[0,0,0,0,0,0,0,0,0,0,0,0,0,0,0,0,0,0,0,0,0,0,0,0,0,0,0,0,0,0,0,0,0,0,0,0,0,0,0,0,0,0,0,0,0,0,0,0,0,0,0,0,0,0,0,0,0,0,0,0,0,0,0,0,0,0,0,0,0,0,0,0,0,0,0,0,0,0,0,0,0,0,0,0,0,0,0,0,0,0,0,0,0,0,0,0,0,0,0,0,0,0,0,0,0,0,0,0,0],"id":14,"left_children":[1,3,5,7,9,11,13,15,17,19,21,23,25,27,29,31,33,35,37,39,41,43,45,47,49,51,53,55,-1,-1,57,-1,59,61,63,65,67,69,71,73,75,77,79,81,83,85,87,89,91,93,95,97,99,101,103,105,107,-1,-1,-1,-1,-1,-1,-1,-1,-1,-1,-1,-1,-1,-1,-1,-1,-1,-1,-1,-1,-1,-1,-1,-1,-1,-1,-1,-1,-1,-1,-1,-1,-1,-1,-1,-1,-1,-1,-1,-1,-1,-1,-1,-1,-1,-1,-1,-1,-1,-1,-1,-1],"loss_changes":[6.720878E4,1.7368912E4,4.2101918E4,3.2180137E3,1.5890488E3,9.408473E3,4.572039E3,2.6646309E3,5.064419E2,2.94667E2,1.2437793E2,2.1249824E3,1.895123E3,9.917754E2,8.92375E2,2.1996655E2,1.0941348E3,2.2864258E1,2.2764526E1,3.474347E1,3.38927E1,3.904541E1,1.0501196E2,2.2415234E2,3.4683984E2,4.099297E2,7.625049E2,6.9556445E2,0E0,0E0,7.885625E2,0E0,2.0391235E1,5.183154E2,7.051465E1,2.3921875E1,2.6995361E1,2.1703705E1,8.855137E0,3.0496994E1,5.180932E1,3.0622437E1,1.2657455E1,3.6312744E1,1.6486835E2,7.562158E1,2.1709561E2,2.097832E2,1.96823E2,8.136006E2,8.4432666E2,4.679707E2,1.109426E3,4.362516E2,7.08708E2,4.5645557E2,8.217969E1,0E0,0E0,0E0,0E0,0E0,0E0,0E0,0E0,0E0,0E0,0E0,0E0,0E0,0E0,0E0,0E0,0E0,0E0,0E0,0E0,0E0,0E0,0E0,0E0,0E0,0E0,0E0,0E0,0E0,0E0,0E0,0E0,0E0,0E0,0E0,0E0,0E0,0E0,0E0,0E0,0E0,0E0,0E0,0E0,0E0,0E0,0E0,0E0,0E0,0E0,0E0,0E0],"parents":[2147483647,0,0,1,1,2,2,3,3,4,4,5,5,6,6,7,7,8,8,9,9,10,10,11,11,12,12,13,13,14,14,15,15,16,16,17,17,18,18,19,19,20,20,21,21,22,22,23,23,24,24,25,25,26,26,27,27,30,30,32,32,33,33,34,34,35,35,36,36,37,37,38,38,39,39,40,40,41,41,42,42,43,43,44,44,45,45,46,46,47,47,48,48,49,49,50,50,51,51,52,52,53,53,54,54,55,55,56,56],"right_children":[2,4,6,8,10,12,14,16,18,20,22,24,26,28,30,32,34,36,38,40,42,44,46,48,50,52,54,56,-1,-1,58,-1,60,62,64,66,68,70,72,74,76,78,80,82,84,86,88,90,92,94,96,98,100,102,104,106,108,-1,-1,-1,-1,-1,-1,-1,-1,-1,-1,-1,-1,-1,-1,-1,-1,-1,-1,-1,-1,-1,-1,-1,-1,-1,-1,-1,-1,-1,-1,-1,-1,-1,-1,-1,-1,-1,-1,-1,-1,-1,-1,-1,-1,-1,-1,-1,-1,-1,-1,-1,-1],"split_conditions":[7E0,3E0,4.8E1,1E0,5E0,1.5E1,8.4E1,-1.7E1,2E0,4E0,6E0,1E1,2.3E1,3.128E3,1.26E2,-3.7E1,0E0,5E0,3.118E3,6.15E2,1.9E1,1.285E3,3.003E3,3.118E3,4.77E2,4.88E2,9E0,7.2E1,-1.0137147E0,2.214363E0,4.09E2,-1.1924833E0,-2E1,-3E0,2E0,1.9E1,9E0,5E0,1E0,1.9E1,3.118E3,5E0,3.047E3,2.51E2,1.311E3,2.3E1,5.66E2,8E0,1E0,2.56E2,4.94E2,4.8E1,4.94E2,2.7E1,3.4E1,2E0,3.118E3,3.5349355E0,3.033906E-1,-6.797211E-1,-4.036468E-1,-1.9078004E-1,-8.114099E-2,-4.126494E-2,-5.3901043E-2,-3.1305626E-2,-4.0609017E-2,-5.2530415E-2,-3.6269274E-2,-1.1013345E-2,-1.9496769E-2,-1.6888367E-2,-5.680945E-2,1.2071353E-2,-1.7486137E-3,-1.1585824E-3,-7.5823806E-2,3.4163635E-2,1.793818E-2,1.5541284E-2,-5.7889093E-2,4.6161182E-2,6.414005E-2,-3.8463213E-2,4.9306422E-2,-1.9942483E-2,7.432718E-2,-2.1811382E-1,5.4581583E-2,9.621432E-2,1.261181E-1,9.633455E-2,-1.8458425E-1,1.446092E-1,2.4612191E-1,-1.4457375E-1,1.7018598E-1,6.4170055E-2,3.5323998E-1,-2.4982432E-1,2.780583E-1,2.725423E-1,-5.567551E-1,5.3125393E-1,9.547453E-1,1.2525426E0,-1.1557757E-2,1.9932498E0,1.2676891E0],"split_indices":[5,5,5,5,5,5,5,5,5,5,5,5,5,1,5,5,5,4,1,0,3,1,1,1,1,1,3,5,0,0,1,0,5,5,4,3,3,4,2,3,1,4,1,1,1,1,0,5,2,1,1,1,1,5,5,4,1,0,0,0,0,0,0,0,0,0,0,0,0,0,0,0,0,0,0,0,0,0,0,0,0,0,0,0,0,0,0,0,0,0,0,0,0,0,0,0,0,0,0,0,0,0,0,0,0,0,0,0,0],"split_type":[0,0,0,0,0,0,0,0,0,0,0,0,0,0,0,0,0,0,0,0,0,0,0,0,0,0,0,0,0,0,0,0,0,0,0,0,0,0,0,0,0,0,0,0,0,0,0,0,0,0,0,0,0,0,0,0,0,0,0,0,0,0,0,0,0,0,0,0,0,0,0,0,0,0,0,0,0,0,0,0,0,0,0,0,0,0,0,0,0,0,0,0,0,0,0,0,0,0,0,0,0,0,0,0,0,0,0,0,0],"sum_hessian":[1.58543E5,1.40676E5,1.7867E4,1.00516E5,4.016E4,1.7722E4,1.45E2,5.6783E4,4.3733E4,2.6224E4,1.3936E4,1.5294E4,2.428E3,9.1E1,5.4E1,5.4E1,5.6729E4,2.4082E4,1.9651E4,1.4925E4,1.1299E4,7.985E3,5.951E3,9.645E3,5.649E3,1.998E3,4.3E2,9E1,1E0,3.8E1,1.6E1,1E1,4.4E1,1.3988E4,4.2741E4,1.865E4,5.432E3,1.9403E4,2.48E2,1.3661E4,1.264E3,1.0123E4,1.176E3,4.8E3,3.185E3,5.789E3,1.62E2,9.547E3,9.8E1,3.405E3,2.244E3,1.379E3,6.19E2,3.7E1,3.93E2,5.5E1,3.5E1,1.5E1,1E0,3.5E1,9E0,4.45E2,1.3543E4,5.023E3,3.7718E4,1.5257E4,3.393E3,1.374E3,4.058E3,1.5666E4,3.737E3,8.6E1,1.62E2,1.1815E4,1.846E3,1.164E3,1E2,8.778E3,1.345E3,1.153E3,2.3E1,1.833E3,2.967E3,2.3E2,2.955E3,8.6E1,5.703E3,3.7E1,1.25E2,4.265E3,5.282E3,5.1E1,4.7E1,1.258E3,2.147E3,8.8E1,2.156E3,5.9E1,1.32E3,4.2E1,5.77E2,3E1,7E0,3.47E2,4.6E1,5.2E1,3E0,2.5E1,1E1],"tree_param":{"num_deleted":"0","num_feature":"6","num_nodes":"109","size_leaf_vector":"1"}},{"base_weights":[7.468138E-4,-2.0816574E-1,1.6455414E0,-4.0806583E-1,2.921596E-1,1.5302684E0,1.8400497E1,-5.494063E-1,-2.2454074E-1,1.6164091E-1,5.377332E-1,1.3160132E0,3.7355366E0,1.5731079E1,2.8645163E1,-4.971174E0,-5.405017E-1,-3.1202802E-1,-1.1731598E-1,7.862187E-2,2.712852E-1,5.9049565E-1,3.7549686E-1,1.0668081E0,1.9179853E0,3.5045938E0,8.426603E0,1.2773026E1,1.8488827E0,2.9639978E0,2.882211E-1,-9.349679E0,-3.940112E0,-7.5139993E-1,-4.7175547E-1,-2.61251E-1,-3.308277E-1,-1.0994215E-1,-2.5922105E-1,9.183566E-2,-6.4149156E-2,2.7761713E-1,-1.7699291E-1,5.0274706E-1,7.0909613E-1,-3.1402653E-1,4.6709612E-1,9.2597765E-1,1.3278232E0,2.167994E0,1.5050765E0,2.2667222E0,3.9199808E0,9.115313E0,-5.7324677E0,1.3791016E1,-1.9063218E0,-1.1742952E0,-7.314261E-1,3.0437172E-3,-4.1635185E-1,-1.22496285E-1,-7.0804365E-2,-4.5466047E-2,-5.6573767E-2,-3.3402756E-2,-2.3086138E-2,-3.265957E-2,-5.6466013E-2,-1.7615303E-2,-9.140211E-3,-4.8757985E-2,-2.1685349E-2,1.0377635E-2,-6.8596923E-3,-1.0428343E-3,-6.8316504E-2,2.9414216E-2,1.3583094E-2,2.0376094E-2,-5.2350253E-2,4.732157E-2,7.590952E-2,-1.7971179E-2,7.265767E-2,-9.0923764E-2,1.4884206E-2,1.07117586E-1,4.008639E-2,1.23275995E-5,9.505171E-2,-1.5719613E-2,1.3466226E-1,1.5231805E-1,2.5256845E-1,8.6569645E-2,2.2528146E-1,2.769452E-1,3.5315093E-2,3.1835955E-1,4.4664416E-1,1.0610116E0,1.0062583E-1,-1.288546E0,7.8632545E-1,1.437169E0,-9.6782725E-3],"categories":[],"categories_nodes":[],"categories_segments":[],"categories_sizes":[],"default_left":[0,0,0,0,0,0,0,0,0,0,0,0,0,0,0,0,0,0,0,0,0,0,0,0,0,0,0,0,0,0,0,0,0,0,0,0,0,0,0,0,0,0,0,0,0,0,0,0,0,0,0,0,0,0,0,0,0,0,0,0,0,0,0,0,0,0,0,0,0,0,0,0,0,0,0,0,0,0,0,0,0,0,0,0,0,0,0,0,0,0,0,0,0,0,0,0,0,0,0,0,0,0,0,0,0,0,0],"id":15,"left_children":[1,3,5,7,9,11,13,15,17,19,21,23,25,27,29,31,33,35,37,39,41,43,45,47,49,51,53,55,-1,-1,-1,57,59,61,63,65,67,69,71,73,75,77,79,81,83,85,87,89,91,93,95,97,99,101,103,105,-1,-1,-1,-1,-1,-1,-1,-1,-1,-1,-1,-1,-1,-1,-1,-1,-1,-1,-1,-1,-1,-1,-1,-1,-1,-1,-1,-1,-1,-1,-1,-1,-1,-1,-1,-1,-1,-1,-1,-1,-1,-1,-1,-1,-1,-1,-1,-1,-1,-1,-1],"loss_changes":[5.4478953E4,1.4069939E4,3.4482004E4,2.6072383E3,1.2871511E3,8.380367E3,2.885746E3,2.233123E3,4.102234E2,2.3869336E2,1.1907886E2,2.4247383E3,1.6724395E3,5.7143945E2,5.2967773E2,4.778152E2,8.212871E2,2.2902832E1,2.0535034E1,2.8164467E1,3.212378E1,1.0907324E2,2.1634277E2,4.1940332E2,4.855371E2,7.618926E2,7.641123E2,1.9157578E3,0E0,0E0,0E0,1.6406616E1,8.3509155E1,2.851416E2,6.8413086E1,1.4325165E1,1.7204468E1,2.2918243E1,9.27903E0,2.6179092E1,4.2059235E1,2.606836E1,2.095238E1,4.5418457E1,6.95647E1,1.1088814E2,1.2047949E2,1.689458E2,1.1210498E2,6.758594E2,8.533506E2,3.6362378E2,4.368789E2,8.378237E2,4.9032202E2,4.0460547E2,0E0,0E0,0E0,0E0,0E0,0E0,0E0,0E0,0E0,0E0,0E0,0E0,0E0,0E0,0E0,0E0,0E0,0E0,0E0,0E0,0E0,0E0,0E0,0E0,0E0,0E0,0E0,0E0,0E0,0E0,0E0,0E0,0E0,0E0,0E0,0E0,0E0,0E0,0E0,0E0,0E0,0E0,0E0,0E0,0E0,0E0,0E0,0E0,0E0,0E0,0E0],"parents":[2147483647,0,0,1,1,2,2,3,3,4,4,5,5,6,6,7,7,8,8,9,9,10,10,11,11,12,12,13,13,14,14,15,15,16,16,17,17,18,18,19,19,20,20,21,21,22,22,23,23,24,24,25,25,26,26,27,27,31,31,32,32,33,33,34,34,35,35,36,36,37,37,38,38,39,39,40,40,41,41,42,42,43,43,44,44,45,45,46,46,47,47,48,48,49,49,50,50,51,51,52,52,53,53,54,54,55,55],"right_children":[2,4,6,8,10,12,14,16,18,20,22,24,26,28,30,32,34,36,38,40,42,44,46,48,50,52,54,56,-1,-1,-1,58,60,62,64,66,68,70,72,74,76,78,80,82,84,86,88,90,92,94,96,98,100,102,104,106,-1,-1,-1,-1,-1,-1,-1,-1,-1,-1,-1,-1,-1,-1,-1,-1,-1,-1,-1,-1,-1,-1,-1,-1,-1,-1,-1,-1,-1,-1,-1,-1,-1,-1,-1,-1,-1,-1,-1,-1,-1,-1,-1,-1,-1,-1,-1,-1,-1,-1,-1],"split_conditions":[7E0,3E0,5.6E1,1E0,5E0,1.7E1,1.18E2,-1E1,2E0,4E0,2.189E3,1.1E1,3.4E1,8.2E1,4.09E2,-3.1E1,0E0,4.06E2,2.963E3,6.15E2,3.118E3,6E0,2.273E3,9E0,4.72E2,9E0,5.5E1,8.1E1,1.8488827E0,2.9639978E0,2.882211E-1,-4.1E1,4.04E2,-2E0,1.9E1,1.66E2,3.118E3,2.56E2,5.62E2,2E1,3.118E3,1.9E1,1E0,1.359E3,2.3E1,5.9E2,2.322E3,4.8E1,1.3E1,2.51E2,2.389E3,1.361E3,2E1,2E0,5.92E2,2E0,-1.9063218E0,-1.1742952E0,-7.314261E-1,3.0437172E-3,-4.1635185E-1,-1.22496285E-1,-7.0804365E-2,-4.5466047E-2,-5.6573767E-2,-3.3402756E-2,-2.3086138E-2,-3.265957E-2,-5.6466013E-2,-1.7615303E-2,-9.140211E-3,-4.8757985E-2,-2.1685349E-2,1.0377635E-2,-6.8596923E-3,-1.0428343E-3,-6.8316504E-2,2.9414216E-2,1.3583094E-2,2.0376094E-2,-5.2350253E-2,4.732157E-2,7.590952E-2,-1.7971179E-2,7.265767E-2,-9.0923764E-2,1.4884206E-2,1.07117586E-1,4.008639E-2,1.23275995E-5,9.505171E-2,-1.5719613E-2,1.3466226E-1,1.5231805E-1,2.5256845E-1,8.6569645E-2,2.2528146E-1,2.769452E-1,3.5315093E-2,3.1835955E-1,4.4664416E-1,1.0610116E0,1.0062583E-1,-1.288546E0,7.8632545E-1,1.437169E0,-9.6782725E-3],"split_indices":[5,5,5,5,5,5,5,5,5,5,1,5,5,5,1,5,5,0,1,0,1,5,1,5,1,3,5,5,0,0,0,5,0,5,3,1,1,1,0,3,1,3,2,1,1,0,1,1,1,1,1,1,5,4,0,4,0,0,0,0,0,0,0,0,0,0,0,0,0,0,0,0,0,0,0,0,0,0,0,0,0,0,0,0,0,0,0,0,0,0,0,0,0,0,0,0,0,0,0,0,0,0,0,0,0,0,0],"split_type":[0,0,0,0,0,0,0,0,0,0,0,0,0,0,0,0,0,0,0,0,0,0,0,0,0,0,0,0,0,0,0,0,0,0,0,0,0,0,0,0,0,0,0,0,0,0,0,0,0,0,0,0,0,0,0,0,0,0,0,0,0,0,0,0,0,0,0,0,0,0,0,0,0,0,0,0,0,0,0,0,0,0,0,0,0,0,0,0,0,0,0,0,0,0,0,0,0,0,0,0,0,0,0,0,0,0,0],"sum_hessian":[1.58543E5,1.40676E5,1.7867E4,1.00516E5,4.016E4,1.7746E4,1.21E2,5.6783E4,4.3733E4,2.6224E4,1.3936E4,1.6176E4,1.57E3,9.8E1,2.3E1,1.13E2,5.667E4,2.4082E4,1.9651E4,1.4925E4,1.1299E4,1.0514E4,3.422E3,1.1442E4,4.734E3,1.498E3,7.2E1,5E1,4.8E1,2.2E1,1E0,2E1,9.3E1,1.3929E4,4.2741E4,6.511E3,1.7571E4,1.8682E4,9.69E2,1.3661E4,1.264E3,1.1142E4,1.57E2,6.046E3,4.468E3,4.01E2,3.021E3,7.435E3,4.007E3,2.946E3,1.788E3,3.78E2,1.12E3,6.9E1,3E0,4.9E1,1E0,7E0,1.3E1,5E0,8.8E1,1.166E3,1.2763E4,3.6168E4,6.573E3,1.915E3,4.596E3,1.7261E4,3.1E2,4.085E3,1.4597E4,1.5E2,8.19E2,1.2715E4,9.46E2,1.164E3,1E2,9.978E3,1.164E3,7.5E1,8.2E1,5.424E3,6.22E2,8.6E1,4.382E3,1.75E2,2.26E2,2.97E2,2.724E3,1.92E2,7.243E3,5E1,3.957E3,1.053E3,1.893E3,9.65E2,8.23E2,2.99E2,7.9E1,4.8E2,6.4E2,5.8E1,1.1E1,2E0,1E0,4.7E1,2E0],"tree_param":{"num_deleted":"0","num_feature":"6","num_nodes":"107","size_leaf_vector":"1"}},{"base_weights":[7.013169E-4,-1.873681E-1,1.4813952E0,-3.6728767E-1,2.6294845E-1,1.3675432E0,1.5291792E1,-4.945117E-1,-2.0209222E-1,1.4547473E-1,4.8397774E-1,1.1570722E0,3.0654764E0,1.2489266E1,2.3822968E1,-5.462933E0,-4.8793215E-1,-2.8083128E-1,-1.0558929E-1,7.075527E-2,2.4415767E-1,4.9945146E-1,2.5386875E-3,8.99286E-1,1.5628597E0,2.8146384E0,5.3527784E0,9.685652E0,1.5218727E1,2.4362577E1,2.7381E-1,-8.743907E0,-4.273434E0,-8.8917375E-1,-4.551525E-1,-4.2070532E-1,-2.7436036E-1,-7.526516E-2,-1.3966794E-1,-3.0231366E-1,7.5791255E-2,3.1477422E-1,2.0641509E-1,4.2924622E-1,5.9289944E-1,-1.1653421E0,3.148715E-1,1.0174742E0,7.2646147E-1,1.3982391E0,1.908063E0,-5.040757E-1,2.9058292E0,-5.278638E0,5.7835813E0,1.0223213E1,-1.2722655E-1,1.6223367E0,1.0725018E1,1.9373146E0,3.0106542E0,-1.1027374E0,-6.84174E-1,2.7900697E-3,-4.6875605E-1,-2.2947314E-1,-8.5742116E-2,-5.899766E-2,-4.2458232E-2,-4.3183435E-2,-9.0080174E-4,-2.643608E-2,-3.6485724E-2,-1.5854202E-2,-2.1379078E-3,-6.771161E-2,-1.3199416E-2,-9.8253645E-2,-1.5115308E-2,1.1986736E-2,2.7993473E-3,-7.374276E-2,3.3098515E-2,2.1448597E-2,-1.6559558E-2,9.740755E-3,4.3966E-2,6.71855E-2,4.8093576E-2,-5.6209523E-2,-2.0077956E-1,7.3048316E-2,-3.797079E-3,7.06789E-2,1.231819E-1,-1.834811E-1,8.1337884E-2,-4.750328E-2,1.4253648E-1,2.155389E-1,1.5621312E-1,-4.9952015E-1,3.8275683E-1,3.2330057E-1,1.8034671E-1,-8.88035E-1,5.4316234E-2,6.0137314E-1,-9.279121E-2,4.8428336E-1,1.1035984E0,4.2173292E-2,-4.5079067E-2,1.5406935E0,1.5256348E-2],"categories":[],"categories_nodes":[],"categories_segments":[],"categories_sizes":[],"default_left":[0,0,0,0,0,0,0,0,0,0,0,0,0,0,0,0,0,0,0,0,0,0,0,0,0,0,0,0,0,0,0,0,0,0,0,0,0,0,0,0,0,0,0,0,0,0,0,0,0,0,0,0,0,0,0,0,0,0,0,0,0,0,0,0,0,0,0,0,0,0,0,0,0,0,0,0,0,0,0,0,0,0,0,0,0,0,0,0,0,0,0,0,0,0,0,0,0,0,0,0,0,0,0,0,0,0,0,0,0,0,0,0,0,0,0],"id":16,"left_children":[1,3,5,7,9,11,13,15,17,19,21,23,25,27,29,31,33,35,37,39,41,43,45,47,49,51,53,55,57,59,-1,61,63,65,67,69,71,73,75,77,79,81,83,85,87,89,91,93,95,97,99,101,103,105,107,109,111,-1,113,-1,-1,-1,-1,-1,-1,-1,-1,-1,-1,-1,-1,-1,-1,-1,-1,-1,-1,-1,-1,-1,-1,-1,-1,-1,-1,-1,-1,-1,-1,-1,-1,-1,-1,-1,-1,-1,-1,-1,-1,-1,-1,-1,-1,-1,-1,-1,-1,-1,-1,-1,-1,-1,-1,-1,-1],"loss_changes":[4.4150535E4,1.1397854E4,2.8073684E4,2.1124492E3,1.0427151E3,6.330047E3,3.1931602E3,1.8536016E3,3.3228528E2,1.933537E2,1.0382471E2,1.6482383E3,1.1060293E3,7.0966016E2,3.3151172E2,2.5533691E2,7.4547754E2,2.1682373E1,2.0297958E1,2.8065414E1,3.005243E1,8.833252E1,1.5904079E2,1.9628857E2,3.454004E2,5.350117E2,9.0989795E2,3.0725195E2,7.430371E1,3.911504E2,0E0,7.0808105E0,1.0166467E2,1.8913843E2,2.1584082E2,4.8665466E0,2.0736084E1,4.6670723E1,3.8068283E1,2.0313234E1,3.102472E1,6.7346954E1,2.2154633E1,2.6614502E1,5.086145E1,4.5626495E1,5.0473743E1,3.804453E2,8.7438184E2,2.1160449E2,1.6560986E2,9.5290955E2,6.130752E2,1.7257109E2,2.913413E2,1.8706982E2,9.006076E-1,0E0,6.4114124E2,0E0,0E0,0E0,0E0,0E0,0E0,0E0,0E0,0E0,0E0,0E0,0E0,0E0,0E0,0E0,0E0,0E0,0E0,0E0,0E0,0E0,0E0,0E0,0E0,0E0,0E0,0E0,0E0,0E0,0E0,0E0,0E0,0E0,0E0,0E0,0E0,0E0,0E0,0E0,0E0,0E0,0E0,0E0,0E0,0E0,0E0,0E0,0E0,0E0,0E0,0E0,0E0,0E0,0E0,0E0,0E0],"parents":[2147483647,0,0,1,1,2,2,3,3,4,4,5,5,6,6,7,7,8,8,9,9,10,10,11,11,12,12,13,13,14,14,15,15,16,16,17,17,18,18,19,19,20,20,21,21,22,22,23,23,24,24,25,25,26,26,27,27,28,28,29,29,31,31,32,32,33,33,34,34,35,35,36,36,37,37,38,38,39,39,40,40,41,41,42,42,43,43,44,44,45,45,46,46,47,47,48,48,49,49,50,50,51,51,52,52,53,53,54,54,55,55,56,56,58,58],"right_children":[2,4,6,8,10,12,14,16,18,20,22,24,26,28,30,32,34,36,38,40,42,44,46,48,50,52,54,56,58,60,-1,62,64,66,68,70,72,74,76,78,80,82,84,86,88,90,92,94,96,98,100,102,104,106,108,110,112,-1,114,-1,-1,-1,-1,-1,-1,-1,-1,-1,-1,-1,-1,-1,-1,-1,-1,-1,-1,-1,-1,-1,-1,-1,-1,-1,-1,-1,-1,-1,-1,-1,-1,-1,-1,-1,-1,-1,-1,-1,-1,-1,-1,-1,-1,-1,-1,-1,-1,-1,-1,-1,-1,-1,-1,-1,-1],"split_conditions":[7E0,3E0,4.8E1,1E0,5E0,1.6E1,1.03E2,-1.4E1,2E0,4E0,3.003E3,1E1,2.7E1,7.3E1,4.09E2,-3.2E1,-1E0,7E0,4.72E2,2.3E1,4.06E2,6E0,5.66E2,4.77E2,1.3E1,4.8E1,9E0,2E0,3.118E3,1.29E2,2.7381E-1,-4.2E1,4.04E2,-7E0,0E0,3.106E3,2E1,2.56E2,4.79E2,4.04E2,4.77E2,4.8E1,3.118E3,4.8E1,4.77E2,6E0,5.9E2,2.51E2,4.94E2,2.3E1,4.59E2,4.04E2,1.443E3,3E0,4E0,1.2E1,1.4E1,1.6223367E0,8.1E1,1.9373146E0,3.0106542E0,-1.1027374E0,-6.84174E-1,2.7900697E-3,-4.6875605E-1,-2.2947314E-1,-8.5742116E-2,-5.899766E-2,-4.2458232E-2,-4.3183435E-2,-9.0080174E-4,-2.643608E-2,-3.6485724E-2,-1.5854202E-2,-2.1379078E-3,-6.771161E-2,-1.3199416E-2,-9.8253645E-2,-1.5115308E-2,1.1986736E-2,2.7993473E-3,-7.374276E-2,3.3098515E-2,2.1448597E-2,-1.6559558E-2,9.740755E-3,4.3966E-2,6.71855E-2,4.8093576E-2,-5.6209523E-2,-2.0077956E-1,7.3048316E-2,-3.797079E-3,7.06789E-2,1.231819E-1,-1.834811E-1,8.1337884E-2,-4.750328E-2,1.4253648E-1,2.155389E-1,1.5621312E-1,-4.9952015E-1,3.8275683E-1,3.2330057E-1,1.8034671E-1,-8.88035E-1,5.4316234E-2,6.0137314E-1,-9.279121E-2,4.8428336E-1,1.1035984E0,4.2173292E-2,-4.5079067E-2,1.5406935E0,1.5256348E-2],"split_indices":[5,5,5,5,5,5,5,5,5,5,1,5,5,5,1,5,5,3,1,1,0,5,0,1,5,1,3,4,1,5,0,5,0,5,5,1,3,1,1,0,1,1,1,1,1,5,0,1,1,1,1,0,1,4,4,3,3,0,5,0,0,0,0,0,0,0,0,0,0,0,0,0,0,0,0,0,0,0,0,0,0,0,0,0,0,0,0,0,0,0,0,0,0,0,0,0,0,0,0,0,0,0,0,0,0,0,0,0,0,0,0,0,0,0,0],"split_type":[0,0,0,0,0,0,0,0,0,0,0,0,0,0,0,0,0,0,0,0,0,0,0,0,0,0,0,0,0,0,0,0,0,0,0,0,0,0,0,0,0,0,0,0,0,0,0,0,0,0,0,0,0,0,0,0,0,0,0,0,0,0,0,0,0,0,0,0,0,0,0,0,0,0,0,0,0,0,0,0,0,0,0,0,0,0,0,0,0,0,0,0,0,0,0,0,0,0,0,0,0,0,0,0,0,0,0,0,0,0,0,0,0,0,0],"sum_hessian":[1.58543E5,1.40676E5,1.7867E4,1.00516E5,4.016E4,1.7722E4,1.45E2,5.6783E4,4.3733E4,2.6224E4,1.3936E4,1.5769E4,1.953E3,1.11E2,3.4E1,7.4E1,5.6709E4,2.4082E4,1.9651E4,1.4925E4,1.1299E4,1.3502E4,4.34E2,9.645E3,6.124E3,1.762E3,1.91E2,5.7E1,5.4E1,3.3E1,1E0,1.8E1,5.6E1,4.281E3,5.2428E4,1.062E3,2.302E4,1.04E4,9.251E3,